MSCI EM Vol,Oil Vol,JPM G7 FX Vol,US ISM Service PMI,Conference Board Consumer Confidence,GTGBP3MO Corp,GDP Libor,China Economic Activity Surprise,US Recession Probability in 1 year,Citi US Inflation Surprise Index,Global Economic Policy Uncertainty,US Trade Policy Uncertainty,US Monetary Policy Uncertainty,US Economic Policy Uncertainty,EU Economic Policy Uncertainty,China Economic Policy Uncertainty
-0.7416266872671237,1.9053111051340674,1.209645995977116,1.2821405950024292,-0.46387001321693977,6143660.155546741,1.7731545435126883,-0.31095903076860887,-13.779356131905773,0.520027811788071,-2.095409821578866,1.6521852278052789,-0.4556128962515014,0.07087007131586909,0.6059996188680719,0.8388319748614753
-8.851021736536021e-13,-9.057899351787705e-09,1.161890884031651,0.7851304313732982,1.9928774726927652,6143660.528866312,1.7812234160108287,0.0983600642417099,-13.360307220618209,1.218657567975425,-0.7054453832637716,0.7206880691118617,0.13114937253404008,-0.5351205339465861,-1.0652719558730952,-0.7131933650828822
-8.25545245551503e-13,-8.596876645380986e-09,1.0982174014376973,0.46913230335788336,1.475108484364673,6040752.481205011,1.7794369329152608,0.0954890454358854,-12.869951374982934,0.16752336227768438,-0.6082892352397603,-0.37589313094788535,0.010684058368368677,-0.5358809636784215,-1.218862236472815,-0.8076190441099672
-6.892929676388109e-13,-7.458046862029088e-09,1.1061765867619413,0.4138722136518713,1.3546605614245766,5838557.116208829,1.771441164584714,0.08830985411499613,-11.33065174341952,0.16324518691848447,-0.575400173765812,-0.35200491731849676,0.008880126191825977,-0.480104245449464,-1.1519297413736742,-0.7804611912390447
-6.820902805062318e-13,-7.446317573417748e-09,1.0703602528028424,0.41218167376178355,1.3467159056699973,5784762.32112757,1.7663010278007905,0.08724593423073991,-11.346402493235777,0.16246318292129155,-0.5742729166083649,-0.34811898409476105,0.008790086299052691,-0.47959635739161954,-1.1412422894621437,-0.7765474219496686
-5.762150996841785e-13,-6.490088223162527e-09,1.181788847342261,0.3793822826961945,1.270907968997629,5849771.915976392,1.7640165225634914,0.0820722003197375,-10.213419148447384,0.1645761808514056,-0.5666262301392248,-0.33937796009383764,0.0074506139862202045,-0.43617820544478364,-1.1131019792407633,-0.7871126735117564
-5.875808166641865e-13,-6.525672706180726e-09,1.19770721799075,0.38525727186466485,1.2793505953221678,5876457.066019053,1.7674432804194402,0.08232437000074454,-10.229018347578126,0.16523206769219745,-0.5684574578469256,-0.3417386598409548,0.007587784000863645,-0.4370301622957859,-1.1192415295899933,-0.7904567832123105
-5.794108247477903e-13,-6.462036692942263e-09,1.209645995977116,0.3822425978728427,1.275897685101209,5989504.349866884,1.7668721541101151,0.08302299989306118,-10.396808517727557,0.1662073109344673,-0.5749747532871128,-0.3429220459598373,0.007513397062853156,-0.4389083521582736,-1.1275629164560237,-0.7984608242996867
-5.722953259933774e-13,-6.430309362031798e-09,1.0703602528028424,0.3750008502769518,1.2583348416038478,5984578.521966394,1.7628742699448416,0.08301679827529257,-10.403620915926263,0.1644268700385249,-0.5726601196102709,-0.3397858395787664,0.007451428884704677,-0.4383167597853955,-1.1285101168138227,-0.7902761896065936
-5.854888603291273e-13,-6.50452116075444e-09,1.0584214748164764,0.3791309261727837,1.2711067450203661,5911022.74890389,1.7657299014914658,0.08349602282138373,-10.548136275334741,0.1628826305533634,-0.5714422616016314,-0.34087353623905575,0.007559371568894357,-0.44441321047973736,-1.1247846058104471,-0.7862383999277097
-5.678155317577495e-13,-6.276186996563852e-09,1.0584214748164764,0.36908869260945065,1.248811411488128,5976298.786869572,1.7651587751821411,0.0832612892751309,-10.592279449047675,0.16173019032536604,-0.5678212349592412,-0.33603331044656104,0.007246047821418536,-0.43986312653429027,-1.1161264364238976,-0.7804440596957025
-5.061755941366981e-13,-5.78384947958382e-09,0.9987275848846445,0.33928307922053125,1.1757078565343482,5944618.473266467,1.760018638398218,0.07971417224204812,-9.961268008411693,0.15881741366381766,-0.5554917398706075,-0.3225319927615563,0.006505334659149501,-0.4137715465654297,-1.0921223617991116,-0.7666634618468197
-4.188015253417666e-13,-5.088276024020233e-09,0.863421434372493,0.2963547814566416,1.075986931272075,5867104.710635427,1.7479518817348036,0.07532494636532965,-9.140477195222232,0.1541667530429714,-0.538158694476768,-0.30585752111884623,0.005471317955049094,-0.379543247648632,-1.0585805135669482,-0.7504723012524159
-3.786401425344166e-13,-4.712043484026945e-09,0.7002581352254865,0.2758633174195092,1.0213085942451285,5834124.549988206,1.7420304441597243,0.07273024155608274,-8.73911564704207,0.15058394350163382,-0.5272812919539474,-0.29608373497505697,0.0049791804627597825,-0.36023435655637753,-1.0359360262851092,-0.7384723112781465
-4.915971538495623e-13,-5.725608492670979e-09,0.823625507751272,0.3323002676801152,1.171505569739241,5884619.711852723,1.7390286042779133,0.08025181663355517,-10.172520123987162,0.15586529095073812,-0.5497999472209432,-0.3209922325333891,0.006385803390745638,-0.4154555906230679,-1.0880859332668584,-0.7537873631386879
-5.530484940609792e-13,-6.153418970303081e-09,0.8116867297649052,0.3626897587029071,1.25479935878555,5899991.326912803,1.739599730587238,0.0836350256498721,-10.763979929287048,0.15870477344598946,-0.5637886358858359,-0.336129917911334,0.007067486925387429,-0.44114631838629625,-1.1107042311534487,-0.7721309920297499
-5.390237647684724e-13,-6.036933888936451e-09,0.863421434372493,0.35559362112495047,1.2388215734761125,5906850.026988131,1.7407419832058877,0.08267920419624851,-10.614306368377395,0.15683278891558147,-0.5623650252440999,-0.3320987841024869,0.00693196258844441,-0.4329222273364823,-1.109134415297972,-0.7709793554462977
-6.143625597589959e-13,-6.663869470527906e-09,0.9788296215740337,0.4004319137204717,1.340235006596904,6076504.256914681,1.741600957175112,0.08616879139284561,-11.395895253035293,0.16652807011496343,-0.5882756984381514,-0.3497013756246609,0.007859577830783039,-0.4650281224983329,-1.144576036850509,-0.8019298073461948
-6.179890002771243e-13,-6.643603112612489e-09,0.9947479922225225,0.3953601451039011,1.3303176075471281,5852153.24396301,1.753023483361608,0.08528594367830139,-11.46250209798094,0.15909953950821085,-0.5795410489951777,-0.34124444660792863,0.007935944309681045,-0.4637663670950438,-1.120464562939047,-0.788782465581756
-6.157835179454207e-13,-6.718317469189972e-09,0.9310745096285687,0.4054450340977909,1.3556935682689624,6297124.237238024,1.7553079885989071,0.08751009329636934,-11.570542893290442,0.1724976658538389,-0.6032389761562935,-0.3593202339464007,0.007890646810937133,-0.4735475295919019,-1.1757061240679711,-0.820974096724074
-6.014368881593883e-13,-6.569924350907062e-09,0.8475030637240042,0.39778965903008645,1.3323491647620223,6246284.429320265,1.7583052594702435,0.08645057763770525,-11.415181277875353,0.16975564627941378,-0.5973741735435072,-0.3550539589213318,0.007715216898572862,-0.4654341002982218,-1.1666287169337346,-0.8133044906690615
-5.825368597345753e-13,-6.427788334283647e-09,0.7281152838603413,0.38280470719222626,1.300750144039137,6177079.6312489575,1.7570899026840003,0.08561536652845714,-11.317656226292597,0.16487343582070146,-0.587580724065418,-0.347636551615283,0.007499985410409467,-0.4576420740820932,-1.1577882196036609,-0.7960218003218759
-5.321361132020419e-13,-6.03838496843641e-09,0.7161765058739745,0.3829385564317499,1.3025546168456017,6810674.278859881,1.7628742699448416,0.08675237874216653,-10.898838559208789,0.18157580841076493,-0.6137143865461531,-0.371446212176672,0.006782752774772576,-0.44788339455887133,-1.2239670070965476,-0.844563390131144
-9.735045114839662e-13,-9.771016899088684e-09,0.6684213939285096,0.5831349628633142,1.7829575508556088,6815228.314000464,1.7565187763746757,0.11252208197990418,-15.999663611618187,0.19082804191348327,-0.6850098288095092,-0.44908108591464113,0.012146238682750365,-0.6468504317765135,-1.4031077618963068,-0.8662216472336642
-9.338167849193693e-13,-9.105121204867503e-09,0.6883193572391197,5.463558857141449,10.838865248794121,6853956.9073063135,1.7500947476473903,0.11035290974878426,-15.563282050276035,0.22487629195086392,-0.3970439286030832,-0.10431509885852476,0.4303885225016667,1.1619882014830498,-0.23879333654554888,-0.2137626216317019
3.324690847317159e-13,2.349022450519839e-09,0.6166866893209219,0.09685894092282996,5.16440025583427,6232325.489083332,1.7421720834844368,0.06983602986969625,-2.455243907100174,0.12165636261360246,-0.2868691486316988,-0.08623025568463949,-0.168303952141572,0.2143134192928556,-0.19918922472514813,-0.19850268888966885
1.30931971019883e-11,2.6850720016839785e-07,0.6604622086042655,3.5173629781128257,7.9482373716874415,26784977.325166278,1.739316451937813,1.7344117678560447,-10.495497911918468,1.7260057372912307,-4.869890045640498,-0.6887595231689346,-9.890108669043439,5.8183520933122805,-3.1657335677173553,-2.0112270351932544
1.2583345096738361e-11,2.698496906767967e-07,0.588829540686067,3.3934645022102314,7.7112913133556935,26417352.2524309,1.74031706523175,1.7214649570448288,-10.164129747469007,1.6701243805632926,-4.768519892495542,-0.6752933954460248,-9.625699898022454,5.651004702506994,-3.1322697971212086,-1.9718950418184427
1.146242783716132e-11,2.672931099677001e-07,0.525156058092114,3.166488347742381,7.291847473637944,25991087.904920947,1.7391748126131006,1.698373081531939,-9.650338705578806,1.6055337017875744,-4.697394070083022,-0.6588785951893706,-8.951537713734695,5.429127346156277,-3.1071920515514795,-1.9498064678130598
1.1198713744988188e-11,2.653134059810711e-07,0.4853601314708923,3.11677686993065,7.216518234122954,26150025.536954667,1.7390286042779133,1.6973580543416174,-9.568388425303718,1.6030463923718858,-4.693225673809732,-0.657273406859185,-8.802046426726609,5.377386819568851,-3.1178701854936106,-1.9475656914764774
1.141582308284343e-11,2.6896892414666415e-07,0.5092376874436252,3.1691824284596275,7.355751235695971,26642861.826551836,1.7387453256284884,1.7240021889235395,-9.530312391643417,1.644181892648945,-4.744864293323574,-0.6728141613410855,-8.898839694081294,5.420956517269444,-3.16209512845213,-1.9817065537311918
1.1635139421957821e-11,2.722679316877091e-07,0.525156058092114,3.205234356923265,7.405330594026422,26435638.078596953,1.7390286042779133,1.7240405475791598,-9.547315053133055,1.6353521979075336,-4.7176684116031975,-0.6710695874806705,-9.067118323476558,5.423880232176835,-3.1407459733966676,-1.9709411426426602
8.752085923642035e-12,2.1727562341179762e-07,0.48138053880877024,2.592337043868404,6.60514981475893,25783575.428900786,1.7376030730098386,1.6093543735254505,-8.086674201914663,1.496368585142112,-4.449050692528338,-0.6397580424189803,-6.871916734770101,4.634203578376582,-3.0425252831104217,-1.9206855244434007
8.50320443583395e-12,2.1604181300949755e-07,0.4535233901739154,2.482613412093042,6.402161604017045,25318813.162408777,1.7360313334065767,1.5944161196550064,-7.986551239886629,1.4572103523547253,-4.365365471634936,-0.6203297471617484,-6.709924688405881,4.564143532827905,-3.0014300813720456,-1.8736969295205057
8.048952002296848e-12,2.0883315925452715e-07,0.36597235160722946,2.3844806987306604,6.248983694676373,25201269.89081226,1.737031946700514,1.5796629547518206,-7.849307397496801,1.4167455650296614,-4.3605390661314605,-0.6144407867435928,-6.429558840905511,4.4678745260814825,-3.0009960127264765,-1.8709239687574002
8.770770669727811e-12,2.2079843394666244e-07,0.46148257549816013,2.579216548151676,6.648628820892304,25688926.515723526,1.7360313334065767,1.6347906364061604,-8.066142910749862,1.4853135875007473,-4.51721620071277,-0.648756688947997,-6.873195843132362,4.6943446393945285,-3.0744275611166545,-1.9562154629807975
1.0146298017313694e-11,2.5157141479783083e-07,0.46148257549816013,2.8816824454206293,7.016497788476028,25304798.282842338,1.7417425964998245,1.6751005031501438,-8.706270192996485,1.5467302748635152,-4.564069558844143,-0.6525552495540344,-7.981478631217538,5.076908735620692,-3.0688708380377987,-1.9325181365616502
9.861281338648869e-12,2.499086892892772e-07,0.44556420484967135,2.8099056380732006,6.885129769734218,25172037.20547332,1.7421720834844368,1.669252811228278,-8.707189899451174,1.5172216274965558,-4.575775507018287,-0.6468130309173596,-7.824010527727037,5.0808140525371615,-3.073575865173728,-1.9264728001851503
9.192309213433078e-12,2.39884649977442e-07,0.42964583420118324,2.6745166350291547,6.715297400204435,25061666.187791232,1.7411714701905,1.6508553035352047,-8.44655127283273,1.4888584042462718,-4.547028693305466,-0.6429534300037052,-7.325330094284512,4.924670298791836,-3.0634388388111837,-1.927767273278467
-1.193522767013239e-12,8.79530981541608e-08,0.41770705621481646,0.29187217755605777,2.4924380535412305,-6294053.343946035,1.7417425964998245,-0.027674039866934702,10.004164658141962,0.5858297112413006,-1.1656981423182762,-0.35820064031217375,-1.3269534941865344,-1.0767581846911591,-1.6204924448688276,-1.0625338599941652
-1.1611481371562668e-12,8.59224202837461e-08,0.46148257549816013,0.286637821081609,2.4740832610105703,-6235874.998730717,1.7406003438811752,-0.027502035090151748,9.833627709585171,0.5794477760437704,-1.1574084676114134,-0.35806780983575887,-1.2850353970542112,-1.0620744045412103,-1.608831603262243,-1.0618565461156093
-1.142386009194251e-12,8.609599621450029e-08,0.4654621681602822,0.2823246550635042,2.452899774170738,-6246525.845267197,1.7423137228091492,-0.02771466352934564,10.0463158567354,0.5796592116325118,-1.1605536391932294,-0.35618405608346887,-1.272113874067187,-1.0766401073568308,-1.60609573621801,-1.0582982122522182
-8.308636245413247e-13,6.744926247077495e-08,0.47342135348452624,0.22488059073140187,2.1919754943394203,-6065136.376699182,1.7463116069744227,-0.026147945771815336,8.706630554818167,0.5255454864901102,-1.1106955569549681,-0.3436457789842691,-0.929802372557239,-0.9424585509160317,-1.5522656925762381,-1.048003915817129
-6.860081227629401e-13,6.269277585955022e-08,0.5012785021193811,0.17914402584334826,1.9274925790057817,-5324194.154742036,1.757163006851594,-0.02577409190250722,8.735759278224311,0.4618859084029138,-1.0225640232482607,-0.30931704043737784,-0.7812079869925143,-0.9477644195575129,-1.4245821608666231,-0.9476909047964346
-6.733200092571455e-13,6.186573917669732e-08,0.4893397241330143,0.6639011950625353,1.5171050630694427,-5310915.041721683,1.7588763857795684,-0.02547417459495197,8.583839597063912,0.7140296414955274,-1.053317578127589,-0.38057494290722366,-0.7358828169789505,-1.580992924354315,-1.1259547800924192,-0.6956039658800519
-8.485821890461939e-13,6.808431355439507e-08,0.588829540686067,0.8575858962372777,1.801726780635453,-6071343.464599156,1.764587648872816,-0.026291898542092827,8.466937462623243,0.8242357623889829,-1.1602526079484148,-0.4397480392774252,-0.9012087552069535,-1.5857979839348242,-1.2409783533558272,-0.7934882281003806
-8.472832076327998e-13,6.713246164692762e-08,0.7201560985360966,0.8685484170010722,1.8287734668486975,-6113223.107503113,1.7680144067287649,-0.026267162204115187,8.302142732263189,0.8447573614603082,-1.1620216043091334,-0.4472053664761971,-0.8904581495025524,-1.5714206427476762,-1.2382820292929888,-0.8059592551834034
-3.800649699097881e-13,3.4596974905183176e-08,0.7002581352254865,0.5056475012717379,1.425101440939378,-5723713.236775917,1.7513101044336337,-0.022526540378045676,5.444362301509405,0.6602983113467705,-1.01281211179103,-0.412635943126366,-0.39149231822134845,-1.0578181642540496,-1.1457987595328518,-0.7678888493440253
-3.5513029686492423e-13,3.339159897479752e-08,0.6803601719148756,0.4657915839654513,1.353961127912042,-5486497.499818791,1.7485230080441287,-0.022139231442182015,5.373115787831339,0.6251806078931333,-0.9782196604164477,-0.39315864119334487,-0.36794006740969143,-1.0392813923373658,-1.1109119283783142,-0.7367443203079246
-4.0200645681721083e-13,3.56824667983861e-08,0.7281152838603413,0.5245680537225124,1.4663335989417905,-5752961.211296175,1.7480249859023973,-0.02251316491815509,5.4614602429225165,0.6620646066563728,-1.0141119442033346,-0.41450630208658173,-0.41174666118606745,-1.0540012438434325,-1.1501720397918347,-0.7703155669080427
-4.135137226590314e-13,3.639208966995134e-08,0.7798499884679283,0.556943448518921,1.5359451064935752,-6124658.221913006,1.748596112211722,-0.023234235610635576,5.505877552425194,0.7151532531775837,-1.059434751168186,-0.4435549318735789,-0.4186916182562811,-1.0788252818258797,-1.2057951683502148,-0.8119109445494468
-4.101275040368276e-13,3.700814556300537e-08,0.6564826159421429,0.569060400244498,1.5503985612286826,-6491357.2216888,1.7468827332837478,-0.023878903433707674,5.5930250801905865,0.7585364976073019,-1.0990609416987813,-0.46293665290122465,-0.41737608036093876,-1.1078146086960052,-1.2594597608218059,-0.8367314345377049
-4.1954538023544316e-13,3.812970917861155e-08,0.53709483607848,0.569509196524948,1.538858365188457,-6542862.865090895,1.7468827332837478,-0.024122988557345466,5.782916145692141,0.7602501359317062,-1.1057671136172456,-0.4566261654161881,-0.42926992377912737,-1.1338697857864688,-1.2682501818408027,-0.8275464163186157
-4.677135111215892e-13,4.0418964543299315e-08,0.5490336140648461,0.6367053324134949,1.6470373312522466,-6837109.407804646,1.7500947476473903,-0.02452375799884154,5.91033117055612,0.8082897414712401,-1.1381307859660743,-0.47719683578473987,-0.4748553761589219,-1.1553016833478096,-1.3045684467404344,-0.85628858450741
-4.664312620554602e-13,4.037041527480748e-08,0.5450540214027241,0.6380697506495906,1.6508314523962688,-6837839.207074999,1.750167851814984,-0.024563386119366006,5.9229672799009565,0.808354078663919,-1.1423940100577639,-0.47997175906253525,-0.4733120481816293,-1.1578058103420572,-1.3090465021390296,-0.8607333950734793
-4.724256025063588e-13,4.062539507060538e-08,0.5689315773754569,0.6472267960725809,1.6640137032260385,-6909778.8814264685,1.752452357052283,-0.02465592779109236,5.9078231541529735,0.8211053808317711,-1.1514357924500693,-0.4853079278625589,-0.47795129509983253,-1.1619667967957699,-1.322830568213887,-0.8679245599324459
-4.648473430229789e-13,4.050032057447856e-08,0.53709483607848,0.6299118564137199,1.624146168304328,-6850213.38919748,1.7529503791940144,-0.024465369918774356,5.881149399296019,0.8126232120912605,-1.1375792785855765,-0.4743886485669533,-0.47283176198460386,-1.1571557514059498,-1.3137902314972856,-0.8498305315544884
-4.695863406067594e-13,4.0768340301723135e-08,0.493319316795137,0.6323071795312618,1.6363522558066879,-6908959.229547245,1.7518081265753647,-0.024715106674519382,6.025868752974448,0.8136777509965705,-1.1439320165936584,-0.47582383304870873,-0.47749673837498874,-1.1707586344419927,-1.317401366985754,-0.8511267822875318
-4.72887291850769e-13,4.027309899415963e-08,0.529135650754236,0.6368434166034737,1.656375244734478,-6910457.9799036365,1.7529503791940144,-0.024753501699781816,6.012531817001012,0.8175702154592323,-1.1446171832375103,-0.4801362096219709,-0.47659590612223607,-1.1701701473818826,-1.3164638996208078,-0.8568780118357882
-4.973218711632687e-13,4.0987429228666334e-08,0.6007683186724337,0.672980341921033,1.7252963686585399,-7090830.97370381,1.753023483361608,-0.025058945144725023,6.063292153819858,0.8461468456348101,-1.167467178314181,-0.49656003320481223,-0.4976618491448096,-1.1824994110705536,-1.3406158754004487,-0.8814510911248378
-5.280702570498609e-13,4.181061581069233e-08,0.7639316178194403,0.7279323596190579,1.8348997255875177,-7094037.230501667,1.752452357052283,-0.025372972990209918,6.160866200393411,0.8799234566137408,-1.1736718124538528,-0.5177784791949968,-0.5230553733685996,-1.1995005665630192,-1.3350612874775114,-0.9042015437986816
-5.122084672086114e-13,4.096846961794231e-08,0.6365846526315327,0.7038647561090688,1.7871120067866464,-7048404.698246898,1.749167238521047,-0.0250027203707019,6.099138605190702,0.8652795157578959,-1.1616245907942084,-0.5063997543625891,-0.511663114027966,-1.1830166631972885,-1.3267222216828154,-0.8889252296967745
-5.130250792740589e-13,4.068331601272919e-08,0.6405642452936547,0.6991924478778567,1.7775426019437255,-7081356.981636405,1.7474538595930726,-0.025055815102722527,6.131901808575661,0.8692085648370129,-1.1612663123732474,-0.5045653087189854,-0.5107403454810922,-1.1860926381139825,-1.3306599645126345,-0.8844195766196025
-5.122730336248144e-13,3.834371956104937e-08,0.6485234306178987,0.7073568028965047,1.8225450676188626,-7111870.334753307,1.7267682203027173,-0.024800419103205216,6.138987293256219,0.8791553603983785,-1.1581235928193616,-0.5115920634027085,-0.5028293505390216,-1.171513856030554,-1.321649708401643,-0.8931533771313968
-5.454638819831941e-13,4.4158030423782317e-08,0.6962785425633644,0.7506764379476741,1.8599419704607505,-7200026.807865499,1.753521505503339,-0.025874386983743378,6.208113017787172,0.9058167396616366,-1.1949134830493873,-0.5256760653843591,-0.5460166247009142,-1.223873106475918,-1.3593833699492488,-0.9183263616690014
-5.472262914566069e-13,4.5305754513458234e-08,0.7718908031436843,0.7571816143277182,1.854392147176302,-7204054.058433214,1.7617320173261923,-0.026042030074941967,6.1123824268043805,0.9119828077903902,-1.2026129512862542,-0.5296118976187149,-0.5503877007492958,-1.2283347017143875,-1.3677430324352784,-0.9266669513061624
-5.5650032570492e-13,4.70777239461394e-08,0.7559724324951955,0.75988099780955,1.8460482377465575,-7068339.370864501,1.7663010278007905,-0.026026432069947307,6.097453745860791,0.9109110609712634,-1.1864895140144662,-0.5225410682174907,-0.5646152625493114,-1.2342113886951953,-1.3527201198679175,-0.9096123970150409
-9.903643478731085e-13,5.04567124473765e-08,0.7559724324951955,0.871743450017172,1.6475633647461774,-21313681.655756753,1.7668721541101151,-0.06297733885682902,25.059242583553687,0.2463269398031942,-0.9680998019193056,-0.2287764334609068,-1.2692257921990509,-1.253433285459475,-1.2823179347198994,-0.5790428202897905
-9.911088907220486e-13,5.126254674622042e-08,0.823625507751272,0.8956335225858466,1.685595795926578,-21617683.46540901,1.7657299014914658,-0.06367344934082063,24.513937906402244,0.2500817861693231,-0.9893517118840012,-0.23726292370978788,-1.2716312079011138,-1.2519244622284618,-1.3041377181346216,-0.6010594507977309
-2.2323943591591224e-13,1.6776418124419156e-08,0.9828092142361557,0.39829893054093574,1.2109889695407787,-20631726.570747998,1.7674432804194402,-0.05174972992634531,12.839295960558186,0.1897910630053166,-0.8519018795551074,-0.21982940515591168,-0.2684496172026887,-0.6991813541198579,-1.1971936506672791,-0.5918533615440165
-2.123088661137018e-13,1.5914050228180964e-08,0.9828092142361557,0.3861038840181443,1.1941885187180707,-20670272.462992422,1.7663010278007905,-0.05138942874211879,12.478024151667237,0.18765977752557428,-0.8408042240418431,-0.21964127942530381,-0.2540974268519763,-0.6754395393996618,-1.1885118336814897,-0.5917316877136103
-2.2616022726844274e-13,1.720941767263619e-08,1.1419929207210402,0.3991059289101648,1.2156556077508416,-20451604.213325873,1.753023483361608,-0.052732122065892305,13.29348878400661,0.18989658237539783,-0.8530374926840283,-0.21981820334331847,-0.27276706637177045,-0.7207570604195809,-1.1927832608026983,-0.5892777705128255
-1.8369822977309648e-13,1.5898688474701982e-08,1.1220949574104302,0.3135409817886227,1.0611200486210997,-17990347.59656148,1.7529503791940144,-0.052000640207093524,13.305806532742736,0.16565798847401286,-0.7942824062172545,-0.19896410370412557,-0.22548476897876274,-0.7271484668046078,-1.1040315084971042,-0.5371543037571731
-1.8467151436572634e-13,1.5973299451842688e-08,1.0305643261816215,0.3148023031070369,1.0590140218172224,-18167699.356110804,1.7523792528846893,-0.051820250167767805,13.223104416423112,0.16540528554856018,-0.799190837443978,-0.19909460125725878,-0.2270367951549901,-0.7214082924487991,-1.1147285426993603,-0.5393599988775025
-1.7817034293611798e-13,1.5807683309914023e-08,0.8753602123588591,0.2983515348640658,1.0165568719900882,-18078320.741798762,1.7518081265753647,-0.05131118861901381,13.120370648815205,0.16202822993275098,-0.7898270345870161,-0.1926505817852766,-0.2206209824748395,-0.7135770505628249,-1.109478640140647,-0.5261130012028485
-1.8087812855584138e-13,1.5991283223656805e-08,0.823625507751272,0.3074476206271946,1.0362322206591967,-18191103.67784923,1.75123700026604,-0.05155309879671241,13.20643801948258,0.16499182361905027,-0.796128051323537,-0.19576514515762836,-0.22513168110183712,-0.7175781975700734,-1.1150423508076905,-0.5327183842030916
-1.7674132635177584e-13,1.5855557396164547e-08,0.8276051004133941,0.30388808291786223,1.0346056338787886,-17952019.91710312,1.7484544728870095,-0.051849833884348516,13.274148551545895,0.1639741464985343,-0.7971210148266645,-0.19725425408236397,-0.22174028954630423,-0.722920443049621,-1.1124275404154758,-0.5352967636667884
-1.9524915090664475e-13,1.608313488894443e-08,0.9987275848846445,0.3475357629538108,1.1294251384051905,-19808400.52542564,1.7468096291161541,-0.051841801178854924,12.599724148510054,0.177858730205169,-0.8492182091363416,-0.2159678679850402,-0.24061139465595058,-0.6922768544790288,-1.1920864079545785,-0.588040261675503
-1.6257577773937517e-13,1.4169295283108873e-08,0.9668908435876676,0.2890412012004544,1.014396471935909,-18935029.197446804,1.7404587045564623,-0.04970473093953687,11.675181394227085,0.16318234945097465,-0.8024170845821724,-0.20098958924461294,-0.19968026942547049,-0.6437506125774136,-1.1430828083834506,-0.5562513337246742
-2.1355842698157098e-13,1.5960492099205773e-08,1.0743398454649644,0.47129530995849095,1.460509410464428,-21515705.88489472,1.739316451937813,-0.053581683526072246,12.834792092096327,0.22107964865102792,-0.9091670213924167,-0.27262235004570734,-0.2709223847816718,-0.6812595097190572,-1.2094198006144248,-0.7101672345148771
-2.5000141214367984e-13,1.8411290685739807e-08,1.0584214748164764,0.5334387482464346,1.544778036090725,-21962472.12287222,1.7386036863037755,-0.055258536367056486,14.216942501509276,0.2375065967299568,-0.9435291729977939,-0.27444776751678385,-0.31901635124082567,-0.7487511399520478,-1.2268325747894455,-0.7153489256318397
-2.6114066241396657e-13,1.935057322758731e-08,1.0743398454649644,0.5423588628674206,1.5449349114506896,-21601960.39705983,1.7331757018599527,-0.055832641001982874,14.833062882580164,0.2384962231591379,-0.9423530816334302,-0.26968953464300466,-0.3338368874988465,-0.7803611992555509,-1.2168027346117622,-0.7029095020056505
-2.616613103715142e-13,1.9096120912456336e-08,0.919135731642202,0.5527166825916335,1.5478699106563265,-22596179.79305413,1.7291778176946793,-0.054591205462090134,14.424819133701776,0.24629299156213894,-0.9629694609454593,-0.2703911396129987,-0.33352420750402806,-0.757190895200361,-1.242152575742576,-0.7181317538081609
-2.5361209588844047e-13,1.9022089182694593e-08,0.9430132876149349,0.4892114138604164,1.4244540604907197,-21713181.025861822,1.7291778176946793,-0.05457293581642709,14.502206377180755,0.2256759429262039,-0.9400867747332166,-0.252601318815181,-0.31786878448787564,-0.7698641283290808,-1.2320468276385463,-0.675059868441678
-2.627549622381108e-13,1.9356217655472523e-08,0.823625507751272,0.5184606102704505,1.4844643456400242,-21912074.396159414,1.7353185677725393,-0.05502119327705243,14.78899982886638,0.23178697469969617,-0.950611082442954,-0.2601762433315976,-0.3310278175486131,-0.7782132236435355,-1.2386274510176185,-0.6885167858654683
-2.72383664356524e-13,1.9193796587715036e-08,0.7957683591164172,0.5474720273113176,1.5422565221549844,-22984013.74143738,1.7348890807879271,-0.054589221174118345,14.368028949673837,0.2413354152456534,-0.9615347383193757,-0.26788704978860517,-0.3419881645949492,-0.7489306902463734,-1.266488247841715,-0.7070981022373364
-2.1981402603320417e-13,1.6052469521306415e-08,0.588829540686067,0.4849758554387145,1.4328692043398445,-22870875.49480841,1.7348890807879271,-0.05134174242809153,12.803919821624513,0.2320088824721368,-0.9324246661433457,-0.26161088410674016,-0.28098604613820216,-0.6643680616566897,-1.237200037422047,-0.7044192410028407
-2.1862186409120322e-13,1.5702534606490826e-08,0.533115243416358,0.4800913198389395,1.4282532404134871,-22755747.720792193,1.735176928447827,-0.05079564813059924,12.90822780987168,0.231052378401309,-0.9301682468166245,-0.2585629520930176,-0.27842790642427684,-0.665860399380518,-1.2297530941973414,-0.6982166114445757
-2.4528671864618674e-13,1.6751901822095975e-08,0.4694417608224042,0.5156787369176066,1.5155501042599864,-22778259.302582867,1.7341763151538896,-0.05281591168967206,13.984562190403485,0.23265069765384586,-0.9472814011376673,-0.2668646003652274,-0.3095012961174492,-0.7109606928552018,-1.2560034211937836,-0.7011315640558606
-2.1252625062668343e-13,1.2361666793287939e-08,0.47342135348452624,0.45830586378873883,1.4667503611924235,-22541637.1404224,1.736890307375801,-0.049355680456794525,13.45792177988365,0.22538851550379319,-0.9051084259019789,-0.2576742900257486,-0.2581428453695791,-0.6536903409502633,-1.2041708301360252,-0.6819303068779906
-2.8166131000053755e-13,1.600658186780614e-08,0.3818907222557176,0.5736208444508126,1.700142533115353,-23851677.013264954,1.7360313334065767,-0.055455628747932396,15.558041160543214,0.24342716940091094,-0.9781835620654954,-0.2887313898434497,-0.34388379787827195,-0.7575787756313311,-1.3194588374714766,-0.7190123522017989
-3.089879075945214e-13,1.7530568582034896e-08,0.44158461218754935,0.623215432024728,1.7783728361275557,-24214118.970488224,1.734459593803315,-0.057156830825136166,16.310776457579518,0.2533168120206461,-1.0074019492975301,-0.2973430424674799,-0.37855145640626536,-0.7993196527057621,-1.3455326137823898,-0.7353080057592406
-2.3904982421662727e-13,1.52781962000418e-08,0.42964583420118324,0.5376501887334191,1.582216738010798,-24216704.716532774,1.7338884674939898,-0.05247322121860093,14.068968811504684,0.2516066171467692,-0.9835654533938019,-0.2783108254200521,-0.30274042122661304,-0.7070462979767318,-1.2944453259601543,-0.7329078769144997
-2.4766940571855337e-13,1.570770361032386e-08,0.5211764654299912,0.5515392787629416,1.6046497874668542,-24410898.325709913,1.7350307201126396,-0.0535409707004165,14.32849416058791,0.25285525636613015,-1.0009819579449133,-0.28321256626982483,-0.3117246450297297,-0.727354699601775,-1.3152402903425824,-0.7429839500936806
-2.5764069699060293e-13,1.640217542435432e-08,0.5410744287406021,0.5515531249824969,1.6042806417646105,-24017923.984509915,1.7350307201126396,-0.0544539194253408,14.742902415894651,0.2468155675734409,-1.0026691891902346,-0.2818119065364585,-0.3234875458377444,-0.751034628271732,-1.3209226991965364,-0.73374731175998
-2.754959652881879e-13,1.718926051340817e-08,0.6684213939285096,0.6164742349852675,1.7376728577532161,-23539351.540223747,1.735889694081864,-0.055461833121163845,14.971626145173577,0.2588842172704563,-1.0218816200357672,-0.30102399088621706,-0.3502717499338453,-0.779790971655982,-1.3171723264830766,-0.7676358649083744
-2.682666624719739e-13,1.6794997529576197e-08,0.7201560985360966,0.578289045980283,1.6801805926635838,-25071307.709283203,1.7289630742023732,-0.05809234499164412,16.59017210081175,0.2562552041830682,-1.0362727726624559,-0.29457910008644067,-0.3353170618181263,-0.8053054449920446,-1.3315847762680375,-0.7616126750783091
-2.695465088336856e-13,1.7146297429167585e-08,0.7798499884679283,0.5822356401241788,1.7108370423339472,-24590329.444280118,1.7291778176946793,-0.05873039441607034,16.943197722505886,0.2561945739639294,-1.029394402159261,-0.29563939387703947,-0.3339706278688658,-0.8234602429494272,-1.3152023493355773,-0.7579877960200058
-2.6530501730232625e-13,1.714521771959598e-08,0.8276051004133941,0.5806963449812926,1.714113576538823,-24103832.22255478,1.7291778176946793,-0.05901576046633031,17.160698292728817,0.25426026545748576,-1.0262013622506794,-0.29695045546365273,-0.33102248480423074,-0.835320414436732,-1.299907139562165,-0.758433466452248
-2.776270950527369e-13,1.7717339770925304e-08,0.9469928802770569,0.5978648605677256,1.7572886843931022,-24125767.307127878,1.725892699163443,-0.06019073203296639,17.531162159867097,0.2559847560607705,-1.0355053720398295,-0.3029633705987442,-0.3476891849035119,-0.8540862874112151,-1.310564852882217,-0.7667101765285562
-2.7421504105050004e-13,1.742482425352113e-08,1.0902582161134533,0.5937956643993471,1.7552253656719772,-23766421.27496656,1.723037067616819,-0.05937304022921135,17.188306162244533,0.2555964493038892,-1.0134114225917252,-0.29908850725862546,-0.33909806979866036,-0.8364232968444929,-1.284288022835767,-0.7563582236339257
-2.4877778652136457e-13,1.6612906877328693e-08,0.9430132876149349,0.5380882741497812,1.6505767917386296,-22647197.244035292,1.722397406150375,-0.058389062939627694,17.00464336356923,0.24357462537522725,-0.9744146881906401,-0.28401482305449,-0.30867703489167464,-0.8267906181434461,-1.2349676379212207,-0.7210525306923686
-2.6383992951796925e-13,1.7130213979420945e-08,0.9549520656013009,0.5731406823041093,1.717486696346635,-23371090.271618858,1.721182049364132,-0.058812164279462745,17.003719987698137,0.251890227701329,-0.9966919034005315,-0.29307148813260386,-0.32668326511716,-0.82602593769426,-1.262887247642285,-0.7426251165605562
-2.6181055624654955e-13,1.705351271190202e-08,0.9907683995604005,0.5697676678093289,1.7160753008795353,-23435787.87055351,1.7206109230548075,-0.05880086889471662,16.977553577635273,0.251944711829783,-0.9982582330455065,-0.2928260407201597,-0.32229164397930465,-0.8266784542475436,-1.2647317009614851,-0.7435914573032825
-2.7331980682632237e-13,1.7850731749149395e-08,1.1181153647483073,0.5852599533039822,1.763804594261247,-23279650.46032955,1.721182049364132,-0.060396412519973595,17.700906082089343,0.25199624146130883,-1.0159330283869306,-0.2989892305690128,-0.3368210490083415,-0.8653117318083073,-1.2785054451905782,-0.7533137981045028
-2.933554728671709e-13,1.861043998843063e-08,1.1220949574104302,0.6306452014602754,1.8410678844892228,-24105011.521399725,1.7200397967454824,-0.06110601054826406,17.932001337165413,0.26304222831307145,-1.0419884507119959,-0.3091262296195294,-0.36229185884451337,-0.8756618777454603,-1.3108121949613012,-0.7754540765499888
-2.90465095224941e-13,1.840015660443479e-08,1.0822990307892084,0.6292002785972801,1.8345877814747074,-24060014.01417916,1.7206109230548075,-0.06037835015246213,17.564411053521038,0.26394771434673714,-1.0320859660889876,-0.30704241452506176,-0.3574177413714311,-0.8580389282084894,-1.3029951283840537,-0.7718710802851576
-2.8606747818903856e-13,1.8314349107009778e-08,1.0027071775467666,0.617231694203891,1.810919906572176,-24016384.327663437,1.7200397967454824,-0.06047704890995087,17.74739516250734,0.26192365461594846,-1.025009363820107,-0.3029764690405257,-0.3515656606044662,-0.8600425810270075,-1.297490663172245,-0.7620810282003441
-2.482590466556786e-13,1.6939330584889322e-08,0.9947479922225225,0.5326360957358196,1.6518053956823047,-22483886.81580756,1.720327644405382,-0.05874495557643003,17.19811666294085,0.2439444319124222,-0.9680202052444381,-0.28136423134192523,-0.3069506600512387,-0.8318057008933852,-1.230330081291997,-0.7155593216038834
-1.694895132800909e-13,1.4414830084775518e-08,1.0066867702088886,-0.3074467240789739,-2.9521168122593315,-18049970.116603933,1.7206109230548075,-0.056656039833878624,17.081008338649365,-3.4485617564377327,-0.4845228627428234,-1.3111007671019344,-8.533836851577716,0.0788616757316544,-0.6959248757184655,-1.827385468577126
-1.6228020089006318e-13,1.405399743077214e-08,1.0066867702088886,-0.2950071277324066,-2.8809395993061595,-17717223.203057066,1.713186281033585,-0.05594621041154084,16.884957414603644,-3.392744689084148,-0.4749662040299468,-1.2815950164488918,-8.176937422932571,0.0776613504841784,-0.682564581725143,-1.7907308914966589
-1.5163533101775413e-13,1.3309153932463733e-08,1.0743398454649644,-0.27825563872111536,-2.7713690449100623,-17679827.014936436,1.7114729021056105,-0.05474018810547435,16.27621140676132,-3.3552173366891505,-0.46956477882841136,-1.2499701436103452,-7.58269002950792,0.07496166843736543,-0.6752305671050699,-1.777830764675416
-1.0608153057760117e-13,1.0280601101661096e-08,1.1061765867619413,-0.2200197501222084,-2.3714513205247867,-17725937.819883972,1.7089051182188866,-0.04867096563923913,13.497381703356073,-3.2647807671733426,-0.451255021282433,-1.139387937777059,-5.385209048508961,0.06320421404165885,-0.6413940915379367,-1.753590036300078
1.329693908428125e-14,4.585443657075673e-09,1.0743398454649644,0.22908737887191907,1.021200937095567,-10536013.74270783,1.7063327653216878,-0.034696181458524634,7.4913430013307565,0.5837477695669844,-0.26504643025364444,0.10827530516837275,1.4355415521122095,0.04451691106264018,-0.5391650043123424,-0.30390377646908207
1.2527110214751708e-14,4.470303718727257e-09,1.0584214748164764,0.202593017913456,0.9346787611059763,-10511985.694791997,1.7057616390123627,-0.034246259695644016,7.3179982494508655,0.5395930401086934,-0.26537271777054344,0.10239307797300828,1.344470475187365,0.04439814763588021,-0.5473675993798915,-0.29440337644135073
1.2005091375118776e-14,4.377179238584736e-09,1.0584214748164764,0.19375083463331463,0.9025211434572954,-10239449.456877742,1.7063327653216878,-0.03401013210787063,7.270788120842207,0.5294055476618208,-0.26077880207028037,0.10009063465863534,1.301104662807249,0.04414717514693424,-0.5376899812300996,-0.2884999986259511
1.5072809963900524e-14,5.0811741209627e-09,0.9668908435876676,0.2429228901115532,1.0562864834630021,-10916716.434285726,1.705190512703038,-0.036221220192581526,7.932363424100446,0.5806602405873895,-0.2798328986048981,0.11201822351899718,1.6208270646850418,0.04804045573120651,-0.5744423926778081,-0.3109387725920638
1.5991966140964385e-14,5.3102810724143e-09,0.911176546317958,0.25239090537762265,1.0850670538090181,-10860702.899753258,1.7034771337750636,-0.03693634765842838,8.223320980507816,0.5786746656356135,-0.2816995010037355,0.1137140441653225,1.7210693029521007,0.0495236926416731,-0.5791295661149372,-0.3108734086313227
1.7798868073414453e-14,5.508756727068957e-09,0.867401027034615,0.28548701675736443,1.1694232912148483,-11702467.182831531,1.69947924960979,-0.03677104935812319,8.021646693962035,0.6283674351867655,-0.2912960039745604,0.11964052283670686,1.8821496995637748,0.0479550528456759,-0.6028431023550638,-0.3264597895175096
1.8128274354953242e-14,5.521531890489802e-09,0.7997479517785392,0.2958720207556852,1.186850067539175,-12015821.752033735,1.6937679865165425,-0.03655996921710562,7.905075491202851,0.638870130794307,-0.29725001715347654,0.12190670031715715,1.9295799155573008,0.04774799217175994,-0.6148331713301596,-0.3340144770569645
1.7862137169943957e-14,5.46927569577533e-09,0.6604622086042655,0.29443706947249565,1.1807171102980383,-12132509.032323144,1.683204434299271,-0.03629857460762485,7.843166164262004,0.6386564926259061,-0.29855060345224765,0.12191444385086249,1.9207704314056084,0.04724427391262018,-0.6182291433138065,-0.3350479453518914
1.7919634433968976e-14,5.483790446784952e-09,0.6047479113345559,0.29606335731156713,1.1854845626419548,-12274706.817836834,1.6819159733454343,-0.03626669862380309,7.820144521540082,0.647296028574074,-0.29938100779392773,0.12221247870151646,1.9288097784282678,0.046869002539590476,-0.6215828884834369,-0.33622197971019685
1.9701888450399078e-14,5.834166992989116e-09,0.6763805792527536,0.32038130758213496,1.2498240249151777,-12408721.956869073,1.6814910553712965,-0.03756410964122909,8.24160512893967,0.6516605917406486,-0.30970791999542807,0.12765229178031234,2.118368241723244,0.04959637972176258,-0.6393220443480837,-0.34629723477797
1.901204455217859e-14,5.681519257796956e-09,0.7957683591164172,0.31012675708292387,1.230162350340369,-12321404.970305568,1.6833460736239834,-0.037290254317459894,8.085291852177011,0.6505347508100117,-0.30567768421211694,0.12637720110562956,2.047147179790279,0.048606046875022756,-0.6315838760091383,-0.3441982010888389
2.0138591072119407e-14,5.890145269624743e-09,0.8156663224270273,0.3284695656796864,1.2782710826725845,-12553555.664507782,1.6814910553712965,-0.03820256357918132,8.432366009768884,0.6583834398599572,-0.31404949297420615,0.1308338646751324,2.1753444030615077,0.05054318856064078,-0.6443488641363062,-0.35285547624142205
1.8688672398109375e-14,5.560662380615645e-09,0.911176546317958,0.30862273431788106,1.2281408257601865,-12329492.4363619,1.6806320814020719,-0.03716953410951862,8.000708011788301,0.6445267201246146,-0.3072815764590549,0.1276773063585952,2.0427247313389545,0.0484078421551139,-0.6320815557325196,-0.34857657068235864
2.1968480384978425e-14,6.094754444243239e-09,0.871380619696737,0.34985208418579544,1.346281321979669,-12659396.217056971,1.6806320814020719,-0.03848705603102084,8.564099139888864,0.6606907577275493,-0.3173938338343175,0.13266172438452337,2.269825649822677,0.05230439795097997,-0.6543537906784083,-0.3532169183175676
2.650462205461023e-14,6.376090446661434e-09,0.823625507751272,0.4291899918926923,1.5975852304571805,-17541759.344366785,1.6777764498554482,-0.049144581497196575,13.745599310193546,0.7684268829960194,-0.3833775776114608,0.15419402795331605,2.5238114751905356,0.06669761754789051,-0.7373772838772524,-0.4111381154352615
2.5540265783954683e-14,6.204337367553338e-09,0.8116867297649052,0.415420827705767,1.5544436988471106,-17389841.081730045,1.674637539659399,-0.04872687264688166,13.61410035182798,0.7572274130595731,-0.3792169107860339,0.15184843608196016,2.4577182434865326,0.06595715091816184,-0.7300501033413295,-0.4063419699652645
2.4884894990102177e-14,6.138415164152382e-09,0.8992377683315919,0.40638892791708037,1.530594803291815,-17172682.886226498,1.6699223208496135,-0.04952653538850256,14.32286726796615,0.7378720997376067,-0.3783294936182045,0.1515129703102546,2.447673503167257,0.06759771968577102,-0.7194358835668245,-0.4041458746132609
2.2986096685273318e-14,5.8425912402293775e-09,0.9788296215740337,-0.08023114975686792,0.1684438400387313,-16691373.078592248,1.6676378156123144,-0.04859355091451886,13.970279565260109,0.541302768620185,-0.27379398861545323,-0.04610538653970196,0.11510407915527218,-0.05379562383572166,-0.5465708671688706,-0.43307915318598417
2.1251682820458966e-14,5.558865473531593e-09,1.0425031041679875,-0.07395063894203657,0.15874998980304678,-16246177.276688604,1.6623560395036787,-0.047771531588793735,13.687839535445821,0.5213149645672815,-0.2677489188411437,-0.044602917672262064,0.10884951128139404,-0.05242700730594732,-0.5350802366751946,-0.4237798050075882
2.6867546073430906e-14,6.305456211947434e-09,0.9032173609937139,-0.08988459052373493,0.18253300086649493,-17643560.7875708,1.6577870290290804,-0.04913517424135829,14.321210259442921,0.5619581069659376,-0.28094730451941013,-0.04735346660188812,0.12700901424702746,-0.055192682433452864,-0.5686764512513811,-0.4376753024517135
2.9810403651728176e-14,6.583251779562189e-09,0.8276051004133941,-0.10490099198392286,0.20221333295099508,-18450980.04517367,1.6475067554612342,-0.049611721091297564,14.478299648526278,0.6078998428457645,-0.29239002433832445,-0.05132619983846198,0.14062235867920977,-0.05558555000181186,-0.5833451284750709,-0.4671263023552872
3.0269745442315454e-14,6.647680751507003e-09,0.859441841710371,-0.1071885462132096,0.20492725880792945,-18574419.481872026,1.6486490080798837,-0.04954361181952494,14.455442364609308,0.6128613859614104,-0.29395027287115016,-0.0518856114459122,0.14364446093111427,-0.05535127386293728,-0.5852002194054438,-0.47175850436421757
2.978928779322015e-14,6.54913357512684e-09,0.8475030637240042,-0.10534248175255004,0.20312977506102878,-18501104.898059428,1.6492201343892086,-0.04923217785982882,14.300560323941383,0.6098876258130043,-0.29011928659577435,-0.05121519774284964,0.13942947648274684,-0.054603516413947575,-0.580608776824912,-0.46554887168291736
2.951198402731573e-14,6.618005421607308e-09,0.8872989903452251,-0.10302428206123183,0.19905706380338362,-18530901.96438682,1.6497912606985334,-0.04934910136056164,14.220619489320493,0.6081726997107452,-0.29123785251445067,-0.05063164811868073,0.1382664965430931,-0.05494743127688036,-0.5832434368144637,-0.4642877664799009
2.8207345911227114e-14,6.542977339408497e-09,0.9390336949528129,-0.09264687757948545,0.18567383904402562,-18148320.671515375,1.6492201343892086,-0.04885876368626696,14.008334901052663,0.5738327055057646,-0.28575700039365487,-0.047664829113113,0.12952281093160295,-0.05473365744400953,-0.5795265745858992,-0.443512273448297
3.26718935361559e-14,6.9682368274013e-09,0.9788296215740337,-0.12484188298417423,0.23066266650764286,-19369552.397657957,1.6486490080798837,-0.05060106393080067,14.804274313840564,0.6890224244827259,-0.30471548717561964,-0.05682620836533207,0.15412616363426168,-0.056234335388143784,-0.5900386507419647,-0.5090019968831192
4.2414032600968013e-14,8.532931727276597e-09,0.9748500289119117,-0.14967365583626663,0.26078413037617343,-19394400.73412319,1.650362387007858,-0.05551107392163514,17.175753478611256,0.6988041889079576,-0.3176738604663725,-0.06122473874539825,0.1994632040018988,-0.06450988193319698,-0.6204230657016118,-0.5159890993136012
4.564601824648489e-14,8.966404841073808e-09,0.9310745096285687,-0.15821333490537642,0.2698863193364026,-19646520.208577316,1.653789144863807,-0.05654384757352095,17.72403411895405,0.7029210619033769,-0.3239084967900499,-0.06244364452977383,0.21202066530753463,-0.06675164610301157,-0.6317704020464178,-0.5210582547387798
4.518369434461122e-14,8.90083355843135e-09,0.9310745096285687,-0.1570500652369111,0.2673105579389991,-19626310.762631457,1.6520757659358325,-0.055982790883005,17.452377236803,0.7041923252642074,-0.3225545725725023,-0.06194027501025899,0.20908867858607583,-0.06602155383932688,-0.6288212953670368,-0.5189337153684239
4.2517770621672813e-14,8.678232127764671e-09,0.867401027034615,-0.14356886441890326,0.2512215782745026,-19414712.168331195,1.6509335133171832,-0.05549407982958114,17.190553894562033,0.6753453627519528,-0.31903846112826,-0.059495719384413746,0.19702861212706027,-0.06540695021195508,-0.6275028609703022,-0.5048434946365811
5.353001487880615e-14,1.0298233766051006e-08,0.863421434372493,-0.17106743045864212,0.2821380751323224,-19760670.809579935,1.6343708503467638,-0.05955812548999299,19.257315843288783,0.6945323648660053,-0.3343510368942703,-0.06421274618478293,0.24710628611600507,-0.0730281961652585,-0.6585823724952149,-0.5196618713387702
5.2703941709189225e-14,1.0179020102571833e-08,0.9788296215740337,-0.16960734796267432,0.27844408289951744,-19667877.690588214,1.585468731237138,-0.05930167113728233,19.02392359878853,0.6935997185595013,-0.3331686502964599,-0.0643202228384497,0.24594351224833988,-0.07230332401715983,-0.6564969057413692,-0.5210979467135831
5.139171390632839e-14,9.986416832261562e-09,0.9708704362497897,-0.16612015396892674,0.2728324553848607,-19567839.99155431,1.5918242248073042,-0.05867898001608164,18.6795983727566,0.6901672742462388,-0.3291350260661974,-0.06343359444023945,0.24047952999472358,-0.07107245104158269,-0.6504419345436663,-0.5159115480850699
5.04535705677491e-14,1.0044874602044754e-08,0.9708704362497897,-0.15884504336947744,0.2651601468055629,-19474334.584927965,1.6143876267540551,-0.059133598504680716,18.731856016805548,0.6774486165208223,-0.32771954549654747,-0.06189044879004763,0.23418414861793213,-0.07169627544030692,-0.6513623645056582,-0.507293028259298
4.8066651826206654e-14,9.74938499462185e-09,1.0345439188437435,-0.15975221956014413,0.2646707765010199,-19168221.993151266,1.603315286150919,-0.05829044214053738,18.45758000356504,0.6864250114073613,-0.3237261581170177,-0.062272549633807364,0.23284090458151896,-0.06947133693364922,-0.6361107966761085,-0.5129323205375367
4.982974117924231e-14,9.98800456258612e-09,0.9668908435876676,-0.1648469962799106,0.27081959126732297,-19467925.54612085,1.6073131703161927,-0.059065641821856585,18.765898524034462,0.6985859098688735,-0.32739520311891246,-0.06299928269812241,0.23753694760400546,-0.070706235601093,-0.645185349412237,-0.5164043022916903
4.939895993000192e-14,9.935262991111882e-09,0.9390336949528129,-0.16304417793623713,0.2674332565117984,-19385998.137739602,1.6076695531332117,-0.058796045859758374,18.64419230441352,0.691644539200484,-0.3262694678286993,-0.06244822039174888,0.2346394609332761,-0.07054128041497376,-0.6429233729188246,-0.513177701000486
5.299810620480438e-14,1.0463628975388863e-08,0.9947479922225225,-0.17411195390168419,0.27689649696199065,-19239935.875817273,1.6105251846798354,-0.059199406490113425,18.889275504741068,0.6923542387384741,-0.3292366711374567,-0.06404866434227213,0.25245990930555734,-0.07194733155299726,-0.6441406064159225,-0.5181215347105971
5.519580283486347e-14,1.0829478811368558e-08,0.9668908435876676,-0.1747272349112322,0.2803436801496552,-19175239.41231983,1.6095976755534918,-0.05998632435375752,19.377301979471504,0.6907072894692392,-0.32770428278165614,-0.0634633614233579,0.2550153995478762,-0.07344787042985915,-0.6472153259932538,-0.5097820081398613
5.2290343410062614e-14,1.0393689433452515e-08,0.9589316582634236,-0.17150437571299298,0.27051740255964635,-18771972.690078914,1.5848976049278134,-0.05805422348191775,18.617608640098634,0.6757067029256193,-0.3226294447907702,-0.0627622312019575,0.24755997471224192,-0.07056492564339009,-0.633204972053953,-0.5067208388065328
6.255226429206121e-14,1.1549581732315973e-08,1.0186255481952546,-0.20552235297784516,0.30771445498667793,-19120632.536996875,1.5722597219550745,-0.06011869474016655,19.868745144157405,0.7164275466570624,-0.3331693367329401,-0.06749129240727025,0.2809470626077443,-0.0760380151255979,-0.6474058625391191,-0.5228714579444693
6.032646008019886e-14,1.1471583144022239e-08,1.0027071775467666,-0.197872924749638,0.2991479020199584,-19056178.88221102,1.562482039539434,-0.05984770931943209,19.672846709859375,0.7079236581066538,-0.3324746342931411,-0.06679161747581353,0.2776698837038825,-0.07499609419400453,-0.6466488014974404,-0.5212401210509044
7.300234632723031e-14,1.301250168288653e-08,0.8912785830073479,-0.22776345613702284,0.33645463086231153,-19514815.683295097,1.5648350799338524,-0.06325199727432494,21.555621258026278,0.7354412345832257,-0.3422415817485123,-0.06932729536892285,0.306531444898469,-0.08310989029784926,-0.6704389783303968,-0.5208482784618662
6.90099114720507e-14,1.2624722608999892e-08,0.8276051004133941,-0.21717045818720446,0.32625663439003305,-19552061.107418917,1.5734019745737242,-0.0629467618210397,21.169670828454908,0.7319812788040728,-0.3409923917651359,-0.06844160811688675,0.2945751310283861,-0.08146490945258252,-0.6698723589475353,-0.5205996992925442
6.137394846630544e-14,1.1586957310211627e-08,0.8992377683315919,-0.20660019697110343,0.3106007718654434,-19361027.545887187,1.5749737141769857,-0.06080813746248654,19.85605415350294,0.7308979881048678,-0.33545287845889316,-0.06773783731178143,0.2766967267520822,-0.07628494197259869,-0.6538878689072032,-0.5257529877871686
5.646223711313237e-14,1.1030984112572816e-08,0.9390336949528129,-0.1951497098156318,0.29957177561333026,-19508987.58328025,1.6006743980966014,-0.05998608216972291,19.21397941545985,0.73008500272904,-0.3355132095165533,-0.06677122611607236,0.2581239944263013,-0.07404801606603754,-0.6538829993284195,-0.5296327438017354
2.599246717676991e-13,4.120770762707936e-08,1.0305643261816215,-0.6481565865366683,0.7840583197226173,-19353294.179120205,1.596393235281903,-0.13813364237724224,59.38135094553728,0.8593210443689515,-0.5035038815355367,-0.13105296358549426,1.175287164148782,-0.213968308961052,-1.0664207050369643,-0.6087926320309458
2.667688212686748e-13,4.147012392233455e-08,1.0982174014376973,-0.6696212587308042,0.8117277109570159,-19406365.758538865,1.5952509826632533,-0.13794858562632797,59.57125789217095,0.8790954764474063,-0.4999118733182024,-0.13137382170976195,1.1565335329859665,-0.21487374288261127,-1.0562609879478426,-0.60581568831542
2.6522424249868614e-13,4.09244183452247e-08,1.1380133280589182,-0.6736297870158693,0.8060257133926355,-19399400.334910538,1.5906088680210613,-0.13613500732243888,58.305325359667094,0.8643309585468174,-0.5017785299894646,-0.1326081663255781,1.17590553968546,-0.21163106197687767,-1.058556882075524,-0.6120926378321137
2.9443277726136536e-13,4.4179446197733235e-08,1.0902582161134533,-0.7201923792929402,0.8498450607269311,-19527374.260838103,1.590681972188655,-0.14138615792044978,61.87630645344608,0.8727858313070725,-0.5114660089926113,-0.1362389314292062,1.2784123912425749,-0.2241852808829434,-1.083001370469385,-0.6152841282953566
2.595871473473869e-13,4.0833834015278205e-08,1.0982174014376973,-0.6561162786740694,0.7900736233079915,-19283105.77482817,1.5908236115133674,-0.1368171850447402,58.34340592332062,0.8546680922495788,-0.5031347223352892,-0.13236403696640828,1.178154484032288,-0.21106941146099278,-1.062865993155906,-0.6134398986534457
2.9629707158308303e-13,4.436318842430324e-08,1.0822990307892084,-0.7189116771291867,0.8543876568211208,-19526047.570603084,1.5837553523091639,-0.14205225906806992,61.85795125863184,0.8703042881770022,-0.5111196796265961,-0.1359695643154045,1.2721666945428898,-0.22511458464820597,-1.0875945364605097,-0.6136301745846946
3.310120159774035e-13,4.8176304241740654e-08,1.1300541427346742,-0.7821563737763638,0.911741053675847,-19857751.279231507,1.5751153535016986,-0.14818100239014048,65.91380243032677,0.8969293052842363,-0.5239598424330169,-0.14108339853668134,1.4016073942575444,-0.2392560714593533,-1.1162109863453686,-0.6233243355770658
3.382105080976946e-13,4.8933424926792734e-08,1.0982174014376973,-0.7900335772534275,0.9141455031914579,-19803810.566683866,1.5756864798110233,-0.14868616037790572,66.84568121653547,0.8931231753496165,-0.5249730922919327,-0.1411542353635524,1.4361463397828722,-0.24194962884989438,-1.1168495331107213,-0.6216718164060804
3.306940369636916e-13,4.875610458586589e-08,0.9828092142361557,-0.7621181850944689,0.8942569563881815,-19475789.361186605,1.5701214250529625,-0.14749044907162817,66.6487244780953,0.8706386844771795,-0.5184258742925353,-0.13791574537998635,1.4052275721969625,-0.24093148927564217,-1.106405870299244,-0.6091459451023862
3.2937869277214146e-13,4.881430762862149e-08,0.9668908435876676,-0.7529784079251755,0.890969416951051,-19328210.135038223,1.5659773325525017,-0.1470570518349476,66.66863012867314,0.8624952325608766,-0.5161007339219293,-0.1368424153386141,1.3925862509335827,-0.24104631229255236,-1.1021363270999638,-0.6045974385428416
3.2689823297157686e-13,4.8110336953181415e-08,0.9589316582634236,-0.7519631886938083,0.8854702652423498,-19230796.927929588,1.5641223142998149,-0.14560392094622263,65.94143359761908,0.8608393175227721,-0.5132527911449908,-0.13634457694387714,1.3773697937527174,-0.238729638568429,-1.0945850675780153,-0.6027563666218339
3.2914058239580654e-13,4.789425822998149e-08,0.9629112509255456,-0.7550850160153213,0.8855403258067845,-18894784.617435154,1.559694943149929,-0.1439761060307601,65.14961882848618,0.8452000630344317,-0.507264610570637,-0.13589781280918953,1.3773473818912039,-0.23620967182389185,-1.0811321328903876,-0.5962794003941724
3.3273570575691377e-13,4.800790843040821e-08,0.9589316582634236,-0.9795036191031229,0.7313130002524817,-18786622.81139157,1.55741043791263,-0.1438311747229522,64.81519548006364,1.4119509506349184,-0.5032793138757693,-0.441689236863619,2.0836365300867707,-0.29934926918178306,-0.8604628603772929,-0.7205421450730061
3.3941922345366217e-13,4.907606968593588e-08,0.907196953655836,-0.9957633210106077,0.7397028498285283,-19032089.167880617,1.5589821775158919,-0.14628389555170246,65.83493217610344,1.4334594456084182,-0.5128213839731168,-0.4485909684598439,2.131055948596304,-0.30660866452405877,-0.8778441904858858,-0.7305786052573866
3.3781043570771787e-13,4.8907265474057445e-08,0.8793398050209811,-0.9892694989319579,0.7404713458296653,-19025181.879546802,1.56383903565039,-0.14620069940079797,66.37070755386038,1.424595510683866,-0.5127143335223016,-0.44701545003884974,2.1185603504062773,-0.3070392216466286,-0.8757851861090697,-0.7299420612569084
3.399722795251908e-13,4.9485135278195884e-08,0.8196459150891493,-0.9821004049976038,0.738516140642874,-18967290.093532067,1.5624089353718404,-0.14694303238611148,67.23063328631532,1.4137666494866736,-0.5120742017416137,-0.44460978052469363,2.135909307685344,-0.309802859010013,-0.8775898417314308,-0.7237824504032582
3.333183551636375e-13,4.881217427868662e-08,0.7320948765224634,-0.9749556901009888,0.7321117154376964,-19024893.134428307,1.561266682753191,-0.1457769182716632,66.50515697854989,1.4070923371733224,-0.5109365073399608,-0.44216210597192107,2.1137215227929786,-0.30539335350498137,-0.8760324370496262,-0.7225721173834707
3.4212795145280043e-13,4.951569566468477e-08,0.8276051004133941,-1.0037670709868511,0.7503567890204085,-19210038.1115752,1.561266682753191,-0.14768559447107837,67.03960010727137,1.4270583086668538,-0.5168253630002789,-0.4525321005066909,2.1704824423903926,-0.3092814459863506,-0.88436103172993,-0.7349002541667696
3.497661011035677e-13,5.0273388347317245e-08,0.8315846930755161,-1.030290322838314,0.7610831824380389,-19237365.94661652,1.5550573975182116,-0.1478173535303241,67.59014771184049,1.434455006041168,-0.5190359697861937,-0.455789731420074,2.2212849911399166,-0.31162998502323613,-0.8843473931211718,-0.7378802640124998
3.52804447558864e-13,5.039359983487947e-08,0.8355642857376381,-1.0399985672452414,0.7620356168682285,-19636614.76547348,1.5527728922809125,-0.1951671942151415,68.53878538577874,1.536327328321457,-0.5201972003868719,-0.4570986096323956,2.254888219659367,-0.31118338964785086,-0.8839002765634302,-0.7414008075220744
3.433992640837518e-13,4.982401718380629e-08,0.8276051004133941,-1.0093956356079952,0.7522673327717777,-19321295.329641838,1.5424195145454727,-0.19330920359780274,66.88320441278688,1.5157851633848436,-0.5157789304712633,-0.4527452516753943,2.199951839043161,-0.30687326098219964,-0.8796211157715469,-0.736338144772225
3.389212085525659e-13,4.974342062451162e-08,0.7718908031436843,-0.9943076024433902,0.7481961877217855,-19470104.113823254,1.5424195145454727,-0.19499907390522703,67.27320428558556,1.5286092177020634,-0.5192357474816418,-0.4523820790890835,2.1683072662062024,-0.3086005275536035,-0.8864899480077927,-0.7397604999723022
3.4613910746716034e-13,4.9747894332855985e-08,0.8514826563861262,-1.0094400247063215,0.765735376656164,-19898062.973019805,1.5481307776387205,-0.1987417348615886,69.19705160401143,1.5415861854850432,-0.5246189061858111,-0.4614517907888103,2.1893294229726257,-0.3117785070844095,-0.8949450178478169,-0.7510669861123366
4.2026553199216673e-13,5.8987238084410917e-08,0.8196459150891493,-1.1752127318803502,0.8259072884007118,-20187510.935757086,1.5481307776387205,-0.20685379746020854,77.73245060229402,1.6358131568439152,-0.5499841045098743,-0.4745565320414448,2.6788866139528484,-0.3500090514271159,-0.9186242024896853,-0.7622670426483342
4.4292691664536197e-13,6.186757223614215e-08,0.8554622490482482,-1.2210763113071694,0.8463753706368567,-20115588.574295208,1.5435617671641224,-0.2022048318110536,80.33049399638901,1.6424656934379644,-0.5564394515803005,-0.4787210109242158,2.8217941197040872,-0.3614806688079971,-0.9228020239167196,-0.7658574469821965
4.343034259766574e-13,6.114000520625175e-08,0.863421434372493,-1.2163175042533303,0.8423424276252708,-20226386.90545415,1.5372793777615497,-0.20161212104115553,79.64912057974746,1.6557406935403873,-0.5593442572082828,-0.48081642561903293,2.7896830417159966,-0.35892486526885703,-0.9240373588929425,-0.7736522440348849
4.1005925600995374e-13,5.864550468724052e-08,0.9270949169664467,-1.1772730124790165,0.8201235975403088,-20329746.72014522,1.5280682526447595,-0.19880175213625545,76.75261188651245,1.6754062156660008,-0.5581573915237795,-0.47717941063289215,2.648113875625249,-0.34879372380478885,-0.9208145416652089,-0.7778572961511157
4.0517458691496086e-13,5.7723641910998165e-08,0.8395438783997601,-1.1723834568569917,0.8097907141136419,-20261778.41228359,1.5246414947888107,-0.19578583462506843,75.40148028144326,1.659958233737171,-0.5557840934026336,-0.47303583883113925,2.6167709910746693,-0.3433353358376098,-0.9159628422544119,-0.7746117125974328
3.951257684566373e-13,5.659562720293032e-08,0.8116867297649052,-1.153190928448162,0.8011154873193906,-20045316.17218888,1.5155765780072075,-0.19285559243260458,73.66535847616852,1.6452794314603436,-0.5475873973241444,-0.4673552157435482,2.548905793500415,-0.3360248717790171,-0.903760455131014,-0.7655979619974462
2.190834606504029e-13,3.777813141385273e-08,0.7758703958058063,-0.8164335684174904,0.6319828390305002,-19313166.62614114,1.5124376678111584,-0.16047410250351724,52.63983195369723,1.5657266084155932,-0.5021758378923716,-0.4051183940566026,1.472225215194805,-0.25102133680181604,-0.8152974077995433,-0.7356574960414801
2.1686647391817925e-13,3.74912058038641e-08,0.8196459150891493,-0.8308333167065659,0.6377659918350593,-19140762.621488106,1.492448246984791,-0.15550813402337457,51.646671774889775,1.578972873329052,-0.4997666733248284,-0.4078786453079439,1.4721286389409032,-0.24733814770336668,-0.8063159682898691,-0.7399331378391012
1.8539779339036317e-13,3.5953653434000476e-08,0.7957683591164172,-11.489539661415387,2.465311339790834,-12803321.825772742,1.494801287379209,-0.12380188825277935,27.87354641264703,-9.19302571363833,-1.909089026254769,-2.237249692381268,1.8291408880132183,0.0754333564161982,-5.123255881051239,-2.2733144289773675
2.1238784258753986e-13,3.9211990092470465e-08,0.9430132876149349,-12.769981533354143,2.6629348393342016,-13046271.065375105,1.4930879084512345,-0.13097620359995113,31.049622134239723,-9.321838707559913,-1.9646926186692342,-2.3362240706310087,2.0660024276560733,0.08179361693408975,-5.237845958043333,-2.3212672834410766
2.1906109439663378e-13,4.040472757426748e-08,0.9310745096285687,-13.129076620485064,2.721440318429326,-13292162.008245876,1.4890214891288422,-0.13390355345997407,31.94723112500214,-9.536111528960404,-1.9970735622841223,-2.3907179249188855,2.1282347667847503,0.08407765298329246,-5.339545668769792,-2.3514614148588326
2.2415533806574535e-13,4.151352033230149e-08,0.8514826563861262,-13.233742439844852,2.7298312456029343,-13340859.498551928,1.4873081102008678,-0.1352439197060426,32.53545931126481,-9.52955277524331,-2.0051097586783273,-2.399126777768357,2.175968326536554,0.08572620763169218,-5.397605017597942,-2.339443577981685
2.283743893515358e-13,4.172995618097006e-08,0.9589316582634236,-13.850856249154248,2.809123813187065,-13787453.354403827,1.4875913888502932,-0.13630930567222632,32.463991086071424,-9.918310677947936,-2.0359830160375703,-2.4803555045333114,2.223676663492903,0.08570860914732378,-5.485655259616124,-2.3991051060344946
2.2684216858663802e-13,4.152749269084867e-08,0.9430132876149349,-13.683550908544124,2.78576757316609,-13625342.697878987,1.484452478654244,-0.13602792936155028,32.56044765705235,-9.804905562243501,-2.0193269288091766,-2.4550277769177655,2.207864415313815,0.08553029843039721,-5.436911846523547,-2.374463536619884
2.2555778267885081e-13,4.1815269715133305e-08,0.8554622490482482,-13.584071670685468,2.776226779652359,-13651207.685090525,1.4798834681796453,-0.13616999471543303,32.67833210118293,-9.770133926206267,-2.046983395227741,-2.464341247823538,2.206894293352506,0.08659203769931015,-5.500225813892323,-2.3973215035625564
2.2643930884223005e-13,4.192005143348797e-08,0.911176546317958,-13.855194175107785,2.786872720773944,-13695971.317576138,1.4778822415917716,-0.13540193340204587,32.59242632035821,-9.85199970133509,-2.060329946488156,-2.4725626357627415,2.2391178440395687,0.08656881536642487,-5.488444092312526,-2.41729105354191
1.7734904276046727e-13,3.509536806362281e-08,0.8992377683315919,-11.760198001621093,2.5259470073788877,-13626926.520291807,1.4672455852069064,-0.12466538076464014,28.548775314732943,-9.649517504049902,-1.9941151948114473,-2.3277999473838293,1.7657505895047505,0.07632678956443255,-5.270686840000615,-2.399134495278618
2.3078716427338536e-13,4.2710807712866e-08,1.0305643261816215,-14.359701168435599,2.8880793677488525,-13644569.627856553,1.4518251748551372,-0.13803040794096455,32.94415824390323,-9.909598743423638,-2.0719652511579976,-2.532446479186246,2.3024862149083565,0.08689783410934866,-5.495574816247967,-2.445100271594212
2.268828457815381e-13,4.191350696672371e-08,1.1021969940998193,-14.05914968240354,2.854637548702501,-13084146.00719368,1.4236252422059164,-0.13541835470442312,32.36377322471152,-9.510680820787844,-2.010741112309191,-2.4639341189450983,2.2852232137431043,0.084619494450205,-5.307282213841504,-2.3886620202066453
1.6371579039266305e-13,2.5979261370912678e-08,1.173829662018017,-4.152450834892697,1.4406633325480003,701563.9465019507,1.4196273580406429,-0.07472532591305997,24.43687092463151,2.0892007377344415,-0.6632573960116542,-0.2630465245802452,1.8850686692812517,0.047835820417683764,-1.2431901980480762,-0.7484344748082891
1.7020136561422929e-13,2.7396249406446016e-08,1.1260745500725522,-4.425705963262328,1.5131775311263473,763223.9818095453,1.419056231731318,-0.07786536630220352,25.02193785994802,2.336663764946304,-0.6999303116529314,-0.2836948482932467,1.9217089060816186,0.05003610973292247,-1.3305154300226025,-0.7879523553730725
1.5145138090320987e-13,2.566465702651988e-08,0.9947479922225225,-4.04919187196824,1.4011341797368047,742502.9084661733,1.424767494824566,-0.07502880235905837,23.79779409519742,2.2251339088408404,-0.687916153650352,-0.2754835665871627,1.8048745442337892,0.04732218564903365,-1.3010418351191735,-0.7801911390279886
1.4458773192397718e-13,2.5135127439664896e-08,1.0822990307892084,-3.9310153299943997,1.3629464233070625,736508.5064917677,1.4259097474432154,-0.07192134340106104,23.405996209079962,2.180984855392697,-0.6840108769319632,-0.27307654823279043,1.7806456845277958,0.04638172027653262,-1.2916935065964597,-0.7795415954160536
1.93677911161347e-13,3.023747036621255e-08,1.1499521060452842,-4.946077310359635,1.6375419953303603,757088.9107643912,1.422482989587267,-0.07181181204634748,26.432144284136267,2.288770652520351,-0.7173913793582513,-0.29609089510639724,2.1473409304680113,0.05354679819037714,-1.3592663945196932,-0.7959791805150391
1.8710874615497235e-13,2.9894176122604114e-08,0.9907683995604005,-4.7428052978976964,1.6046898688751552,760856.3785570619,1.412632203004033,-0.07212084480146481,26.33457614765092,2.282362333632943,-0.722540084564725,-0.294748491924767,2.0727201740536176,0.05340807176856448,-1.375606028797267,-0.798424909063967
1.5467870102256042e-13,2.850363352963009e-08,1.0066867702088886,-4.017129301855339,1.3895146973572405,509274.31160426745,1.4114899503853833,-0.037346807099972554,13.119983303533536,1.903630228679597,-0.5999533230310536,-0.2605555207949584,1.896615993851827,0.040965461420583375,-1.2254306419859802,-0.7027689313508612
1.364523910644516e-13,2.658782311839539e-08,0.9589316582634236,-3.6109956558692224,1.2945370325704926,499797.10280347185,1.4124905636793201,-0.03645909321103019,12.377421493971442,1.8602397494343732,-0.5907447806839091,-0.2522645468112018,1.74055191293473,0.03869111908762177,-1.2107530012152268,-0.6995358517655517
1.477026732634877e-13,2.8210906667527965e-08,1.0027071775467666,-3.8992364396140125,1.3628789273605788,519122.2906581567,1.424767494824566,-0.03880221897696499,12.871182496863316,1.960885997972243,-0.6140161872664396,-0.265972221184862,1.8763900765550388,0.04056196396423467,-1.259448267125432,-0.725040868896282
1.4073701978833652e-13,2.7637767412199638e-08,1.0982174014376973,-3.8418660522839736,1.329431931609365,530575.4179001612,1.4253386211338908,-0.03902765362393522,12.78224587462142,2.0170117084383,-0.6195474653961658,-0.268794001331907,1.859334003085588,0.040057403648055455,-1.2714613521265217,-0.7376876469485594
1.3592982124318258e-13,2.8718006207848235e-08,1.1021969940998193,-3.710229073311243,1.2583584643066037,373836.79288401385,1.437405377797305,-0.032024728756473705,7.167468763328619,1.856032028323288,-0.5197553831287491,-0.24348935212131284,1.8771486527570307,0.03314693892201358,-1.1474121669571158,-0.6427725907008593
1.4336313991602887e-13,2.9762870497020598e-08,1.193727625328628,-3.846851500737778,1.3272756860560402,376622.2640440162,1.4253386211338908,-0.032553086227236655,7.335978681043358,1.8886381557660636,-0.538638356629511,-0.2560050392802674,1.939972986993937,0.03413389491396523,-1.1785214843603549,-0.6715975817585699
1.4573381095384813e-13,3.079499893551826e-08,1.1340337353967962,-3.972180819753307,1.2912956924598247,382743.55046826863,1.4253386211338908,-0.03249231672431525,7.50800746125037,1.9335926393755596,-0.5289644439839216,-0.24866689469267228,2.025401608833444,0.03435838213611701,-1.1667535891700747,-0.6498221325338253
1.3180863948030625e-13,3.058945420541375e-08,1.1459725133831622,-3.6330451980749188,1.1941115364252637,284008.805726162,1.4132718644704765,-0.027854152236494557,4.538815602030862,1.7882922315395815,-0.45928451422833105,-0.23108685038426055,1.9671501544959007,0.0280635544790354,-1.0672188140165177,-0.5948887677660605
1.3488832352535571e-13,3.084183185396388e-08,1.177809254680139,-3.622644551644368,1.245459181691875,277957.8913599141,1.4081317276865535,-0.027576076675873213,4.453900811722107,1.7870539414118067,-0.4631942388948656,-0.23790233428267224,1.9504163500548817,0.027959693011737327,-1.0721189275400775,-0.6092548583250469
1.3171834868746498e-13,3.0854920139856086e-08,1.0743398454649644,-3.5890684225265193,1.210540331978341,272438.2418985467,1.3986373239203382,-0.026516832027537355,4.258420985854402,1.7891305997754754,-0.4517678553562081,-0.23236824415165472,1.956368796274896,0.02697402894870092,-1.050341744612787,-0.5964673694872631
1.2507747369593405e-13,3.0077028918329134e-08,1.0464826968301095,-3.443064520373714,1.1668541273577058,268896.81187505636,1.3946394397550645,-0.02635492933373531,4.188175454044967,1.76011755398556,-0.44566933435527695,-0.22662568043535983,1.8869401718104883,0.026543732168585823,-1.039161427239008,-0.5866372611292145
1.188262914444914e-13,2.923156352242328e-08,0.9469928802770569,-3.2577195074135097,1.1426368455406988,270316.4383014823,1.3872147977338423,-0.02606577369928075,4.132677584595964,1.7595430648833166,-0.44895164249829317,-0.22609883472308914,1.7908388249011522,0.0261435481385642,-1.047442583110042,-0.5936416004392224
1.0300820562799899e-13,2.6825523627668783e-08,0.8833193976831031,-2.8982760504743292,1.0468583532673408,262614.2984935805,1.3675817597244935,-0.021975860604588678,3.8383718841877617,1.6440818907638328,-0.43972418961646975,-0.21690861296357916,1.6197766332053387,0.024590331283788958,-1.0318958906681954,-0.5836410936796004
1.0245210714958243e-13,2.6972500886948927e-08,0.8037275444406612,-2.861113602274557,1.0507021035780428,260248.84888624144,1.3797901557126202,-0.02061412298987412,3.714280618121038,1.650083901612784,-0.44142427770047393,-0.2191781240631911,1.597893508441515,0.02430187846237577,-1.0423365006274328,-0.5895349915170303
1.0427482192940799e-13,2.7383718928697553e-08,0.8037275444406612,-2.928187424555582,1.0693167428435288,266361.810406223,1.401860080252219,-0.020971237625186646,3.763392049299208,1.6950588015618004,-0.4483020426980296,-0.22287217649794155,1.6224324434717745,0.024699460906352853,-1.059829259194284,-0.598848880135553
9.580042143209482e-14,2.5967312990072153e-08,0.859441841710371,-2.7386514883018447,1.027632556912741,263975.0101417597,1.4004969111835,-0.021605062000720068,3.6036979200899006,1.6855304078797693,-0.44551759548158715,-0.22187422045599509,1.5513660990094524,0.023490456026311845,-1.0487258511671553,-0.6054076574819588
9.073563328010401e-14,2.5123564386083792e-08,0.9231153243043247,-2.6673856858895997,0.9980825820731037,267930.29241564457,1.3999257848741749,-0.02091851275699206,3.5287990069375423,1.7192219911963778,-0.43941250973622437,-0.21967898184343082,1.500409471078824,0.022359301300475958,-1.0312839426608185,-0.605976561874515
3.505963653376385e-14,1.5925696193084488e-08,0.907196953655836,-1.3955797853702065,0.6201844475671751,241747.7591122523,1.357232950999528,-0.018103963008166,2.5764815119041407,1.4613277749296125,-0.402795751478616,-0.19090284327227974,0.9875293226124483,0.015848544289950285,-0.9417040147560259,-0.5918673035545561
3.2469611390202916e-14,1.5823079216250904e-08,0.8793398050209811,-1.3373699665940313,0.5768593004317626,250349.38134067645,1.3580188208011592,-0.016096239940186392,2.6010395104392017,1.498747413125414,-0.3942455449390823,-0.18271587548757176,0.9804534057194327,0.015258350880189283,-0.9267901178042107,-0.5787806401457986
3.6091810979579934e-14,1.663256952074464e-08,0.907196953655836,-1.5016083059504726,0.6174302025660982,279375.00028830965,1.3587315864351963,-0.04607804956048883,2.8803044883726656,2.103503531610605,-0.4105567065522335,-0.19404698965575645,1.1129708132473053,0.015796797063545098,-0.9327902249532087,-0.6146355538632976
2.936059747996378e-14,1.5955385875290386e-08,0.8833193976831031,-1.2804653770774013,0.5504320103657384,189772.47037533237,1.3630858534174883,-0.03677050693824035,1.443579124699617,1.897322824015138,-0.3417864404509503,-0.17593465560888255,1.01823998075149,0.01190028216305137,-0.8260415739988006,-0.5505960615970185
3.7355731646973186e-14,1.8236895567694027e-08,0.8753602123588591,-1.5210776825055028,0.6425000201316141,193469.32056554657,1.3608013481801893,-0.03393033418167048,1.6165085351889203,1.8967318102096766,-0.3560110044375026,-0.1857979438507028,1.1372280889583575,0.013644964691320663,-0.862959840250165,-0.5542099521659278
3.250073790398506e-14,1.6590071743914515e-08,0.7997479517785392,-1.3910291655022375,0.5914212998353648,192896.5156141568,1.3547337022699228,-0.03241619402845478,1.5060267386478792,1.8760130311461733,-0.34518838861764906,-0.17677293575471184,1.0178115937039631,0.012664908301370409,-0.8391779040120112,-0.5411353013810826
3.9823692207212605e-14,1.9098766306858857e-08,0.8116867297649052,-1.5935852482683666,0.6655150239680229,193375.47071235802,1.3507358181046492,-0.034996044476247004,1.6795030749543178,1.8973765260823083,-0.3571989654481558,-0.1873379670965061,1.1867794741460522,0.01422896005465189,-0.8759151381118582,-0.5470658982362158
3.9753759994307844e-14,1.8912653722086496e-08,0.7679112104815623,-1.5883163236190017,0.6610904275947433,193855.07887226893,1.3524491970326236,-0.035967191427747236,1.67000692097345,1.9031471298174212,-0.3603932515792116,-0.18816956581768604,1.1939280974153956,0.014181035464291995,-0.8825290313021681,-0.5523083216548141
3.982911739028785e-14,1.8663684367663577e-08,0.7400540618467074,0.019339435705134748,-0.027131057062899425,191130.11120752076,1.3553779327468412,-0.03574892637822932,1.6503561921953873,-0.005901018133230729,0.08145886602240414,0.013399961872437504,-0.00456673424617062,0.01933668497241341,1.726078401931469,0.015440360393533567
3.831019056977938e-14,1.8051569196325383e-08,0.6724009865906316,0.018560344013069264,-0.02656185766682813,185121.89884420848,1.347382164416294,-0.03184221222308771,1.5834989742309307,-0.005587387415726404,0.08097114407979157,0.01328611685855754,-0.00441544337990721,0.01889612066104629,1.7193366312312168,0.015361248247459965
7.30389891064021e-14,2.006894265634873e-08,0.6564826159421429,0.05545736708871962,-0.045733870976991886,961403.6207749128,1.3466648297717825,-2.0159772137356935,5.709456173199435,-0.08296791863643783,0.16520126220719725,0.030471012092213937,-0.014380667542230365,0.020294538763478115,1.733479335839949,0.04401017284378086
4.787907377846018e-14,1.6569624444022534e-08,0.6246458746451666,0.04159052534348025,-0.0360110816212196,962191.4047364992,1.339957522395072,-1.847375810051574,5.169392162022791,-0.08125863854137429,0.15486733863098137,0.02751249644105603,-0.011819874538946949,0.01683836152206557,1.620983296491696,0.042685538276213825
4.904309877042867e-14,1.6848740494398474e-08,0.6246458746451666,0.042091996551246035,-0.03647903602392601,959715.8316402963,1.3164480759606634,-1.8681351655560303,5.261949364262571,-0.08162997339174535,0.15560735827214037,0.02773532167609264,-0.012113771058943472,0.0171744429597555,1.6280503579901986,0.042730179561891624
4.90550478844839e-14,1.6889110239451064e-08,0.6445438379557767,0.04187828367522635,-0.03651276908273627,954153.8469751634,1.310542232959608,-1.8930011452184863,5.271982028067045,-0.08115852561197967,0.15505673849307627,0.027655352984745647,-0.012105011003150316,0.01716382035954389,1.6222757810961645,0.04258913724786958
5.205097941777971e-14,1.9434375038758276e-08,0.6485234306178987,0.047455834740291136,-0.03816642209731121,1173790.2040384596,1.3059732224850094,-1.916567498254382,6.470653164877489,-0.10289707405515305,0.1572338162285033,0.027746114433289417,-0.013499130998579587,0.017634199975297294,1.6315277316184669,0.043172539893789844
5.653079121005965e-14,2.1183571917702748e-08,0.5569927993890901,0.050435217100007784,-0.03991978122627612,1240914.1481219877,1.2910508342749714,-1.9992697486363535,7.158701039863744,-0.10875753878626307,0.16106178752130262,0.02838859804453145,-0.014606122104228925,0.01866363137766536,1.6769210464598954,0.04353778321373175
5.578121530883827e-14,2.1186727152902816e-08,0.3818907222557176,0.04853679645376469,-0.03867057653412423,1270508.6401796897,1.2971915843528314,-1.9949946635736746,7.283426912075019,-0.1072682367717809,0.1630482728223304,0.0277762869039394,-0.014367767035882195,0.018866579361796993,1.715088686470744,0.04315490491133449
5.286270390165691e-14,1.9675695376164777e-08,0.38984990757996163,0.045462896037763476,-0.036076381094690094,1191934.5115889083,1.3031175909383856,-1.998186299881073,6.666148495899781,-0.09938110265630978,0.15918743228075127,0.026635374752866862,-0.013664309242815207,0.01828288243676458,1.6906503711098801,0.041839678430181645
5.721265695889657e-14,2.2890993677584503e-08,0.42566624153906124,0.052322594033010636,-0.040318698376491886,1402549.2068814873,1.30483096986636,-2.096026876864132,8.218898010746504,-0.1225676447778667,0.16508409970845994,0.02848003198265244,-0.015135277899911809,0.019312171187686383,1.711950730602418,0.04406305898611134
5.4532765390246785e-14,2.237690285838982e-08,0.3460743882966187,0.05037152177176419,-0.040372906412003896,1381540.5934488885,1.3012260206019022,-2.10487579619603,8.144924524293254,-0.12079219011696227,0.16220997711269614,0.02831840498113853,-0.014338739583515099,0.01875971986843876,1.6755628590816432,0.04361617712399012
4.7746716014135406e-14,2.1023533696891696e-08,0.15903353317687935,0.03936558739326184,-0.03392321787960869,1331729.7250634793,1.2927642132029458,-2.0482469470202664,7.814935913174299,-0.10602261377099624,0.15537811162111714,0.024776518632266223,-0.012460758930272238,0.018105111322181358,1.6580998936596822,0.03939208348074862
4.3365654941890766e-14,2.0073401601859452e-08,0.015768197340483688,0.03581842859769318,-0.030965667115230695,1312109.9854400442,1.295478205424857,-1.9927291459237606,7.621391468871066,-0.10096530737609039,0.150850482372744,0.02308446083523026,-0.011690041672951023,0.01737279644551288,1.6355805897073923,0.03724995249149029
4.1923689239827073e-14,1.9377329657937796e-08,0.003829419354117618,0.03448288094161223,-0.030154135345623494,1294160.598212027,1.299119706773112,-1.973935629153369,7.3842804527383885,-0.09826344340927703,0.15034476186874737,0.02286660408784678,-0.011360941835712424,0.01705837603708834,1.640013154520088,0.037121376639551354
-3.000470023700726e-12,-6.282968640082022e-07,0.06352330928594938,-2.185351177443442,1.5693426805423476,-1934514.6992266863,1.2961224359017758,31.223517867912808,-75.37160796137644,2.929356047527174,-0.8163760596603595,-0.7532427203200089,0.49933954867514224,-0.46570451584105493,-1.1731391061542817,-0.7770800676548797
-3.917972515266539e-12,-6.56899084215536e-07,0.2983192763511537,-2.5436383947612606,1.5653411180411367,-1861322.4387184945,1.2944090569738014,29.933286217998408,-67.52252883292248,2.831879872585924,-0.8261250395113946,-0.7555093039476087,0.6058010482264801,-0.5109172789313796,-1.2200373035984007,-0.791085489031819
-3.5667311196449098e-12,-5.566819025903703e-07,0.3540335736208627,-2.149005612355556,1.4008609626371413,-1540168.8145831916,1.2922661910612148,26.669774433066365,-52.72960220164911,2.1686169372368433,-0.798315569124805,-0.7158152719057325,0.532020924278997,-0.4835172500305312,-1.210531567043206,-0.7565047475690582
-3.0906947505290946e-12,-4.783381336746879e-07,0.1510743478526353,-1.6783429147302469,0.972673787597419,-1403459.7800340785,1.2978358148297497,23.506980668803674,-42.988179321104454,1.724442102800887,-0.7404012873772231,-0.563556743936818,0.4894662607162298,-0.4466448136691402,-1.197547484846171,-0.6468594861981843
-3.6222398108592315e-12,-5.599787551009083e-07,0.2346457937571999,-1.944408233131881,1.059988177951916,-1558996.4656706727,1.3076866014129838,24.925288220711366,-50.3993458153099,1.9890094970004444,-0.7710943109736916,-0.584218734886996,0.5727323274577045,-0.4927403810932644,-1.2254454490820166,-0.668492960674186
-3.47870486673498e-12,-5.533272144137862e-07,0.250564164405688,-1.8144718918654525,1.0222093416940068,-1543564.7983312856,1.3111133592689328,25.96984807379952,-49.80514259037162,1.9408833795771299,-0.7685309112173153,-0.5699703114228518,0.5460856178793381,-0.49064201571068383,-1.2251508913081421,-0.6574509787579044
-3.1848980887864735e-12,-5.180470684617211e-07,0.4654621681602822,-1.411570288672766,0.8996879343823302,-1401849.0816841926,1.3128267381969072,25.164789543271837,-46.45372012781858,1.6079952307511525,-0.729409378774885,-0.5126457737977005,0.4651655432110376,-0.48081357165474864,-1.1883637721931437,-0.6032879885790244
-3.227253809827151e-12,-5.473151610958803e-07,0.4535233901739154,0.16364045774338848,-0.3437703008019532,-1530883.2711182262,1.3076866014129838,25.007831950294207,-50.83773246502597,-0.37269087353809577,0.2987058517574362,0.1697148005125099,-0.0014994451978529997,0.1008700946680736,3.670854687257551,0.3154393457589324
-2.876550016131072e-12,-4.3777022594877765e-07,0.39780909290420635,0.12228050745003835,-0.17910618705066902,-1348912.1182479297,1.3042598435570354,20.052966387407952,-36.093099091898196,-0.26740985073355733,0.26232245688199435,0.11122407677556917,-0.0014524247925761609,0.0916782236956543,3.6208706450027055,0.24151234848430742
-2.751395192455931e-12,-4.1119343772407187e-07,0.4336254268633053,0.11711925770215015,-0.17089074481250208,-1308196.7051698097,1.307115475103659,19.403899097255632,-33.242210334602504,-0.2547209381635177,0.2551620796738267,0.10838727475458676,-0.0013918501868824787,0.08708873895557222,3.568383480466624,0.2362707036437294
-2.3274144180136126e-12,-3.774084786070281e-07,0.35801316628298474,0.10242888100243233,-0.1672956634605788,-1327461.227628426,1.307115475103659,18.96571827963805,-31.751085802052234,-0.2511906184542301,0.2514097683910668,0.10881239934240192,-0.0011623997614967692,0.0802347788017779,3.5374109264115003,0.23685567443213423
-2.0626957013610494e-12,-3.582700586065588e-07,0.36597235160722946,0.09112256289911545,-0.15276611986515864,-1330298.0017089772,1.3093999803409582,18.25476652038651,-29.802681655964527,-0.24792408876269734,0.243393990763981,0.10294961102114801,-0.0010578490652446747,0.07525055698835134,3.497715387291162,0.22722845518700613
-1.8728225217471558e-12,-3.3985382083305754e-07,0.23862538641932193,0.08301433080424538,-0.1395502575360003,-1324770.2452575387,1.3088288540316335,17.77291016616752,-28.282463968590957,-0.2409245800648534,0.23686334252865,0.09735399338844011,-0.000988386304817832,0.07172371042849676,3.4731118757789683,0.21767114375421587
-3.554044031484495e-12,-6.064183268946538e-07,0.3301560176481306,0.13009636163885335,-0.1697770625659897,-1362925.5497137322,1.3082577277223089,23.832232229460764,-41.77890753407283,-0.30343958886857164,0.2716047714342355,0.09879551165148803,-0.001913276525040793,0.10969303003515493,3.825322147279248,0.2097719886773723
-3.3847376038223877e-12,-5.773376588094765e-07,0.3142376469996418,0.12346065482399068,-0.16167748630740086,-1322919.4797207385,1.331175884262894,23.27619736960684,-39.58586883743974,-0.29048637036216196,0.2667962429427438,0.09575373005720857,-0.0018229054571845208,0.10624641912452004,3.7772373444752194,0.20560394401212376
-3.3048556462328507e-12,-5.741722167210549e-07,0.3540335736208627,0.11057268345173948,-0.14319880148392528,-1237332.4460465496,1.3409535666785344,22.43871714918815,-37.405667329480345,-0.2629562767242097,0.2555787690856286,0.08636298506242919,-0.001786717471220628,0.10549996331844358,3.715430819193473,0.18947084915929704
-3.2409128654346888e-12,-5.771243418187689e-07,0.30627846167539774,0.1084153721191004,-0.13955719099743524,-1246357.8259516389,1.3311027800953004,22.074557859495997,-37.50127815124548,-0.26425592390749936,0.2549571044948777,0.08435286724163996,-0.0017725801662821351,0.10468845471208717,3.690268462951097,0.18755469011844209
2.2138497888872743e-11,1.8220576236130617e-06,0.250564164405688,-1.2398100835209516,1.0866485293976227,1426634.0369252034,1.318538001290155,-21.172295344549426,85.403748724381,1.3919697355471103,-0.3918248829381824,-0.4798028499306165,0.013337687688124615,-0.15137751880209513,-0.5611497280101791,-0.7043762624920775
2.086739297435945e-11,1.517954169768521e-06,0.2943396836890317,-1.0133877677458394,0.609985703604819,1283352.2876164722,1.3088288540316335,-16.935966626958397,62.97005320029988,1.04687505062615,-0.34945125006887195,-0.33058775228732884,0.013674202313002308,-0.13988797178615078,-0.558038544278828,-0.5572826868232542
1.8113943669566527e-11,1.423849569808974e-06,0.23862538641932193,-0.9274550658863295,0.6117606581707553,1281312.5318001688,1.309971106650283,-16.67176685059305,61.379927345459514,1.0492352695447813,-0.34786306492676866,-0.3337492883880462,0.011793928813952128,-0.1320100648111485,-0.5454803447361117,-0.566850646264322
1.8085364291692394e-11,1.4594009996772986e-06,0.22270701577083313,-0.9537400279788724,0.6036415513853959,1349581.726882567,1.3116844855782575,-17.001527980846586,63.4791531751907,1.1236503343618311,-0.3432149927132573,-0.3261825115790694,0.012060279050123822,-0.13078055553243614,-0.5408949822830926,-0.5582550759050724
2.3124828079651504e-11,1.452699261213956e-06,0.24260497908144393,-1.1878364931111005,0.7098690605395046,2267860.8373257704,1.3145401171248816,-24.303523226845964,128.08434916446933,1.3131904821808837,-0.45784200313951295,-0.38320951816333254,0.013338035227913056,-0.19360413352919376,-0.6618779163116774,-0.6765463354908258
2.184883356163127e-11,1.3653182403895007e-06,0.18291108914961218,-1.1007979176597287,0.6589737728415767,2181524.370242951,1.3128267381969072,-23.517667561333084,120.14795875921541,1.2027594129682733,-0.4469436995456416,-0.3665863498135059,0.012713425877994363,-0.1860819705347116,-0.6586249374224243,-0.6521098689018453
2.6909762401601036e-11,1.5595845733447089e-06,0.1669927185011241,-1.2209910292083146,0.6469936842163518,2120530.5641073915,1.3128267381969072,-21.974397647736048,125.39199591382742,1.1649511105950425,-0.46206686793770313,-0.35251859929468865,0.015735751926266636,-0.2073389120696146,-0.684484660075087,-0.6365590925672822
2.6746498566968355e-11,1.5663944325513175e-06,0.13117638454202518,-1.2019095869882086,0.6362149259267768,2112749.5424320363,1.3116844855782575,-21.822089008748346,121.76276976994072,1.1734174362932455,-0.46236997568389715,-0.3483011651297949,0.015612486389968937,-0.20567373921642912,-0.6863985641400046,-0.635849613560527
3.264170624602626e-11,1.8083153849092505e-06,0.1868906818117342,-1.478216018709584,0.7333574599773256,2187800.0106056063,1.3128267381969072,-23.274794118494793,136.60943588242972,1.2847539464779674,-0.4795507880395473,-0.3826626440646098,0.019131905422254424,-0.22659004326798643,-0.7064556933741926,-0.6671991373073917
3.736165453113354e-11,2.0429232284416226e-06,0.198829459798101,-1.670737142207216,0.838436401208181,2284819.8749475926,1.3145401171248816,-25.192186982022488,155.13533423021497,1.3838655048320747,-0.49778721880495624,-0.4191141927458874,0.021560406081599516,-0.2474041554800555,-0.7313899199809482,-0.6973329529175314
2.1119479705731483e-11,1.3509561308777783e-06,0.18291108914961218,-1.1515527131174808,0.6048426020592921,2257411.682577114,1.331175884262894,-22.911442464739697,121.75507083969686,1.1976586826244544,-0.4351593768118249,-0.3514315947487468,0.01312836597189173,-0.19300489103174923,-0.6872730894533937,-0.6143706699307534
2.2750352429968342e-11,1.377990712121713e-06,0.12719679187990315,-1.1107741725402183,0.6222180678950537,2218675.063160826,1.327319639422333,-22.366915965356586,121.00853754853453,1.134067575254806,-0.45966076148825846,-0.36777318693052047,0.013516158660995639,-0.19867780315616682,-0.7220791900483972,-0.6464864116182065
2.2138445655837527e-11,1.3266457305878644e-06,0.10729882856929233,-1.0904165438928526,0.5799285921981647,2219280.513033859,1.3284618920409823,-21.765729231643228,116.43169571486295,1.1005258521599963,-0.45636532391149065,-0.3515994611090819,0.013455343894278524,-0.19635351907466603,-0.7269328108929757,-0.6314802079504622
2.1421081207106983e-11,1.2225865158857e-06,0.2346457937571999,-1.079605025570593,0.5336926615427153,2179827.6755390856,1.3245371120433025,-27.387866099245322,107.50320206421074,1.120917852885466,-0.42805761459414365,-0.32904249971470306,0.012993132061354199,-0.19034609714577613,-0.6959471686259764,-0.598261751743428
2.5757574547256705e-11,1.4741871001380393e-06,0.2943396836890317,-1.1564319895792767,0.5340579895171993,2180246.134832437,1.3219647591461037,-29.754969532053266,122.27414660210151,1.1655798764849183,-0.44369948932686687,-0.314860582690719,0.01567019370038432,-0.21881961075257078,-0.7083983177490291,-0.5789197432512677
2.6091904018430235e-11,1.4910668384696383e-06,0.2664825350541768,-1.151631838907465,0.5129097356883598,2165827.157016982,1.3196802539088044,-29.65423086697179,122.50117976075508,1.150469323417003,-0.4417808591657945,-0.30650363089087435,0.01617924432565896,-0.22203587027527438,-0.7125300693122208,-0.5660026271505053
2.6050752109535122e-11,1.4800236831428308e-06,0.250564164405688,-1.1919152378470184,0.5250458841682386,2194405.919423945,1.3196802539088044,-29.64512037923869,121.48583817408293,1.1845177987518842,-0.44879819520761427,-0.31739836741255495,0.01652044508822104,-0.21878376264839097,-0.7157832783666056,-0.5859706909733141
5.0477685225592016e-11,2.3354619529653456e-06,0.3261764249860086,-1.9876133030624745,0.8098258723953217,2355841.525778163,1.3148279647847814,-36.3524882940488,169.34214556769138,1.3656247424151944,-0.4976278047923011,-0.3777446050430033,0.02541373419249498,-0.31849739970544827,-0.8062763821154452,-0.5932156061514744
4.833711752946632e-11,2.2524022157197183e-06,0.31025805433751974,-1.8991244526824813,0.8077210118957557,2355389.8525229865,1.3151112434342063,-35.11682114850752,164.7327298796215,1.3493922604521649,-0.49810557522401844,-0.37948003106499817,0.02408864597895445,-0.30826547521979464,-0.8039232931752311,-0.6003972737124048
4.271047271749464e-11,2.1874899129814012e-06,0.23862538641932193,-1.7256116429093786,0.7770620179792035,2390232.9141933806,1.3093999803409582,-35.52354991463168,166.5835890907418,1.3565929371010628,-0.48620742458008087,-0.36654053989084506,0.021545449839369075,-0.29813438159722183,-0.7861257375766626,-0.5825454666353942
4.9828399058369215e-11,2.4457009077481645e-06,0.250564164405688,-1.907307422742727,0.8556692484503707,2388896.045889249,1.3116844855782575,-37.0482185004567,181.05107999017284,1.3867501759375582,-0.5069300401072859,-0.3903291789499331,0.024623556293010697,-0.32409592347542554,-0.808641007368339,-0.6044439343957067
4.775824527267442e-11,2.4080556979497607e-06,0.250564164405688,-1.834409309883035,0.8271186486970832,2364909.1620520833,1.309971106650283,-37.133527590619764,180.05562126422524,1.3674747751764682,-0.4992723142100955,-0.38095270580335805,0.023959071164105665,-0.320336523710284,-0.8000562536964396,-0.5920226279570682
5.122790899942128e-11,2.4577971251598305e-06,0.42964583420118324,-1.9295170613219095,0.8136545990102492,2276701.1237856117,1.3036887172477103,-37.56330027240977,176.43578343063228,1.3289275994397085,-0.48476379556207,-0.371087809263323,0.02556401876566574,-0.32717621693754173,-0.7853115597428858,-0.5693462183455206
4.2573544065413474e-11,2.3859889782049076e-06,0.44556420484967135,-1.4199299934829455,0.7554812443818799,2256360.772795517,1.2995491937577244,-38.16351195381984,183.62843852314546,1.2397595488785478,-0.4704594192185762,-0.3460271657611096,0.01978232100347317,-0.3192380281281313,-0.7632637808783158,-0.5384167633758842
4.127378984116475e-11,2.325079037844823e-06,0.4216866488769385,-1.3475072074921186,0.7268559306228631,2218995.6955441525,1.3019753383197363,-37.33531315497189,178.72033431132675,1.1915861040151496,-0.4664859980188852,-0.33756429340571814,0.019186165155166603,-0.314056840123411,-0.7612473446890586,-0.5299781932156354
3.643227871455519e-11,2.2118340274341912e-06,0.39382950024208435,-1.1175102749688173,0.6235220938404754,2157698.0031773164,1.3036887172477103,-35.471644922186684,173.35078666963383,1.0855238716244504,-0.4464739584188774,-0.29903883245201507,0.017276604994084906,-0.3052963011344587,-0.7440990498436714,-0.4853102565042126
4.028184000134981e-11,2.32982362472625e-06,0.3739315369314735,-1.136818883285162,0.6824814517998028,2150607.429264988,1.3054020961756847,-35.83895245255286,178.93471777454798,1.0700326510514535,-0.4748646593398065,-0.32475934063248946,0.01804979689417548,-0.31870178328521376,-0.7771947164181573,-0.5217146662397821
4.571461203745948e-11,2.493584029120888e-06,0.4336254268633053,-1.2756777155631038,0.7652836562959601,2188551.7505483744,1.3088288540316335,-37.00667818440424,189.52020873075102,1.1241490811965267,-0.49303795041672066,-0.3520371184866121,0.01974125748773421,-0.3357439845533083,-0.7958637483385389,-0.551759926700688
4.317847972813026e-11,2.3865502773793125e-06,0.4017886855663284,-1.2175114498005493,0.729959662503566,2154796.4780391287,1.3093999803409582,-35.45557110594024,182.85118974687066,1.0910254465604448,-0.48111953781069056,-0.33955835665931805,0.018885823681098524,-0.32442404366908556,-0.7809386233986273,-0.5371746638460956
4.233127963182525e-11,2.346100135696234e-06,0.30627846167539774,-1.2250911615665645,0.7436470962083281,2165600.0274431976,1.3065443487943345,-34.473531122622475,180.36577574300554,1.1053040581969489,-0.4798125134641716,-0.3435545403076677,0.018466003563951634,-0.31575577322439075,-0.7745752815400734,-0.5421513568462555
3.772056727974662e-11,2.2088241355707714e-06,0.35801316628298474,-1.1471989638322757,0.6899168952130962,2186345.6655854853,1.307115475103659,-34.754599285902174,175.5331375233708,1.1081158117062482,-0.46761734277199873,-0.32630359458875047,0.017099895140533592,-0.3026886091111232,-0.7563833635401658,-0.5266901506167715
6.90613366603824e-11,3.58693971819453e-06,0.2983192763511537,-1.6388151907464963,0.9073352903691119,2108293.2590539595,1.3093999803409582,-44.10463546484381,257.01616534517916,1.0576656230301873,-0.507264610570637,-0.37372031259330074,0.029698323321583654,-0.4429767536645345,-0.8633003211130612,-0.5032035636717745
7.113870998333356e-11,3.6103386269177887e-06,0.36199275894510746,-0.28935530620608735,0.16122454872764697,2100483.9390789145,1.3111133592689328,-45.80623167795134,257.00446059041826,-0.024228169180722132,-0.2324149355473456,-0.11829929422654986,0.009073864001655376,-0.17804681612375872,-0.5672630674657924,-0.23945269715280657
6.343913567205355e-11,3.380859203462256e-06,0.3739315369314735,-0.27511278145548257,0.14702535717212706,2107326.8482430005,1.3111133592689328,-45.298336075913376,247.80463422205307,-0.024148038154196697,-0.2221027076116903,-0.11030606385928542,0.008439424809623695,-0.17075961232161668,-0.5517457528774008,-0.22662004896150906
5.967586900882167e-11,3.1941910031585145e-06,0.3022988690132757,-0.26870418090980297,0.14382540793577256,2086297.4090202432,1.2237310339422398,-44.0635523740578,235.23833801854212,-0.0238968736732467,-0.2195398739406619,-0.10947440816502137,0.008009001767603592,-0.1636521904681506,-0.5472404223762987,-0.22645554052084693
6.862879981406623e-10,3.2191537476947935e-05,0.2824009057026649,-2.277177859724534,0.7304670126921733,3517222.4778912985,1.2125232512480502,-156.90081577494786,1720.5710179691357,-0.10142429383895747,-0.6940871928719534,-0.2595829876914431,0.09215984096259316,-1.203841071040838,-1.2590888267937859,-0.35206206110559674
6.763667955424014e-10,3.221089960729664e-05,0.21076823778446704,-2.2601727514363827,0.7475266698523311,3576160.6143966992,1.1957458447853249,-157.52404547687786,1750.082968728101,-0.1031473150379778,-0.7031756960442155,-0.26584166783345164,0.09084886494999729,-1.1982752915253347,-1.2686251849780927,-0.3593999407897873
7.459812750032886e-10,3.3316703307120886e-05,0.25454375706781,-2.5240142067980638,0.7804811573426229,3730084.1769373463,1.1934613395480258,-155.62934097905801,1710.3680183840106,-0.10755804817729188,-0.726684590120405,-0.2747965945634937,0.10055540748355801,-1.1881278219406308,-1.3081563442105693,-0.3732299674841324
2.583151253918831e-10,1.75349351820222e-05,0.19484986713597896,-1.4948979645508462,0.6416485724531586,3701175.432820222,1.1774698028869315,-124.06424088479753,1091.3030442486045,-0.10858408277301479,-0.6832070811991222,-0.2556437060767777,0.03419066442487627,-0.7536619748396336,-1.153486156287198,-0.3951274400079341
2.421668851554605e-10,1.6698511244372955e-05,0.30627846167539774,-1.333024463820233,0.5952689486823785,3589785.402203426,1.1729007924123334,-121.32339934313381,1039.6877904419193,-0.1011558726628255,-0.6605542027083438,-0.24050453493066878,0.031217007513273283,-0.7331761539283169,-1.1324572732646285,-0.37618274111624717
2.3265361359791846e-10,1.6322142295902055e-05,0.30627846167539774,-1.2725498891076954,0.5800086710060617,3573503.8902073237,1.1687612689223474,-120.55545770914655,1027.2086097924252,-0.099767237848041,-0.6515540992278149,-0.2358941877782704,0.02978243318505203,-0.7196584648813333,-1.1195073434233358,-0.37059642922873165
2.586495432593057e-10,1.71622010427164e-05,0.4017886855663284,-1.4814459068454304,0.656784970141377,3696313.3792472263,1.1664767636850482,-123.64518688533224,1065.367957189414,-0.10914777799425493,-0.6768805390033623,-0.2584613951995075,0.03230824019888019,-0.7464087828739799,-1.1381061582886054,-0.3975457688987382
3.1123263323523934e-10,1.8999407530360744e-05,0.6922989499012424,-1.8137513634570983,0.7748904662986501,3824516.36502593,1.1734719187216585,-130.03348874539677,1136.4057982535876,-0.1209707581642522,-0.7200985950918618,-0.2935033505568396,0.03785674417716897,-0.8056605136292061,-1.179840958226965,-0.4381946548375978
3.546021319875636e-10,2.108181500965563e-05,0.6763805792527536,-1.9492380511370433,0.802997593709099,3785471.9792648796,1.1790415424901934,-135.87930108111422,1224.2558448479754,-0.12020696031463181,-0.7271517926329455,-0.2972198481894959,0.04330742329885353,-0.8676465083537788,-1.2015675552009166,-0.43087734114792464
4.0037519822358557e-10,2.3292506337296886e-05,0.5569927993890901,-2.1190904730239484,0.8426581274248377,3824385.9080165476,1.1791100776473127,-135.3073618268818,1301.6360362212415,-0.12146519139288191,-0.7476705459772134,-0.3053114822829309,0.0490899005917714,-0.9242653166095841,-1.2332840130169613,-0.43388310903920996
4.1648984207093785e-10,2.439056241088741e-05,0.572911170037579,-2.215986764409878,0.8936648651669389,3949069.5169068137,1.1763275502682822,-138.84998346892365,1373.278244960856,-0.12746896723560894,-0.7598904389891843,-0.3156413794509771,0.04987041176248739,-0.9518542936867282,-1.2457421853855537,-0.4433616153949783
4.2180162248009583e-10,2.4392139643041586e-05,0.584849948023945,-2.263700201448461,0.8975757349711387,3887948.392956943,1.1773966987193383,-137.48185217254704,1357.8823192843536,-0.12595012403374523,-0.7652822611247352,-0.318705386433643,0.05067751097497604,-0.9529215409276934,-1.2453176542552307,-0.4480224444339474
4.092689159916193e-10,2.4093149431118153e-05,0.6087275039966779,-2.2049736445772,0.8866762272869448,3889017.1447079903,1.1796126687995183,-137.24790844709364,1348.4940213116042,-0.12550510941732795,-0.7609502579490198,-0.3168770930826924,0.04929136616887304,-0.9424841246563672,-1.240641273217597,-0.44643640181146327
