MSCI EM Vol,Oil Vol,JPY,GTGBP3MO Corp,GTDEM3MO Corp,China Economic Activity Surprise,US Recession Probability in 1 year,Global Economic Policy Uncertainty,US Monetary Policy Uncertainty,US Economic Policy Uncertainty,EU Economic Policy Uncertainty,JPM Equity Sentiment
-0.7416266872671237,1.9053111051340674,-10.087742297827443,6143660.155546741,-119.00721297016536,-0.31095903076860887,-13.779356131905773,-2.095409821578866,-0.4556128962515014,0.07087007131586909,0.6059996188680719,11212.92069181798
-8.851021736536021e-13,-9.057899351787705e-09,-9.507299850790428,6143660.528866312,-121.82764454731768,0.0983600642417099,-13.360307220618209,-0.7054453832637716,0.13114937253404008,-0.5351205339465861,-1.0652719558730952,11213.003319654097
-8.25545245551503e-13,-8.596876645380986e-09,-9.2559496687276,6040752.481205011,-119.1713856259054,0.0954890454358854,-12.869951374982934,-0.6082892352397603,0.010684058368368677,-0.5358809636784215,-1.218862236472815,10551.14851273178
-6.892929676388109e-13,-7.458046862029088e-09,-8.69840952909541,5838557.116208829,-114.40872652600993,0.08830985411499613,-11.33065174341952,-0.575400173765812,0.008880126191825977,-0.480104245449464,-1.1519297413736742,8683.744825753403
-6.820902805062318e-13,-7.446317573417748e-09,-8.641939585491974,5784762.32112757,-113.33942214623445,0.08724593423073991,-11.346402493235777,-0.5742729166083649,0.008790086299052691,-0.47959635739161954,-1.1412422894621437,8582.640604161737
-5.762150996841785e-13,-6.490088223162527e-09,-8.261111674040917,5849771.915976392,-113.44903194553457,0.0820722003197375,-10.213419148447384,-0.5666262301392248,0.0074506139862202045,-0.43617820544478364,-1.1131019792407633,7276.70329980429
-5.875808166641865e-13,-6.525672706180726e-09,-8.286245694001998,5876457.066019053,-113.97340714966151,0.08232437000074454,-10.229018347578126,-0.5684574578469256,0.007587784000863645,-0.4370301622957859,-1.1192415295899933,7388.125496529483
-5.794108247477903e-13,-6.462036692942263e-09,-8.322918211041229,5989504.349866884,-115.54102430565604,0.08302299989306118,-10.396808517727557,-0.5749747532871128,0.007513397062853156,-0.4389083521582736,-1.1275629164560237,7460.8584276763195
-5.722953259933774e-13,-6.430309362031798e-09,-8.31370108704332,5984578.521966394,-115.42920343135917,0.08301679827529257,-10.403620915926263,-0.5726601196102709,0.007451428884704677,-0.4383167597853955,-1.1285101168138227,7434.131419509825
-5.854888603291273e-13,-6.50452116075444e-09,-8.338958867474442,5911022.74890389,-114.44257524314422,0.08349602282138373,-10.548136275334741,-0.5714422616016314,0.007559371568894357,-0.44441321047973736,-1.1247846058104471,7541.378682094189
-5.678155317577495e-13,-6.276186996563852e-09,-8.238943057889195,5976298.786869572,-114.26327494297414,0.0832612892751309,-10.592279449047675,-0.5678212349592412,0.007246047821418536,-0.43986312653429027,-1.1161264364238976,7549.972872399656
-5.061755941366981e-13,-5.78384947958382e-09,-7.970038034582502,5944618.473266467,-113.1209994918767,0.07971417224204812,-9.961268008411693,-0.5554917398706075,0.006505334659149501,-0.4137715465654297,-1.0921223617991116,6784.229450044161
-4.188015253417666e-13,-5.088276024020233e-09,-7.6399105410405665,5867104.710635427,-111.3887633518894,0.07532494636532965,-9.140477195222232,-0.538158694476768,0.005471317955049094,-0.379543247648632,-1.0585805135669482,5725.640567450723
-3.786401425344166e-13,-4.712043484026945e-09,-7.403251828361542,5834124.549988206,-109.97974408991173,0.07273024155608274,-8.73911564704207,-0.5272812919539474,0.0049791804627597825,-0.36023435655637753,-1.0359360262851092,5304.509061095132
-4.915971538495623e-13,-5.725608492670979e-09,-8.004843491231423,5884619.711852723,-112.12694364767283,0.08025181663355517,-10.172520123987162,-0.5497999472209432,0.006385803390745638,-0.4154555906230679,-1.0880859332668584,6779.74749788557
-5.530484940609792e-13,-6.153418970303081e-09,-8.25765585589024,5899991.326912803,-112.9950899556086,0.0836350256498721,-10.763979929287048,-0.5637886358858359,0.007067486925387429,-0.44114631838629625,-1.1107042311534487,7461.366937417104
-5.390237647684724e-13,-6.036933888936451e-09,-8.249976538098343,5906850.026988131,-113.60268552710045,0.08267920419624851,-10.614306368377395,-0.5623650252440999,0.00693196258844441,-0.4329222273364823,-1.109134415297972,7231.2428423718675
-6.143625597589959e-13,-6.663869470527906e-09,-8.556691921524884,6076504.256914681,-116.65706234533785,0.08616879139284561,-11.395895253035293,-0.5882756984381514,0.007859577830783039,-0.4650281224983329,-1.144576036850509,8130.707866253705
-6.179890002771243e-13,-6.643603112612489e-09,-8.58576849137798,5852153.24396301,-113.84573833250727,0.08528594367830139,-11.46250209798094,-0.5795410489951777,0.007935944309681045,-0.4637663670950438,-1.120464562939047,8054.196642909006
-6.157835179454207e-13,-6.718317469189972e-09,-8.647144360811259,6297124.237238024,-120.18914498903482,0.08751009329636934,-11.570542893290442,-0.6032389761562935,0.007890646810937133,-0.4735475295919019,-1.1757061240679711,8323.71669993563
-6.014368881593883e-13,-6.569924350907062e-09,-8.563319813714802,6246284.429320265,-119.29731099701539,0.08645057763770525,-11.415181277875353,-0.5973741735435072,0.007715216898572862,-0.4654341002982218,-1.1666287169337346,8139.805379334447
-5.825368597345753e-13,-6.427788334283647e-09,-8.507854114858256,6177079.6312489575,-118.24045051693165,0.08561536652845714,-11.317656226292597,-0.587580724065418,0.007499985410409467,-0.4576420740820932,-1.1577882196036609,7927.439144951471
-5.321361132020419e-13,-6.03838496843641e-09,-8.4367585611736,6810674.278859881,-127.12307187244376,0.08675237874216653,-10.898838559208789,-0.6137143865461531,0.006782752774772576,-0.44788339455887133,-1.2239670070965476,7556.45951137069
-9.735045114839662e-13,-9.771016899088684e-09,-10.319791880440594,6815228.314000464,-131.69139372243987,0.11252208197990418,-15.999663611618187,-0.6850098288095092,0.012146238682750365,-0.6468504317765135,-1.4031077618963068,13432.543812258724
-9.338167849193693e-13,-9.105121204867503e-09,-10.189384113684916,6853956.9073063135,-132.199387442727,0.11035290974878426,-15.563282050276035,-0.3970439286030832,0.4303885225016667,1.1619882014830498,-0.23879333654554888,12913.008151668171
3.324690847317159e-13,2.349022450519839e-09,-6.923303350575374,6232325.489083332,-126.64888968055008,0.06983602986969625,-2.455243907100174,-0.2868691486316988,-0.168303952141572,0.2143134192928556,-0.19918922472514813,-4219.361517718412
1.30931971019883e-11,2.6850720016839785e-07,-42.39240202425922,26784977.325166278,-392.6102819772703,1.7344117678560447,-10.495497911918468,-4.869890045640498,-9.890108669043439,5.8183520933122805,-3.1657335677173553,-154411.0851667539
1.2583345096738361e-11,2.698496906767967e-07,-41.65197292016081,26417352.2524309,-387.2079398146286,1.7214649570448288,-10.164129747469007,-4.768519892495542,-9.625699898022454,5.651004702506994,-3.1322697971212086,-149664.4077888564
1.146242783716132e-11,2.672931099677001e-07,-40.84983633043369,25991087.904920947,-382.65943638284057,1.698373081531939,-9.650338705578806,-4.697394070083022,-8.951537713734695,5.429127346156277,-3.1071920515514795,-136957.88704466887
1.1198713744988188e-11,2.653134059810711e-07,-40.73996035654317,26150025.536954667,-384.25906081573345,1.6973580543416174,-9.568388425303718,-4.693225673809732,-8.802046426726609,5.377386819568851,-3.1178701854936106,-135023.49644276503
1.141582308284343e-11,2.6896892414666415e-07,-40.88223976369004,26642861.826551836,-390.69509644957947,1.7240021889235395,-9.530312391643417,-4.744864293323574,-8.898839694081294,5.420956517269444,-3.16209512845213,-138004.14224936717
1.1635139421957821e-11,2.722679316877091e-07,-40.832544020736236,26435638.078596953,-387.84109678365826,1.7240405475791598,-9.547315053133055,-4.7176684116031975,-9.067118323476558,5.423880232176835,-3.1407459733966676,-139860.2135628406
8.752085923642035e-12,2.1727562341179762e-07,-38.608732547351096,25783575.428900786,-382.28925250361834,1.6093543735254505,-8.086674201914663,-4.449050692528338,-6.871916734770101,4.634203578376582,-3.0425252831104217,-105250.93282602621
8.50320443583395e-12,2.1604181300949755e-07,-38.279905795608215,25318813.162408777,-375.86266470745136,1.5944161196550064,-7.986551239886629,-4.365365471634936,-6.709924688405881,4.564143532827905,-3.0014300813720456,-102121.94656370142
8.048952002296848e-12,2.0883315925452715e-07,-38.127358786596666,25201269.89081226,-376.779349143601,1.5796629547518206,-7.849307397496801,-4.3605390661314605,-6.429558840905511,4.4678745260814825,-3.0009960127264765,-97216.23824162556
8.770770669727811e-12,2.2079843394666244e-07,-39.04517432827675,25688926.515723526,-385.090343289339,1.6347906364061604,-8.066142910749862,-4.51721620071277,-6.873195843132362,4.6943446393945285,-3.0744275611166545,-104425.48441494668
1.0146298017313694e-11,2.5157141479783083e-07,-40.02233264269548,25304798.282842338,-377.8372509740437,1.6751005031501438,-8.706270192996485,-4.564069558844143,-7.981478631217538,5.076908735620692,-3.0688708380377987,-119236.66869193409
9.861281338648869e-12,2.499086892892772e-07,-40.08391572691222,25172037.20547332,-377.47368365011505,1.669252811228278,-8.707189899451174,-4.575775507018287,-7.824010527727037,5.0808140525371615,-3.073575865173728,-117072.86359229144
9.192309213433078e-12,2.39884649977442e-07,-39.67232830044588,25061666.187791232,-377.34257998320635,1.6508553035352047,-8.44655127283273,-4.547028693305466,-7.325330094284512,4.924670298791836,-3.0634388388111837,-108977.9306774648
-1.193522767013239e-12,8.79530981541608e-08,-26.81084996183809,-6294053.343946035,-140.35337783092683,-0.027674039866934702,10.004164658141962,-1.1656981423182762,-1.3269534941865344,-1.0767581846911591,-1.6204924448688276,209682.6037689362
-1.1611481371562668e-12,8.59224202837461e-08,-26.623135164697647,-6235874.998730717,-139.45331400480714,-0.027502035090151748,9.833627709585171,-1.1574084676114134,-1.2850353970542112,-1.0620744045412103,-1.608831603262243,202839.87089213176
-1.142386009194251e-12,8.609599621450029e-08,-26.727100362562766,-6246525.845267197,-139.35044780956096,-0.02771466352934564,10.0463158567354,-1.1605536391932294,-1.272113874067187,-1.0766401073568308,-1.60609573621801,203292.5953389377
-8.308636245413247e-13,6.744926247077495e-08,-25.47979111645432,-6065136.376699182,-137.5605954882876,-0.026147945771815336,8.706630554818167,-1.1106955569549681,-0.929802372557239,-0.9424585509160317,-1.5522656925762381,151420.33366895415
-6.860081227629401e-13,6.269277585955022e-08,-25.162853911873718,-5324194.154742036,-123.8563455326138,-0.02577409190250722,8.735759278224311,-1.0225640232482607,-0.7812079869925143,-0.9477644195575129,-1.4245821608666231,129408.45055397024
-6.733200092571455e-13,6.186573917669732e-08,-24.909502091877176,-5310915.041721683,-123.37182798030315,-0.02547417459495197,8.583839597063912,-1.053317578127589,-0.7358828169789505,-1.580992924354315,-1.1259547800924192,126825.75590269435
-8.485821890461939e-13,6.808431355439507e-08,-25.484612337836936,-6071343.464599156,-138.57426952784098,-0.026291898542092827,8.466937462623243,-1.1602526079484148,-0.9012087552069535,-1.5857979839348242,-1.2409783533558272,152947.66449371233
-8.472832076327998e-13,6.713246164692762e-08,-25.327897318132944,-6113223.107503113,-139.20259730902956,-0.026267162204115187,8.302142732263189,-1.1620216043091334,-0.8904581495025524,-1.5714206427476762,-1.2382820292929888,151312.13865011942
-3.800649699097881e-13,3.4596974905183176e-08,-22.09468415025962,-5723713.236775917,-134.36375434310654,-0.022526540378045676,5.444362301509405,-1.01281211179103,-0.39149231822134845,-1.0578181642540496,-1.1457987595328518,69791.03454186452
-3.5513029686492423e-13,3.339159897479752e-08,-21.831936120220508,-5486497.499818791,-129.69122054187855,-0.022139231442182015,5.373115787831339,-0.9782196604164477,-0.36794006740969143,-1.0392813923373658,-1.1109119283783142,65956.76670720312
-4.0200645681721083e-13,3.56824667983861e-08,-22.138178350737338,-5752961.211296175,-134.9065919656987,-0.02251316491815509,5.4614602429225165,-1.0141119442033346,-0.41174666118606745,-1.0540012438434325,-1.1501720397918347,72861.40934243449
-4.135137226590314e-13,3.639208966995134e-08,-22.422704185334666,-6124658.221913006,-142.0943442010944,-0.023234235610635576,5.505877552425194,-1.059434751168186,-0.4186916182562811,-1.0788252818258797,-1.2057951683502148,75345.42718969187
-4.101275040368276e-13,3.700814556300537e-08,-22.664813631030665,-6491357.2216888,-148.5667606170787,-0.023878903433707674,5.5930250801905865,-1.0990609416987813,-0.41737608036093876,-1.1078146086960052,-1.2594597608218059,77071.26085106524
-4.1954538023544316e-13,3.812970917861155e-08,-22.8423190328536,-6542862.865090895,-148.89395991470087,-0.024122988557345466,5.782916145692141,-1.1057671136172456,-0.42926992377912737,-1.1338697857864688,-1.2682501818408027,80381.31493882091
-4.677135111215892e-13,4.0418964543299315e-08,-23.132599630323046,-6837109.407804646,-153.81812418570243,-0.02452375799884154,5.91033117055612,-1.1381307859660743,-0.4748553761589219,-1.1553016833478096,-1.3045684467404344,88098.17645058794
-4.664312620554602e-13,4.037041527480748e-08,-23.199208563507476,-6837839.207074999,-154.22899061071823,-0.024563386119366006,5.9229672799009565,-1.1423940100577639,-0.4733120481816293,-1.1578058103420572,-1.3090465021390296,87642.17664816187
-4.724256025063588e-13,4.062539507060538e-08,-23.284622454741246,-6909778.8814264685,-155.71103904463368,-0.02465592779109236,5.9078231541529735,-1.1514357924500693,-0.47795129509983253,-1.1619667967957699,-1.322830568213887,87866.8978928045
-4.648473430229789e-13,4.050032057447856e-08,-23.186845141137013,-6850213.38919748,-154.17843629910752,-0.024465369918774356,5.881149399296019,-1.1375792785855765,-0.47283176198460386,-1.1571557514059498,-1.3137902314972856,86797.22488501848
-4.695863406067594e-13,4.0768340301723135e-08,-23.28535606145834,-6908959.229547245,-154.88804681618612,-0.024715106674519382,6.025868752974448,-1.1439320165936584,-0.47749673837498874,-1.1707586344419927,-1.317401366985754,89171.15745907636
-4.72887291850769e-13,4.027309899415963e-08,-23.319813182660962,-6910457.9799036365,-155.23063843658431,-0.024753501699781816,6.012531817001012,-1.1446171832375103,-0.47659590612223607,-1.1701701473818826,-1.3164638996208078,89087.19001669552
-4.973218711632687e-13,4.0987429228666334e-08,-23.575148222367627,-7090830.97370381,-158.8188158022508,-0.025058945144725023,6.063292153819858,-1.167467178314181,-0.4976618491448096,-1.1824994110705536,-1.3406158754004487,93165.93006962823
-5.280702570498609e-13,4.181061581069233e-08,-23.76620994422796,-7094037.230501667,-159.00079814391188,-0.025372972990209918,6.160866200393411,-1.1736718124538528,-0.5230553733685996,-1.1995005665630192,-1.3350612874775114,96691.07667151913
-5.122084672086114e-13,4.096846961794231e-08,-23.610502778208026,-7048404.698246898,-157.98811262358277,-0.0250027203707019,6.099138605190702,-1.1616245907942084,-0.511663114027966,-1.1830166631972885,-1.3267222216828154,94368.21134272436
-5.130250792740589e-13,4.068331601272919e-08,-23.651847153331165,-7081356.981636405,-158.3693806993149,-0.025055815102722527,6.131901808575661,-1.1612663123732474,-0.5107403454810922,-1.1860926381139825,-1.3306599645126345,94494.9375958299
-5.122730336248144e-13,3.834371956104937e-08,-23.654002116067236,-7111870.334753307,-159.13919997819076,-0.024800419103205216,6.138987293256219,-1.1581235928193616,-0.5028293505390216,-1.171513856030554,-1.321649708401643,93674.89023194919
-5.454638819831941e-13,4.4158030423782317e-08,-24.042117530287705,-7200026.807865499,-161.2851512725367,-0.025874386983743378,6.208113017787172,-1.1949134830493873,-0.5460166247009142,-1.223873106475918,-1.3593833699492488,98933.46481901997
-5.472262914566069e-13,4.5305754513458234e-08,-24.044037531507982,-7204054.058433214,-161.72315175178696,-0.026042030074941967,6.1123824268043805,-1.2026129512862542,-0.5503877007492958,-1.2283347017143875,-1.3677430324352784,98650.19770659521
-5.5650032570492e-13,4.70777239461394e-08,-23.993294166521302,-7068339.370864501,-158.93455527175936,-0.026026432069947307,6.097453745860791,-1.1864895140144662,-0.5646152625493114,-1.2342113886951953,-1.3527201198679175,98962.90483275699
-9.903643478731085e-13,5.04567124473765e-08,-30.363557716731794,-21313681.655756753,-320.1509287352244,-0.06297733885682902,25.059242583553687,-0.9680998019193056,-1.2692257921990509,-1.253433285459475,-1.2823179347198994,497521.3398869946
-9.911088907220486e-13,5.126254674622042e-08,-30.494770431042753,-21617683.46540901,-326.89782650081247,-0.06367344934082063,24.513937906402244,-0.9893517118840012,-1.2716312079011138,-1.2519244622284618,-1.3041377181346216,493323.1831518556
-2.2323943591591224e-13,1.6776418124419156e-08,-25.397772369280148,-20631726.570747998,-323.1178304833888,-0.05174972992634531,12.839295960558186,-0.8519018795551074,-0.2684496172026887,-0.6991813541198579,-1.1971936506672791,120957.4341130821
-2.123088661137018e-13,1.5914050228180964e-08,-25.078380856568675,-20670272.462992422,-322.98240304259207,-0.05138942874211879,12.478024151667237,-0.8408042240418431,-0.2540974268519763,-0.6754395393996618,-1.1885118336814897,115806.4630855791
-2.2616022726844274e-13,1.720941767263619e-08,-25.71898356639391,-20451604.213325873,-320.6782770515499,-0.052732122065892305,13.29348878400661,-0.8530374926840283,-0.27276706637177045,-0.7207570604195809,-1.1927832608026983,124306.23037257345
-1.8369822977309648e-13,1.5898688474701982e-08,-25.35199256922179,-17990347.59656148,-291.088576180441,-0.052000640207093524,13.305806532742736,-0.7942824062172545,-0.22548476897876274,-0.7271484668046078,-1.1040315084971042,104799.76003924588
-1.8467151436572634e-13,1.5973299451842688e-08,-25.335639081292513,-18167699.356110804,-293.8545183127928,-0.051820250167767805,13.223104416423112,-0.799190837443978,-0.2270367951549901,-0.7214082924487991,-1.1147285426993603,105295.21752808917
-1.7817034293611798e-13,1.5807683309914023e-08,-25.122691781552348,-18078320.741798762,-291.5614219644514,-0.05131118861901381,13.120370648815205,-0.7898270345870161,-0.2206209824748395,-0.7135770505628249,-1.109478640140647,103533.52794560247
-1.8087812855584138e-13,1.5991283223656805e-08,-25.24132072383022,-18191103.67784923,-293.62108496074245,-0.05155309879671241,13.20643801948258,-0.796128051323537,-0.22513168110183712,-0.7175781975700734,-1.1150423508076905,104446.15505763865
-1.7674132635177584e-13,1.5855557396164547e-08,-25.41024093815943,-17952019.91710312,-292.72765094032485,-0.051849833884348516,13.274148551545895,-0.7971210148266645,-0.22174028954630423,-0.722920443049621,-1.1124275404154758,101570.65999280121
-1.9524915090664475e-13,1.608313488894443e-08,-25.463191265599644,-19808400.52542564,-319.7654417597213,-0.051841801178854924,12.599724148510054,-0.8492182091363416,-0.24061139465595058,-0.6922768544790288,-1.1920864079545785,108890.79745288195
-1.6257577773937517e-13,1.4169295283108873e-08,-24.518476936411233,-18935029.197446804,-307.19309044727316,-0.04970473093953687,11.675181394227085,-0.8024170845821724,-0.19968026942547049,-0.6437506125774136,-1.1430828083834506,92716.85574154432
-2.1355842698157098e-13,1.5960492099205773e-08,-26.15683448417517,-21515705.88489472,-346.50890427043527,-0.053581683526072246,12.834792092096327,-0.9091670213924167,-0.2709223847816718,-0.6812595097190572,-1.2094198006144248,110863.87078361466
-2.5000141214367984e-13,1.8411290685739807e-08,-26.99117561568428,-21962472.12287222,-347.7778499032165,-0.055258536367056486,14.216942501509276,-0.9435291729977939,-0.31901635124082567,-0.7487511399520478,-1.2268325747894455,130966.60811383967
-2.6114066241396657e-13,1.935057322758731e-08,-27.282486907240635,-21601960.39705983,-341.2944577705949,-0.055832641001982874,14.833062882580164,-0.9423530816334302,-0.3338368874988465,-0.7803611992555509,-1.2168027346117622,138173.1738971938
-2.616613103715142e-13,1.9096120912456336e-08,-26.964218603797594,-22596179.79305413,-352.3430584507062,-0.054591205462090134,14.424819133701776,-0.9629694609454593,-0.33352420750402806,-0.757190895200361,-1.242152575742576,137884.85321977112
-2.5361209588844047e-13,1.9022089182694593e-08,-26.92176833447838,-21713181.025861822,-341.0992734784901,-0.05457293581642709,14.502206377180755,-0.9400867747332166,-0.31786878448787564,-0.7698641283290808,-1.2320468276385463,136977.44710349914
-2.627549622381108e-13,1.9356217655472523e-08,-27.172141501539627,-21912074.396159414,-344.422483007744,-0.05502119327705243,14.78899982886638,-0.950611082442954,-0.3310278175486131,-0.7782132236435355,-1.2386274510176185,140231.84906368417
-2.72383664356524e-13,1.9193796587715036e-08,-26.989264067731742,-22984013.74143738,-356.75780686131304,-0.054589221174118345,14.368028949673837,-0.9615347383193757,-0.3419881645949492,-0.7489306902463734,-1.266488247841715,144030.08788498546
-2.1981402603320417e-13,1.6052469521306415e-08,-25.758611358744087,-22870875.49480841,-356.22788656046646,-0.05134174242809153,12.803919821624513,-0.9324246661433457,-0.28098604613820216,-0.6643680616566897,-1.237200037422047,116702.6789580443
-2.1862186409120322e-13,1.5702534606490826e-08,-25.77500632896547,-22755747.720792193,-354.8242190825508,-0.05079564813059924,12.90822780987168,-0.9301682468166245,-0.27842790642427684,-0.665860399380518,-1.2297530941973414,115483.25140019796
-2.4528671864618674e-13,1.6751901822095975e-08,-26.709111686660084,-22778259.302582867,-357.8706673601843,-0.05281591168967206,13.984562190403485,-0.9472814011376673,-0.3095012961174492,-0.7109606928552018,-1.2560034211937836,128877.68904759703
-2.1252625062668343e-13,1.2361666793287939e-08,-26.04828137637277,-22541637.1404224,-354.1731510959819,-0.049355680456794525,13.45792177988365,-0.9051084259019789,-0.2581428453695791,-0.6536903409502633,-1.2041708301360252,112997.43907359251
-2.8166131000053755e-13,1.600658186780614e-08,-28.207634904370302,-23851677.013264954,-375.32260007820224,-0.055455628747932396,15.558041160543214,-0.9781835620654954,-0.34388379787827195,-0.7575787756313311,-1.3194588374714766,147973.34055833681
-3.089879075945214e-13,1.7530568582034896e-08,-28.886274694427584,-24214118.970488224,-380.0028781641158,-0.057156830825136166,16.310776457579518,-1.0074019492975301,-0.37855145640626536,-0.7993196527057621,-1.3455326137823898,161030.89761583047
-2.3904982421662727e-13,1.52781962000418e-08,-27.03555570034094,-24216704.716532774,-375.82735097387933,-0.05247322121860093,14.068968811504684,-0.9835654533938019,-0.30274042122661304,-0.7070462979767318,-1.2944453259601543,126458.17816871015
-2.4766940571855337e-13,1.570770361032386e-08,-27.50122719513126,-24410898.325709913,-379.5368912041485,-0.0535409707004165,14.32849416058791,-1.0009819579449133,-0.3117246450297297,-0.727354699601775,-1.3152402903425824,130929.53109781198
-2.5764069699060293e-13,1.640217542435432e-08,-27.83389842817906,-24017923.984509915,-376.17634925600277,-0.0544539194253408,14.742902415894651,-1.0026691891902346,-0.3234875458377444,-0.751034628271732,-1.3209226991965364,136717.70890324994
-2.754959652881879e-13,1.718926051340817e-08,-28.518796331958004,-23539351.540223747,-376.18866234717433,-0.055461833121163845,14.971626145173577,-1.0218816200357672,-0.3502717499338453,-0.779790971655982,-1.3171723264830766,139261.5864574348
-2.682666624719739e-13,1.6794997529576197e-08,-28.456602294020144,-25071307.709283203,-384.9803383723154,-0.05809234499164412,16.59017210081175,-1.0362727726624559,-0.3353170618181263,-0.8053054449920446,-1.3315847762680375,157122.60676261137
-2.695465088336856e-13,1.7146297429167585e-08,-28.68299007118849,-24590329.444280118,-378.6500663667021,-0.05873039441607034,16.943197722505886,-1.029394402159261,-0.3339706278688658,-0.8234602429494272,-1.3152023493355773,156392.47832802747
-2.6530501730232625e-13,1.714521771959598e-08,-28.822064552717418,-24103832.22255478,-373.71835287699156,-0.05901576046633031,17.160698292728817,-1.0262013622506794,-0.33102248480423074,-0.835320414436732,-1.299907139562165,154406.47030999186
-2.776270950527369e-13,1.7717339770925304e-08,-29.235991442808874,-24125767.307127878,-375.7889442886305,-0.06019073203296639,17.531162159867097,-1.0355053720398295,-0.3476891849035119,-0.8540862874112151,-1.310564852882217,161457.46748377712
-2.7421504105050004e-13,1.742482425352113e-08,-28.8345307325854,-23766421.27496656,-369.05349374502106,-0.05937304022921135,17.188306162244533,-1.0134114225917252,-0.33909806979866036,-0.8364232968444929,-1.284288022835767,156909.4574716776
-2.4877778652136457e-13,1.6612906877328693e-08,-28.364683091372715,-22647197.244035292,-353.22013220512815,-0.058389062939627694,17.00464336356923,-0.9744146881906401,-0.30867703489167464,-0.8267906181434461,-1.2349676379212207,143894.8326744166
-2.6383992951796925e-13,1.7130213979420945e-08,-28.501064091632603,-23371090.271618858,-362.65061216682017,-0.058812164279462745,17.003719987698137,-0.9966919034005315,-0.32668326511716,-0.82602593769426,-1.262887247642285,150867.29205728136
-2.6181055624654955e-13,1.705351271190202e-08,-28.548737165136785,-23435787.87055351,-363.21089047528767,-0.05880086889471662,16.977553577635273,-0.9982582330455065,-0.32229164397930465,-0.8266784542475436,-1.2647317009614851,149493.6593446883
-2.7331980682632237e-13,1.7850731749149395e-08,-29.26070835017791,-23279650.46032955,-364.59573575451924,-0.060396412519973595,17.700906082089343,-1.0159330283869306,-0.3368210490083415,-0.8653117318083073,-1.2785054451905782,155689.97371151316
-2.933554728671709e-13,1.861043998843063e-08,-29.556710297654828,-24105011.521399725,-375.0948467894384,-0.06110601054826406,17.932001337165413,-1.0419884507119959,-0.36229185884451337,-0.8756618777454603,-1.3108121949613012,166154.32401086454
-2.90465095224941e-13,1.840015660443479e-08,-29.306195075859403,-24060014.01417916,-373.3360548019427,-0.06037835015246213,17.564411053521038,-1.0320859660889876,-0.3574177413714311,-0.8580389282084894,-1.3029951283840537,162404.97533134584
-2.8606747818903856e-13,1.8314349107009778e-08,-29.28797154835717,-24016384.327663437,-371.2313611494187,-0.06047704890995087,17.74739516250734,-1.025009363820107,-0.3515656606044662,-0.8600425810270075,-1.297490663172245,161823.19601687934
-2.482590466556786e-13,1.6939330584889322e-08,-28.592882008238917,-22483886.81580756,-350.3889565891292,-0.05874495557643003,17.19811666294085,-0.9680202052444381,-0.3069506600512387,-0.8318057008933852,-1.230330081291997,142562.71578715646
-1.694895132800909e-13,1.4414830084775518e-08,-27.735723740664444,-18049970.116603933,-294.83448631273734,-0.056656039833878624,17.081008338649365,-0.4845228627428234,-8.533836851577716,0.0788616757316544,-0.6959248757184655,104671.36054841692
-1.6228020089006318e-13,1.405399743077214e-08,-27.422161452795276,-17717223.203057066,-289.44259829822795,-0.05594621041154084,16.884957414603644,-0.4749662040299468,-8.176937422932571,0.0776613504841784,-0.682564581725143,100387.75776353275
-1.5163533101775413e-13,1.3309153932463733e-08,-26.945095145462936,-17679827.014936436,-287.66863441312756,-0.05474018810547435,16.27621140676132,-0.46956477882841136,-7.58269002950792,0.07496166843736543,-0.6752305671050699,93670.05530084345
-1.0608153057760117e-13,1.0280601101661096e-08,-24.812826221225297,-17725937.819883972,-284.6041342382988,-0.04867096563923913,13.497381703356073,-0.451255021282433,-5.385209048508961,0.06320421404165885,-0.6413940915379367,67411.39972380998
1.329693908428125e-14,4.585443657075673e-09,-18.791922695807653,-10536013.74270783,-181.43830524138198,-0.034696181458524634,7.4913430013307565,-0.26504643025364444,1.4355415521122095,0.04451691106264018,-0.5391650043123424,16415.73193418546
1.2527110214751708e-14,4.470303718727257e-09,-18.737437851150847,-10511985.694791997,-182.02586029398807,-0.034246259695644016,7.3179982494508655,-0.26537271777054344,1.344470475187365,0.04439814763588021,-0.5473675993798915,16093.151675220013
1.2005091375118776e-14,4.377179238584736e-09,-18.617415878025444,-10239449.456877742,-178.11337443470435,-0.03401013210787063,7.270788120842207,-0.26077880207028037,1.301104662807249,0.04414717514693424,-0.5376899812300996,15506.162537945542
1.5072809963900524e-14,5.0811741209627e-09,-19.67117252811994,-10916716.434285726,-189.5222227194726,-0.036221220192581526,7.932363424100446,-0.2798328986048981,1.6208270646850418,0.04804045573120651,-0.5744423926778081,18806.387113181445
1.5991966140964385e-14,5.3102810724143e-09,-19.962285121660933,-10860702.899753258,-189.46989218364908,-0.03693634765842838,8.223320980507816,-0.2816995010037355,1.7210693029521007,0.0495236926416731,-0.5791295661149372,19911.83723884986
1.7798868073414453e-14,5.508756727068957e-09,-19.81041094241016,-11702467.182831531,-199.959784416923,-0.03677104935812319,8.021646693962035,-0.2912960039745604,1.8821496995637748,0.0479550528456759,-0.6028431023550638,21431.13671298072
1.8128274354953242e-14,5.521531890489802e-09,-19.855642933665447,-12015821.752033735,-205.14899592428966,-0.03655996921710562,7.905075491202851,-0.29725001715347654,1.9295799155573008,0.04774799217175994,-0.6148331713301596,21909.793739500645
1.7862137169943957e-14,5.46927569577533e-09,-19.783989692241544,-12132509.032323144,-206.98387878470967,-0.03629857460762485,7.843166164262004,-0.29855060345224765,1.9207704314056084,0.04724427391262018,-0.6182291433138065,21782.06326545573
1.7919634433968976e-14,5.483790446784952e-09,-19.731651528861622,-12274706.817836834,-208.65420960073985,-0.03626669862380309,7.820144521540082,-0.29938100779392773,1.9288097784282678,0.046869002539590476,-0.6215828884834369,21739.405610831956
1.9701888450399078e-14,5.834166992989116e-09,-20.454985654234587,-12408721.956869073,-212.8586593457188,-0.03756410964122909,8.24160512893967,-0.30970791999542807,2.118368241723244,0.04959637972176258,-0.6393220443480837,23927.052826477524
1.901204455217859e-14,5.681519257796956e-09,-20.27710766646995,-12321404.970305568,-211.22220940641031,-0.037290254317459894,8.085291852177011,-0.30567768421211694,2.047147179790279,0.048606046875022756,-0.6315838760091383,23080.409317937305
2.0138591072119407e-14,5.890145269624743e-09,-20.67521835098988,-12553555.664507782,-215.42569519006025,-0.03820256357918132,8.432366009768884,-0.31404949297420615,2.1753444030615077,0.05054318856064078,-0.6443488641363062,24898.914030286705
1.8688672398109375e-14,5.560662380615645e-09,-20.324690974615976,-12329492.4363619,-212.74008668860705,-0.03716953410951862,8.000708011788301,-0.3072815764590549,2.0427247313389545,0.0484078421551139,-0.6320815557325196,23050.34578767729
2.1968480384978425e-14,6.094754444243239e-09,-21.04835718649396,-12659396.217056971,-216.52103163791674,-0.03848705603102084,8.564099139888864,-0.3173938338343175,2.269825649822677,0.05230439795097997,-0.6543537906784083,26321.121889248712
2.650462205461023e-14,6.376090446661434e-09,-22.3837341029513,-17541759.344366785,-260.10592864421085,-0.049144581497196575,13.745599310193546,-0.3833775776114608,2.5238114751905356,0.06669761754789051,-0.7373772838772524,47009.07921574224
2.5540265783954683e-14,6.204337367553338e-09,-22.253869414966722,-17389841.081730045,-258.0171343790664,-0.04872687264688166,13.61410035182798,-0.3792169107860339,2.4577182434865326,0.06595715091816184,-0.7300501033413295,46087.88603611178
2.4884894990102177e-14,6.138415164152382e-09,-22.338520161402936,-17172682.886226498,-254.73934560180408,-0.04952653538850256,14.32286726796615,-0.3783294936182045,2.447673503167257,0.06759771968577102,-0.7194358835668245,47771.040585419774
2.2986096685273318e-14,5.8425912402293775e-09,-22.00120274836323,-16691373.078592248,-248.1443380757425,-0.04859355091451886,13.970279565260109,-0.27379398861545323,0.11510407915527218,-0.05379562383572166,-0.5465708671688706,44670.01019843793
2.1251682820458966e-14,5.558865473531593e-09,-21.681491318469124,-16246177.276688604,-243.2753087383962,-0.047771531588793735,13.687839535445821,-0.2677489188411437,0.10884951128139404,-0.05242700730594732,-0.5350802366751946,42493.65715920441
2.6867546073430906e-14,6.305456211947434e-09,-22.187747794837243,-17643560.7875708,-256.3106813566903,-0.04913517424135829,14.321210259442921,-0.28094730451941013,0.12700901424702746,-0.055192682433452864,-0.5686764512513811,50894.699647407564
2.9810403651728176e-14,6.583251779562189e-09,-22.35979706789233,-18450980.04517367,-266.3004273893373,-0.049611721091297564,14.478299648526278,-0.29239002433832445,0.14062235867920977,-0.05558555000181186,-0.5833451284750709,54746.747590797226
3.0269745442315454e-14,6.647680751507003e-09,-22.329283860152998,-18574419.481872026,-267.9812239897381,-0.04954361181952494,14.455442364609308,-0.29395027287115016,0.14364446093111427,-0.05535127386293728,-0.5852002194054438,55542.30930255171
2.978928779322015e-14,6.54913357512684e-09,-22.14128949628726,-18501104.898059428,-265.71381184022925,-0.04923217785982882,14.300560323941383,-0.29011928659577435,0.13942947648274684,-0.054603516413947575,-0.580608776824912,54273.904288607686
2.951198402731573e-14,6.618005421607308e-09,-22.140759740351708,-18530901.96438682,-266.2684742071762,-0.04934910136056164,14.220619489320493,-0.29123785251445067,0.1382664965430931,-0.05494743127688036,-0.5832434368144637,54269.54750723853
2.8207345911227114e-14,6.542977339408497e-09,-21.95297494946991,-18148320.671515375,-260.6813120227303,-0.04885876368626696,14.008334901052663,-0.28575700039365487,0.12952281093160295,-0.05473365744400953,-0.5795265745858992,52353.54428078245
3.26718935361559e-14,6.9682368274013e-09,-22.60053145389886,-19369552.397657957,-276.30870885600405,-0.05060106393080067,14.804274313840564,-0.30471548717561964,0.15412616363426168,-0.056234335388143784,-0.5900386507419647,57617.17841442202
4.2414032600968013e-14,8.532931727276597e-09,-24.261256172582648,-19394400.73412319,-280.10838309824084,-0.05551107392163514,17.175753478611256,-0.3176738604663725,0.1994632040018988,-0.06450988193319698,-0.6204230657016118,73959.74494605274
4.564601824648489e-14,8.966404841073808e-09,-24.606297333736244,-19646520.208577316,-283.28050474952335,-0.05654384757352095,17.72403411895405,-0.3239084967900499,0.21202066530753463,-0.06675164610301157,-0.6317704020464178,79335.25139327646
4.518369434461122e-14,8.90083355843135e-09,-24.366279633950896,-19626310.762631457,-282.31210186748945,-0.055982790883005,17.452377236803,-0.3225545725725023,0.20908867858607583,-0.06602155383932688,-0.6288212953670368,78343.76770899295
4.2517770621672813e-14,8.678232127764671e-09,-24.191782922943453,-19414712.168331195,-279.8648090695076,-0.05549407982958114,17.190553894562033,-0.31903846112826,0.19702861212706027,-0.06540695021195508,-0.6275028609703022,75147.97350877112
5.353001487880615e-14,1.0298233766051006e-08,-25.557045588436836,-19760670.809579935,-286.58128142857834,-0.05955812548999299,19.257315843288783,-0.3343510368942703,0.24710628611600507,-0.0730281961652585,-0.6585823724952149,93894.77290328217
5.2703941709189225e-14,1.0179020102571833e-08,-25.414905247276003,-19667877.690588214,-286.327427358855,-0.05930167113728233,19.02392359878853,-0.3331686502964599,0.24594351224833988,-0.07230332401715983,-0.6564969057413692,92934.95692028725
5.139171390632839e-14,9.986416832261562e-09,-25.150829466832867,-19567839.99155431,-284.2690817378126,-0.05867898001608164,18.6795983727566,-0.3291350260661974,0.24047952999472358,-0.07107245104158269,-0.6504419345436663,90896.33212846266
5.04535705677491e-14,1.0044874602044754e-08,-25.2484947442977,-19474334.584927965,-282.0634477311197,-0.059133598504680716,18.731856016805548,-0.32771954549654747,0.23418414861793213,-0.07169627544030692,-0.6513623645056582,90476.27148999347
4.8066651826206654e-14,9.74938499462185e-09,-24.99727121929179,-19168221.993151266,-279.5349010703032,-0.05829044214053738,18.45758000356504,-0.3237261581170177,0.23284090458151896,-0.06947133693364922,-0.6361107966761085,86680.37829033521
4.982974117924231e-14,9.98800456258612e-09,-25.29970385781621,-19467925.54612085,-282.6065836981279,-0.059065641821856585,18.765898524034462,-0.32739520311891246,0.23753694760400546,-0.070706235601093,-0.645185349412237,88886.16813060515
4.939895993000192e-14,9.935262991111882e-09,-25.171750250365797,-19385998.137739602,-281.0422543473363,-0.058796045859758374,18.64419230441352,-0.3262694678286993,0.2346394609332761,-0.07054128041497376,-0.6429233729188246,88326.06776859317
5.299810620480438e-14,1.0463628975388863e-08,-25.177180617751326,-19239935.875817273,-279.8085992068546,-0.059199406490113425,18.889275504741068,-0.3292366711374567,0.25245990930555734,-0.07194733155299726,-0.6441406064159225,94767.37042102135
5.519580283486347e-14,1.0829478811368558e-08,-25.392042364288915,-19175239.41231983,-278.9629351369783,-0.05998632435375752,19.377301979471504,-0.32770428278165614,0.2550153995478762,-0.07344787042985915,-0.6472153259932538,96805.44006956078
5.2290343410062614e-14,1.0393689433452515e-08,-24.710507637810878,-18771972.690078914,-274.7307247764209,-0.05805422348191775,18.617608640098634,-0.3226294447907702,0.24755997471224192,-0.07056492564339009,-0.633204972053953,92581.68289611678
6.255226429206121e-14,1.1549581732315973e-08,-25.386613285691265,-19120632.536996875,-277.743674239578,-0.06011869474016655,19.868745144157405,-0.3331693367329401,0.2809470626077443,-0.0760380151255979,-0.6474058625391191,104897.89812462016
6.032646008019886e-14,1.1471583144022239e-08,-25.258973295913243,-19056178.88221102,-278.07740683888363,-0.05984770931943209,19.672846709859375,-0.3324746342931411,0.2776698837038825,-0.07499609419400453,-0.6466488014974404,103208.59461891223
7.300234632723031e-14,1.301250168288653e-08,-26.440051669614405,-19514815.683295097,-280.4655873686486,-0.06325199727432494,21.555621258026278,-0.3422415817485123,0.306531444898469,-0.08310989029784926,-0.6704389783303968,116907.56194495325
6.90099114720507e-14,1.2624722608999892e-08,-26.37360901325637,-19552061.107418917,-281.6164633719355,-0.0629467618210397,21.169670828454908,-0.3409923917651359,0.2945751310283861,-0.08146490945258252,-0.6698723589475353,111634.12182834632
6.137394846630544e-14,1.1586957310211627e-08,-25.728766754281956,-19361027.545887187,-280.195140215591,-0.06080813746248654,19.85605415350294,-0.33545287845889316,0.2766967267520822,-0.07628494197259869,-0.6538878689072032,102018.25925271527
5.646223711313237e-14,1.1030984112572816e-08,-25.591525395937595,-19508987.58328025,-282.54889039246973,-0.05998608216972291,19.21397941545985,-0.3355132095165533,0.2581239944263013,-0.07404801606603754,-0.6538829993284195,94099.0371803701
2.599246717676991e-13,4.120770762707936e-08,-50.458665519988855,-19353294.179120205,-331.18498879671404,-0.13813364237724224,59.38135094553728,-0.5035038815355367,1.175287164148782,-0.213968308961052,-1.0664207050369643,418108.5404871388
2.667688212686748e-13,4.147012392233455e-08,-50.28000596970745,-19406365.758538865,-327.92850326265005,-0.13794858562632797,59.57125789217095,-0.4999118733182024,1.1565335329859665,-0.21487374288261127,-1.0562609879478426,414760.15864014055
2.6522424249868614e-13,4.09244183452247e-08,-49.92243802268822,-19399400.334910538,-330.2128842462066,-0.13613500732243888,58.305325359667094,-0.5017785299894646,1.17590553968546,-0.21163106197687767,-1.058556882075524,420743.19014861307
2.9443277726136536e-13,4.4179446197733235e-08,-51.33090622882713,-19527374.260838103,-333.0997603642517,-0.14138615792044978,61.87630645344608,-0.5114660089926113,1.2784123912425749,-0.2241852808829434,-1.083001370469385,458088.5491983098
2.595871473473869e-13,4.0833834015278205e-08,-50.0003686978364,-19283105.77482817,-331.01358741183304,-0.1368171850447402,58.34340592332062,-0.5031347223352892,1.178154484032288,-0.21106941146099278,-1.062865993155906,416124.7171445413
2.9629707158308303e-13,4.436318842430324e-08,-51.55229274434746,-19526047.570603084,-332.9330633047393,-0.14205225906806992,61.85795125863184,-0.5111196796265961,1.2721666945428898,-0.22511458464820597,-1.0875945364605097,457604.5864560015
3.310120159774035e-13,4.8176304241740654e-08,-53.34414224188974,-19857751.279231507,-338.445294396491,-0.14818100239014048,65.91380243032677,-0.5239598424330169,1.4016073942575444,-0.2392560714593533,-1.1162109863453686,503907.26359910594
3.382105080976946e-13,4.8933424926792734e-08,-53.3202042383857,-19803810.566683866,-337.5418927365505,-0.14868616037790572,66.84568121653547,-0.5249730922919327,1.4361463397828722,-0.24194962884989438,-1.1168495331107213,518873.96459976217
3.306940369636916e-13,4.875610458586589e-08,-53.058329866494056,-19475789.361186605,-332.867448133066,-0.14749044907162817,66.6487244780953,-0.5184258742925353,1.4052275721969625,-0.24093148927564217,-1.106405870299244,507817.8652476585
3.2937869277214146e-13,4.881430762862149e-08,-52.97024030141708,-19328210.135038223,-330.9825220193141,-0.1470570518349476,66.66863012867314,-0.5161007339219293,1.3925862509335827,-0.24104631229255236,-1.1021363270999638,503915.29440102214
3.2689823297157686e-13,4.8110336953181415e-08,-52.484410108897045,-19230796.927929588,-328.9294261425346,-0.14560392094622263,65.94143359761908,-0.5132527911449908,1.3773697937527174,-0.238729638568429,-1.0945850675780153,499087.83699856553
3.2914058239580654e-13,4.789425822998149e-08,-51.74570619159169,-18894784.617435154,-323.9607895441671,-0.1439761060307601,65.14961882848618,-0.507264610570637,1.3773473818912039,-0.23620967182389185,-1.0811321328903876,499855.3034004293
3.3273570575691377e-13,4.800790843040821e-08,-51.57700909368271,-18786622.81139157,-322.33957639671576,-0.1438311747229522,64.81519548006364,-0.5032793138757693,2.0836365300867707,-0.29934926918178306,-0.8604628603772929,501706.9783427699
3.3941922345366217e-13,4.907606968593588e-08,-52.598806702842424,-19032089.167880617,-327.6375130706458,-0.14628389555170246,65.83493217610344,-0.5128213839731168,2.131055948596304,-0.30660866452405877,-0.8778441904858858,508266.42462038697
3.3781043570771787e-13,4.8907265474057445e-08,-52.62079490670556,-19025181.879546802,-326.9072016435414,-0.14620069940079797,66.37070755386038,-0.5127143335223016,2.1185603504062773,-0.3070392216466286,-0.8757851861090697,509610.49835305405
3.399722795251908e-13,4.9485135278195884e-08,-52.881408752202816,-18967290.093532067,-326.49454098417425,-0.14694303238611148,67.23063328631532,-0.5120742017416137,2.135909307685344,-0.309802859010013,-0.8775898417314308,513174.87024946604
3.333183551636375e-13,4.881217427868662e-08,-52.59581325285842,-19024893.134428307,-327.37175033760576,-0.1457769182716632,66.50515697854989,-0.5109365073399608,2.1137215227929786,-0.30539335350498137,-0.8760324370496262,505654.71951115766
3.4212795145280043e-13,4.951569566468477e-08,-53.18855320819293,-19210038.1115752,-331.2979912076296,-0.14768559447107837,67.03960010727137,-0.5168253630002789,2.1704824423903926,-0.3092814459863506,-0.88436103172993,517128.7540045656
3.497661011035677e-13,5.0273388347317245e-08,-53.294688730353315,-19237365.94661652,-331.17779102130095,-0.1478173535303241,67.59014771184049,-0.5190359697861937,2.2212849911399166,-0.31162998502323613,-0.8843473931211718,528245.6360144885
3.52804447558864e-13,5.039359983487947e-08,-54.30167056741106,-19636614.76547348,-335.5419696297657,-0.1951671942151415,68.53878538577874,-0.5201972003868719,2.254888219659367,-0.31118338964785086,-0.8839002765634302,550158.609347215
3.433992640837518e-13,4.982401718380629e-08,-54.10655813728271,-19321295.329641838,-333.2152295921218,-0.19330920359780274,66.88320441278688,-0.5157789304712633,2.199951839043161,-0.30687326098219964,-0.8796211157715469,524089.0809005903
3.389212085525659e-13,4.974342062451162e-08,-54.51564909937352,-19470104.113823254,-335.5407775126356,-0.19499907390522703,67.27320428558556,-0.5192357474816418,2.1683072662062024,-0.3086005275536035,-0.8864899480077927,517539.79972875747
3.4613910746716034e-13,4.9747894332855985e-08,-54.827319526630404,-19898062.973019805,-340.56491569176086,-0.1987417348615886,69.19705160401143,-0.5246189061858111,2.1893294229726257,-0.3117785070844095,-0.8949450178478169,539824.2598355846
4.2026553199216673e-13,5.8987238084410917e-08,-57.222099587946694,-20187510.935757086,-343.649602072642,-0.20685379746020854,77.73245060229402,-0.5499841045098743,2.6788866139528484,-0.3500090514271159,-0.9186242024896853,653030.0333139168
4.4292691664536197e-13,6.186757223614215e-08,-57.85535358190456,-20115588.574295208,-343.01415166308567,-0.2022048318110536,80.33049399638901,-0.5564394515803005,2.8217941197040872,-0.3614806688079971,-0.9228020239167196,683386.7161138849
4.343034259766574e-13,6.114000520625175e-08,-57.767629438986525,-20226386.90545415,-345.07907928047683,-0.20161212104115553,79.64912057974746,-0.5593442572082828,2.7896830417159966,-0.35892486526885703,-0.9240373588929425,672824.4300247228
4.1005925600995374e-13,5.864550468724052e-08,-57.21693833463647,-20329746.72014522,-346.6863761357054,-0.19880175213625545,76.75261188651245,-0.5581573915237795,2.648113875625249,-0.34879372380478885,-0.9208145416652089,634883.9190659679
4.0517458691496086e-13,5.7723641910998165e-08,-56.567978523452815,-20261778.41228359,-345.2051536942381,-0.19578583462506843,75.40148028144326,-0.5557840934026336,2.6167709910746693,-0.3433353358376098,-0.9159628422544119,625630.2636093899
3.951257684566373e-13,5.659562720293032e-08,-55.88450239914472,-20045316.17218888,-341.61802590670885,-0.19285559243260458,73.66535847616852,-0.5475873973241444,2.548905793500415,-0.3360248717790171,-0.903760455131014,605762.0189856499
2.190834606504029e-13,3.777813141385273e-08,-48.45839949343705,-19313166.62614114,-325.7407610339672,-0.16047410250351724,52.63983195369723,-0.5021758378923716,1.472225215194805,-0.25102133680181604,-0.8152974077995433,335140.86282256927
2.1686647391817925e-13,3.74912058038641e-08,-48.100713466066225,-19140762.621488106,-323.4655935495407,-0.15550813402337457,51.646671774889775,-0.4997666733248284,1.4721286389409032,-0.24733814770336668,-0.8063159682898691,327213.9652684659
1.8539779339036317e-13,3.5953653434000476e-08,-45.284367589586694,-12803321.825772742,-264.7972136482283,-0.12380188825277935,27.87354641264703,-1.909089026254769,1.8291408880132183,0.0754333564161982,-5.123255881051239,131281.00104488997
2.1238784258753986e-13,3.9211990092470465e-08,-47.242532676192155,-13046271.065375105,-268.5080228887347,-0.13097620359995113,31.049622134239723,-1.9646926186692342,2.0660024276560733,0.08179361693408975,-5.237845958043333,153248.23686819043
2.1906109439663378e-13,4.040472757426748e-08,-47.95177995661748,-13292162.008245876,-273.0068011816157,-0.13390355345997407,31.94723112500214,-1.9970735622841223,2.1282347667847503,0.08407765298329246,-5.339545668769792,158962.14468747028
2.2415533806574535e-13,4.151352033230149e-08,-48.218816116206,-13340859.498551928,-273.906663715456,-0.1352439197060426,32.53545931126481,-2.0051097586783273,2.175968326536554,0.08572620763169218,-5.397605017597942,163201.26139565976
2.283743893515358e-13,4.172995618097006e-08,-48.33881933466382,-13787453.354403827,-280.69936946207594,-0.13630930567222632,32.463991086071424,-2.0359830160375703,2.223676663492903,0.08570860914732378,-5.485655259616124,167407.85195278065
2.2684216858663802e-13,4.152749269084867e-08,-48.23968364472739,-13625342.697878987,-277.637337862615,-0.13602792936155028,32.56044765705235,-2.0193269288091766,2.207864415313815,0.08553029843039721,-5.436911846523547,166817.07825985484
2.2555778267885081e-13,4.1815269715133305e-08,-48.78981647323534,-13651207.685090525,-279.97935340570484,-0.13616999471543303,32.67833210118293,-2.046983395227741,2.206894293352506,0.08659203769931015,-5.500225813892323,165627.70066532554
2.2643930884223005e-13,4.192005143348797e-08,-48.81954022222387,-13695971.317576138,-280.8615599701229,-0.13540193340204587,32.59242632035821,-2.060329946488156,2.2391178440395687,0.08656881536642487,-5.488444092312526,166066.1619704607
1.7734904276046727e-13,3.509536806362281e-08,-46.04488742150024,-13626926.520291807,-277.76077404722906,-0.12466538076464014,28.548775314732943,-1.9941151948114473,1.7657505895047505,0.07632678956443255,-5.270686840000615,131088.2880475449
2.3078716427338536e-13,4.2710807712866e-08,-49.20220652109035,-13644569.627856553,-281.7963034579243,-0.13803040794096455,32.94415824390323,-2.0719652511579976,2.3024862149083565,0.08689783410934866,-5.495574816247967,168802.47363585504
2.268828457815381e-13,4.191350696672371e-08,-48.669819258811145,-13084146.00719368,-272.94036379537056,-0.13541835470442312,32.36377322471152,-2.010741112309191,2.2852232137431043,0.084619494450205,-5.307282213841504,164144.996196416
1.6371579039266305e-13,2.5979261370912678e-08,-39.28752031274335,701563.9465019507,-51.11751993520275,-0.07472532591305997,24.43687092463151,-0.6632573960116542,1.8850686692812517,0.047835820417683764,-1.2431901980480762,67338.3395962242
1.7020136561422929e-13,2.7396249406446016e-08,-40.07669931696047,763223.9818095453,-54.54185891095908,-0.07786536630220352,25.02193785994802,-0.6999303116529314,1.9217089060816186,0.05003610973292247,-1.3305154300226025,70288.48664165993
1.5145138090320987e-13,2.566465702651988e-08,-38.84842056493677,742502.9084661733,-53.79423692704844,-0.07502880235905837,23.79779409519742,-0.687916153650352,1.8048745442337892,0.04732218564903365,-1.3010418351191735,64899.894566470735
1.4458773192397718e-13,2.5135127439664896e-08,-38.563897738265815,736508.5064917677,-53.75096420308714,-0.07192134340106104,23.405996209079962,-0.6840108769319632,1.7806456845277958,0.04638172027653262,-1.2916935065964597,63149.934393656615
1.93677911161347e-13,3.023747036621255e-08,-40.95210371571949,757088.9107643912,-54.57561469400251,-0.07181181204634748,26.432144284136267,-0.7173913793582513,2.1473409304680113,0.05354679819037714,-1.3592663945196932,77644.10179937328
1.8710874615497235e-13,2.9894176122604114e-08,-41.13044276821305,760856.3785570619,-55.05391638784385,-0.07212084480146481,26.33457614765092,-0.722540084564725,2.0727201740536176,0.05340807176856448,-1.375606028797267,75133.58805248943
1.5467870102256042e-13,2.850363352963009e-08,-38.349356694450265,509274.31160426745,-45.525624640862716,-0.037346807099972554,13.119983303533536,-0.5999533230310536,1.896615993851827,0.040965461420583375,-1.2254306419859802,24521.228822796165
1.364523910644516e-13,2.658782311839539e-08,-37.90006421986903,499797.10280347185,-45.324865700721936,-0.03645909321103019,12.377421493971442,-0.5907447806839091,1.74055191293473,0.03869111908762177,-1.2107530012152268,21707.93097931463
1.477026732634877e-13,2.8210906667527965e-08,-39.0307246907009,519122.2906581567,-47.01274203063358,-0.03880221897696499,12.871182496863316,-0.6140161872664396,1.8763900765550388,0.04056196396423467,-1.259448267125432,23506.416912757686
1.4073701978833652e-13,2.7637767412199638e-08,-39.20267036441419,530575.4179001612,-47.97276249270186,-0.03902765362393522,12.78224587462142,-0.6195474653961658,1.859334003085588,0.040057403648055455,-1.2714613521265217,23194.20158612821
1.3592982124318258e-13,2.8718006207848235e-08,-38.121900219800395,373836.79288401385,-40.28744448628737,-0.032024728756473705,7.167468763328619,-0.5197553831287491,1.8771486527570307,0.03314693892201358,-1.1474121669571158,10773.662369013811
1.4336313991602887e-13,2.9762870497020598e-08,-38.76329183312056,376622.2640440162,-41.07650223357064,-0.032553086227236655,7.335978681043358,-0.538638356629511,1.939972986993937,0.03413389491396523,-1.1785214843603549,11007.941226623643
1.4573381095384813e-13,3.079499893551826e-08,-38.83505035409957,382743.55046826863,-40.81029168901819,-0.03249231672431525,7.50800746125037,-0.5289644439839216,2.025401608833444,0.03435838213611701,-1.1667535891700747,11499.720972035524
1.3180863948030625e-13,3.058945420541375e-08,-37.405153352552354,284008.805726162,-35.404595220220855,-0.027854152236494557,4.538815602030862,-0.45928451422833105,1.9671501544959007,0.0280635544790354,-1.0672188140165177,5658.975394958033
1.3488832352535571e-13,3.084183185396388e-08,-37.299946577634735,277957.8913599141,-35.23809966548819,-0.027576076675873213,4.453900811722107,-0.4631942388948656,1.9504163500548817,0.027959693011737327,-1.0721189275400775,5377.997805978741
1.3171834868746498e-13,3.0854920139856086e-08,-36.618815785965545,272438.2418985467,-34.558148142268855,-0.026516832027537355,4.258420985854402,-0.4517678553562081,1.956368796274896,0.02697402894870092,-1.050341744612787,5071.99763845656
1.2507747369593405e-13,3.0077028918329134e-08,-36.415491653335216,268896.81187505636,-34.250499695524894,-0.02635492933373531,4.188175454044967,-0.44566933435527695,1.8869401718104883,0.026543732168585823,-1.039161427239008,4912.202038743554
1.188262914444914e-13,2.923156352242328e-08,-36.22144572079658,270316.4383014823,-34.592211583263435,-0.02606577369928075,4.132677584595964,-0.44895164249829317,1.7908388249011522,0.0261435481385642,-1.047442583110042,4643.736159854881
1.0300820562799899e-13,2.6825523627668783e-08,-35.11265680869789,262614.2984935805,-34.14235177792072,-0.021975860604588678,3.8383718841877617,-0.43972418961646975,1.6197766332053387,0.024590331283788958,-1.0318958906681954,4086.3555555871276
1.0245210714958243e-13,2.6972500886948927e-08,-35.040567636416895,260248.84888624144,-34.17650677281093,-0.02061412298987412,3.714280618121038,-0.44142427770047393,1.597893508441515,0.02430187846237577,-1.0423365006274328,3804.483703100703
1.0427482192940799e-13,2.7383718928697553e-08,-35.527709579037996,266361.810406223,-34.802603332447354,-0.020971237625186646,3.763392049299208,-0.4483020426980296,1.6224324434717745,0.024699460906352853,-1.059829259194284,3904.9824750219977
9.580042143209482e-14,2.5967312990072153e-08,-34.82092149557678,263975.0101417597,-34.897264785516995,-0.021605062000720068,3.6036979200899006,-0.44551759548158715,1.5513660990094524,0.023490456026311845,-1.0487258511671553,3653.7241859201326
9.073563328010401e-14,2.5123564386083792e-08,-33.758277865427225,267930.29241564457,-34.91070732046164,-0.02091851275699206,3.5287990069375423,-0.43941250973622437,1.500409471078824,0.022359301300475958,-1.0312839426608185,3527.2447692193264
3.505963653376385e-14,1.5925696193084488e-08,-29.6426438776911,241747.7591122523,-33.74186834110234,-0.018103963008166,2.5764815119041407,-0.402795751478616,0.9875293226124483,0.015848544289950285,-0.9417040147560259,2034.118596613794
3.2469611390202916e-14,1.5823079216250904e-08,-28.960529419129216,250349.38134067645,-33.84472786887351,-0.016096239940186392,2.6010395104392017,-0.3942455449390823,0.9804534057194327,0.015258350880189283,-0.9267901178042107,1991.6189480938424
3.6091810979579934e-14,1.663256952074464e-08,-32.58371292449624,279375.00028830965,-36.790281606633,-0.04607804956048883,2.8803044883726656,-0.4105567065522335,1.1129708132473053,0.015796797063545098,-0.9327902249532087,2496.683593569656
2.936059747996378e-14,1.5955385875290386e-08,-30.986450728838484,189772.47037533237,-30.61947628808961,-0.03677050693824035,1.443579124699617,-0.3417864404509503,1.01823998075149,0.01190028216305137,-0.8260415739988006,849.7686695216022
3.7355731646973186e-14,1.8236895567694027e-08,-32.42966598579055,193469.32056554657,-30.75617761721189,-0.03393033418167048,1.6165085351889203,-0.3560110044375026,1.1372280889583575,0.013644964691320663,-0.862959840250165,1005.4733528700634
3.250073790398506e-14,1.6590071743914515e-08,-31.243450956703384,192896.5156141568,-30.398401523630703,-0.03241619402845478,1.5060267386478792,-0.34518838861764906,1.0178115937039631,0.012664908301370409,-0.8391779040120112,896.9738167283168
3.9823692207212605e-14,1.9098766306858857e-08,-33.29656803645226,193375.47071235802,-30.752052771568017,-0.034996044476247004,1.6795030749543178,-0.3571989654481558,1.1867794741460522,0.01422896005465189,-0.8759151381118582,1056.293976660436
3.9753759994307844e-14,1.8912653722086496e-08,-33.3192160586691,193855.07887226893,-31.059214186944878,-0.035967191427747236,1.67000692097345,-0.3603932515792116,1.1939280974153956,0.014181035464291995,-0.8825290313021681,1053.1306355936324
3.982911739028785e-14,1.8663684367663577e-08,-33.09864738390601,191130.11120752076,-30.845645433303837,-0.03574892637822932,1.6503561921953873,0.08145886602240414,-0.00456673424617062,0.01933668497241341,1.726078401931469,1035.9691655118618
3.831019056977938e-14,1.8051569196325383e-08,-32.54766888240236,185121.89884420848,-30.480552723368337,-0.03184221222308771,1.5834989742309307,0.08097114407979157,-0.00441544337990721,0.01889612066104629,1.7193366312312168,981.1340078253398
7.30389891064021e-14,2.006894265634873e-08,-159.3587715268415,961403.6207749128,-122.57525941905114,-2.0159772137356935,5.709456173199435,0.16520126220719725,-0.014380667542230365,0.020294538763478115,1.733479335839949,7284.32429328317
4.787907377846018e-14,1.6569624444022534e-08,-147.1687217647216,962191.4047364992,-120.76895010936921,-1.847375810051574,5.169392162022791,0.15486733863098137,-0.011819874538946949,0.01683836152206557,1.620983296491696,5824.611099923794
4.904309877042867e-14,1.6848740494398474e-08,-148.51753319931717,959715.8316402963,-120.74407743675367,-1.8681351655560303,5.261949364262571,0.15560735827214037,-0.012113771058943472,0.0171744429597555,1.6280503579901986,5962.39259828316
4.90550478844839e-14,1.6889110239451064e-08,-148.51152020185702,954153.8469751634,-120.38115939821456,-1.8930011452184863,5.271982028067045,0.15505673849307627,-0.012105011003150316,0.01716382035954389,1.6222757810961645,5955.4430110719895
5.205097941777971e-14,1.9434375038758276e-08,-148.81050738599535,1173790.2040384596,-128.29623262937875,-1.916567498254382,6.470653164877489,0.1572338162285033,-0.013499130998579587,0.017634199975297294,1.6315277316184669,7218.4798023439425
5.653079121005965e-14,2.1183571917702748e-08,-153.15417962052393,1240914.1481219877,-131.61699246932434,-1.9992697486363535,7.158701039863744,0.16106178752130262,-0.014606122104228925,0.01866363137766536,1.6769210464598954,8127.738399925262
5.578121530883827e-14,2.1186727152902816e-08,-153.8547828056072,1270508.6401796897,-134.18784567414164,-1.9949946635736746,7.283426912075019,0.1630482728223304,-0.014367767035882195,0.018866579361796993,1.715088686470744,8197.2802236218
5.286270390165691e-14,1.9675695376164777e-08,-151.34957130065973,1191934.5115889083,-131.28864265791705,-1.998186299881073,6.666148495899781,0.15918743228075127,-0.013664309242815207,0.01828288243676458,1.6906503711098801,7458.360488670752
5.721265695889657e-14,2.2890993677584503e-08,-155.3942175465733,1402549.2068814873,-138.09288501831992,-2.096026876864132,8.218898010746504,0.16508409970845994,-0.015135277899911809,0.019312171187686383,1.711950730602418,9095.590666203976
5.4532765390246785e-14,2.237690285838982e-08,-153.1033299188368,1381540.5934488885,-135.1389673700927,-2.10487579619603,8.144924524293254,0.16220997711269614,-0.014338739583515099,0.01875971986843876,1.6755628590816432,8919.93491333143
4.7746716014135406e-14,2.1023533696891696e-08,-148.21582825466734,1331729.7250634793,-130.7163390589657,-2.0482469470202664,7.814935913174299,0.15537811162111714,-0.012460758930272238,0.018105111322181358,1.6580998936596822,8168.504957308191
4.3365654941890766e-14,2.0073401601859452e-08,-144.89046142675124,1312109.9854400442,-128.64593923318347,-1.9927291459237606,7.621391468871066,0.150850482372744,-0.011690041672951023,0.01737279644551288,1.6355805897073923,7594.5329087876335
4.1923689239827073e-14,1.9377329657937796e-08,-143.97293332118684,1294160.598212027,-128.79188871686512,-1.973935629153369,7.3842804527383885,0.15034476186874737,-0.011360941835712424,0.01705837603708834,1.640013154520088,7254.083425541822
-3.000470023700726e-12,-6.282968640082022e-07,1863.8765944653928,-1934514.6992266863,361.85234883695654,31.223517867912808,-75.37160796137644,-0.8163760596603595,0.49933954867514224,-0.46570451584105493,-1.1731391061542817,-315167.2801570022
-3.917972515266539e-12,-6.56899084215536e-07,1924.3641976849087,-1861322.4387184945,373.11368475504736,29.933286217998408,-67.52252883292248,-0.8261250395113946,0.6058010482264801,-0.5109172789313796,-1.2200373035984007,-328812.5265388078
-3.5667311196449098e-12,-5.566819025903703e-07,1871.2664030019912,-1540168.8145831916,354.3776465443696,26.669774433066365,-52.72960220164911,-0.798315569124805,0.532020924278997,-0.4835172500305312,-1.210531567043206,-257350.3601355148
-3.0906947505290946e-12,-4.783381336746879e-07,1760.1838505869614,-1403459.7800340785,345.1044795929224,23.506980668803674,-42.988179321104454,-0.7404012873772231,0.4894662607162298,-0.4466448136691402,-1.197547484846171,-202198.84968137214
-3.6222398108592315e-12,-5.599787551009083e-07,1844.1440390655875,-1558996.4656706727,358.29347330103633,24.925288220711366,-50.3993458153099,-0.7710943109736916,0.5727323274577045,-0.4927403810932644,-1.2254454490820166,-244612.77302502372
-3.47870486673498e-12,-5.533272144137862e-07,1838.849177799439,-1543564.7983312856,355.6198158290772,25.96984807379952,-49.80514259037162,-0.7685309112173153,0.5460856178793381,-0.49064201571068383,-1.2251508913081421,-241760.66185726263
-3.1848980887864735e-12,-5.180470684617211e-07,1807.617961432975,-1401849.0816841926,332.13234195639376,25.164789543271837,-46.45372012781858,-0.729409378774885,0.4651655432110376,-0.48081357165474864,-1.1883637721931437,-221480.29345873802
-3.227253809827151e-12,-5.473151610958803e-07,1800.9900400616616,-1530883.2711182262,339.1705044829851,25.007831950294207,-50.83773246502597,0.2987058517574362,-0.0014994451978529997,0.1008700946680736,3.670854687257551,-237563.5828818035
-2.876550016131072e-12,-4.3777022594877765e-07,1642.7249415873523,-1348912.1182479297,330.8537338877335,20.052966387407952,-36.093099091898196,0.26232245688199435,-0.0014524247925761609,0.0916782236956543,3.6208706450027055,-162828.00568527722
-2.751395192455931e-12,-4.1119343772407187e-07,1596.1672134206108,-1308196.7051698097,326.41847393306557,19.403899097255632,-33.242210334602504,0.2551620796738267,-0.0013918501868824787,0.08708873895557222,3.568383480466624,-152662.62977111866
-2.3274144180136126e-12,-3.774084786070281e-07,1541.665820202738,-1327461.227628426,325.843183956926,18.96571827963805,-31.751085802052234,0.2514097683910668,-0.0011623997614967692,0.0802347788017779,3.5374109264115003,-139872.12190643034
-2.0626957013610494e-12,-3.582700586065588e-07,1471.6673394778127,-1330298.0017089772,324.3991391440765,18.25476652038651,-29.802681655964527,0.243393990763981,-0.0010578490652446747,0.07525055698835134,3.497715387291162,-129443.42154497725
-1.8728225217471558e-12,-3.3985382083305754e-07,1420.7407119009667,-1324770.2452575387,323.5397807234744,17.77291016616752,-28.282463968590957,0.23686334252865,-0.000988386304817832,0.07172371042849676,3.4731118757789683,-120221.14630272595
-3.554044031484495e-12,-6.064183268946538e-07,1672.1122667678221,-1362925.5497137322,329.63331845759126,23.832232229460764,-41.77890753407283,0.2716047714342355,-0.001913276525040793,0.10969303003515493,3.825322147279248,-222201.4962907461
-3.3847376038223877e-12,-5.773376588094765e-07,1641.446369319574,-1322919.4797207385,324.7838709520308,23.27619736960684,-39.58586883743974,0.2667962429427438,-0.0018229054571845208,0.10624641912452004,3.7772373444752194,-207807.64791649077
-3.3048556462328507e-12,-5.741722167210549e-07,1632.0906601788686,-1237332.4460465496,311.50142260045857,22.43871714918815,-37.405667329480345,0.2555787690856286,-0.001786717471220628,0.10549996331844358,3.715430819193473,-192307.0092040164
-3.2409128654346888e-12,-5.771243418187689e-07,1617.3806754075651,-1246357.8259516389,310.2478002861464,22.074557859495997,-37.50127815124548,0.2549571044948777,-0.0017725801662821351,0.10468845471208717,3.690268462951097,-191178.13667550797
2.2138497888872743e-11,1.8220576236130617e-06,-1225.6417564367962,1426634.0369252034,-331.89982604813605,-21.172295344549426,85.403748724381,-0.3918248829381824,0.013337687688124615,-0.15137751880209513,-0.5611497280101791,854165.1141734617
2.086739297435945e-11,1.517954169768521e-06,-1135.065649524868,1283352.2876164722,-328.63067972157836,-16.935966626958397,62.97005320029988,-0.34945125006887195,0.013674202313002308,-0.13988797178615078,-0.558038544278828,623794.8194770018
1.8113943669566527e-11,1.423849569808974e-06,-1107.0656939527782,1281312.5318001688,-324.2372039562011,-16.67176685059305,61.379927345459514,-0.34786306492676866,0.011793928813952128,-0.1320100648111485,-0.5454803447361117,576202.0121710009
1.8085364291692394e-11,1.4594009996772986e-06,-1103.4483513552698,1349581.726882567,-327.9424538245521,-17.001527980846586,63.4791531751907,-0.3432149927132573,0.012060279050123822,-0.13078055553243614,-0.5408949822830926,587764.4097180906
2.3124828079651504e-11,1.452699261213956e-06,-1210.1160911038053,2267860.8373257704,-443.37732082450736,-24.303523226845964,128.08434916446933,-0.45784200313951295,0.013338035227913056,-0.19360413352919376,-0.6618779163116774,1364709.3732839825
2.184883356163127e-11,1.3653182403895007e-06,-1184.3938399944923,2181524.370242951,-438.10405607794405,-23.517667561333084,120.14795875921541,-0.4469436995456416,0.012713425877994363,-0.1860819705347116,-0.6586249374224243,1254632.828410821
2.6909762401601036e-11,1.5595845733447089e-06,-1210.8743234849294,2120530.5641073915,-441.98317246941076,-21.974397647736048,125.39199591382742,-0.46206686793770313,0.015735751926266636,-0.2073389120696146,-0.684484660075087,1373576.4079039085
2.6746498566968355e-11,1.5663944325513175e-06,-1206.13963947989,2112749.5424320363,-442.1086422179368,-21.822089008748346,121.76276976994072,-0.46236997568389715,0.015612486389968937,-0.20567373921642912,-0.6863985641400046,1338586.2608799536
3.264170624602626e-11,1.8083153849092505e-06,-1277.1234047214382,2187800.0106056063,-454.88204727359573,-23.274794118494793,136.60943588242972,-0.4795507880395473,0.019131905422254424,-0.22659004326798643,-0.7064556933741926,1596723.9165608797
3.736165453113354e-11,2.0429232284416226e-06,-1364.6432701270523,2284819.8749475926,-465.6457296329179,-25.192186982022488,155.13533423021497,-0.49778721880495624,0.021560406081599516,-0.2474041554800555,-0.7313899199809482,1890447.578704346
2.1119479705731483e-11,1.3509561308777783e-06,-1259.5884431734314,2257411.682577114,-454.38686266887584,-22.911442464739697,121.75507083969686,-0.4351593768118249,0.01312836597189173,-0.19300489103174923,-0.6872730894533937,1287801.3073733856
2.2750352429968342e-11,1.377990712121713e-06,-1248.7550474577247,2218675.063160826,-465.89827259553243,-22.366915965356586,121.00853754853453,-0.45966076148825846,0.013516158660995639,-0.19867780315616682,-0.7220791900483972,1253194.8149575284
2.2138445655837527e-11,1.3266457305878644e-06,-1243.0774537423615,2219280.513033859,-471.3004340466596,-21.765729231643228,116.43169571486295,-0.45636532391149065,0.013455343894278524,-0.19635351907466603,-0.7269328108929757,1196502.2131342187
2.1421081207106983e-11,1.2225865158857e-06,-1259.7743075342187,2179827.6755390856,-463.4887477004639,-27.387866099245322,107.50320206421074,-0.42805761459414365,0.012993132061354199,-0.19034609714577613,-0.6959471686259764,1183868.7041464334
2.5757574547256705e-11,1.4741871001380393e-06,-1316.1311209056626,2180246.134832437,-457.9386841259445,-29.754969532053266,122.27414660210151,-0.44369948932686687,0.01567019370038432,-0.21881961075257078,-0.7083983177490291,1450118.5969943088
2.6091904018430235e-11,1.4910668384696383e-06,-1323.3233170460971,2165827.157016982,-458.63331263860596,-29.65423086697179,122.50117976075508,-0.4417808591657945,0.01617924432565896,-0.22203587027527438,-0.7125300693122208,1462094.951788193
2.6050752109535122e-11,1.4800236831428308e-06,-1319.8498370055804,2194405.919423945,-465.47526898989247,-29.64512037923869,121.48583817408293,-0.44879819520761427,0.01652044508822104,-0.21878376264839097,-0.7157832783666056,1475648.9158345072
5.0477685225592016e-11,2.3354619529653456e-06,-1582.8288094265586,2355841.525778163,-472.7693782522204,-36.3524882940488,169.34214556769138,-0.4976278047923011,0.02541373419249498,-0.31849739970544827,-0.8062763821154452,2451247.4218891077
4.833711752946632e-11,2.2524022157197183e-06,-1547.7228773255322,2355389.8525229865,-472.9928634778969,-35.11682114850752,164.7327298796215,-0.49810557522401844,0.02408864597895445,-0.30826547521979464,-0.8039232931752311,2327474.163871728
4.271047271749464e-11,2.1874899129814012e-06,-1536.1825623195232,2390232.9141933806,-464.8005800184708,-35.52354991463168,166.5835890907418,-0.48620742458008087,0.021545449839369075,-0.29813438159722183,-0.7861257375766626,2283845.01017276
4.9828399058369215e-11,2.4457009077481645e-06,-1594.1815747800738,2388896.045889249,-469.2339703369824,-37.0482185004567,181.05107999017284,-0.5069300401072859,0.024623556293010697,-0.32409592347542554,-0.808641007368339,2583209.7185763787
4.775824527267442e-11,2.4080556979497607e-06,-1588.4654725575638,2364909.1620520833,-464.09810684806837,-37.133527590619764,180.05562126422524,-0.4992723142100955,0.023959071164105665,-0.320336523710284,-0.8000562536964396,2539621.913444297
5.122790899942128e-11,2.4577971251598305e-06,-1600.2913088787163,2276701.1237856117,-451.97931060627076,-37.56330027240977,176.43578343063228,-0.48476379556207,0.02556401876566574,-0.32717621693754173,-0.7853115597428858,2701603.1174149313
4.2573544065413474e-11,2.3859889782049076e-06,-1569.6972587597947,2256360.772795517,-428.4778959239798,-38.16351195381984,183.62843852314546,-0.4704594192185762,0.01978232100347317,-0.3192380281281313,-0.7632637808783158,2598741.244277494
4.127378984116475e-11,2.325079037844823e-06,-1550.6317466340745,2218995.6955441525,-425.4638269369957,-37.33531315497189,178.72033431132675,-0.4664859980188852,0.019186165155166603,-0.314056840123411,-0.7612473446890586,2519625.8786326745
3.643227871455519e-11,2.2118340274341912e-06,-1517.1782199796107,2157698.0031773164,-411.6045980355748,-35.471644922186684,173.35078666963383,-0.4464739584188774,0.017276604994084906,-0.3052963011344587,-0.7440990498436714,2369579.5971541735
4.028184000134981e-11,2.32982362472625e-06,-1527.6968797996344,2150607.429264988,-420.64045797701283,-35.83895245255286,178.93471777454798,-0.4748646593398065,0.01804979689417548,-0.31870178328521376,-0.7771947164181573,2443327.8412875333
4.571461203745948e-11,2.493584029120888e-06,-1563.829968545368,2188551.7505483744,-428.5272459026342,-37.00667818440424,189.52020873075102,-0.49303795041672066,0.01974125748773421,-0.3357439845533083,-0.7958637483385389,2647057.4502089475
4.317847972813026e-11,2.3865502773793125e-06,-1528.596370055067,2154796.4780391287,-422.3497002940444,-35.45557110594024,182.85118974687066,-0.48111953781069056,0.018885823681098524,-0.32442404366908556,-0.7809386233986273,2511648.603924989
4.233127963182525e-11,2.346100135696234e-06,-1501.8243048202232,2165600.0274431976,-421.8155418466142,-34.473531122622475,180.36577574300554,-0.4798125134641716,0.018466003563951634,-0.31575577322439075,-0.7745752815400734,2452205.4089908297
3.772056727974662e-11,2.2088241355707714e-06,-1485.1507109444522,2186345.6655854853,-418.8235957002687,-34.754599285902174,175.5331375233708,-0.46761734277199873,0.017099895140533592,-0.3026886091111232,-0.7563833635401658,2355399.777067473
6.90613366603824e-11,3.58693971819453e-06,-1816.7339960939992,2108293.2590539595,-419.8274499380163,-44.10463546484381,257.01616534517916,-0.507264610570637,0.029698323321583654,-0.4429767536645345,-0.8633003211130612,4133906.847848854
7.113870998333356e-11,3.6103386269177887e-06,-1828.0368441494509,2100483.9390789145,-417.5686706912342,-45.80623167795134,257.00446059041826,-0.2324149355473456,0.009073864001655376,-0.17804681612375872,-0.5672630674657924,4200803.177236907
6.343913567205355e-11,3.380859203462256e-06,-1817.0339068467908,2107326.8482430005,-412.08588935642086,-45.298336075913376,247.80463422205307,-0.2221027076116903,0.008439424809623695,-0.17075961232161668,-0.5517457528774008,3975878.4700576514
5.967586900882167e-11,3.1941910031585145e-06,-1784.789376574353,2086297.4090202432,-411.9402928152549,-44.0635523740578,235.23833801854212,-0.2195398739406619,0.008009001767603592,-0.1636521904681506,-0.5472404223762987,3652659.483658748
6.862879981406623e-10,3.2191537476947935e-05,-6259.926212995255,3517222.4778912985,-557.6382367157595,-156.90081577494786,1720.5710179691357,-0.6940871928719534,0.09215984096259316,-1.203841071040838,-1.2590888267937859,39626023.35125661
6.763667955424014e-10,3.221089960729664e-05,-6249.950805158868,3576160.6143966992,-563.4561561912889,-157.52404547687786,1750.082968728101,-0.7031756960442155,0.09084886494999729,-1.1982752915253347,-1.2686251849780927,39635282.00227032
7.459812750032886e-10,3.3316703307120886e-05,-6246.751721749336,3730084.1769373463,-586.279566444575,-155.62934097905801,1710.3680183840106,-0.726684590120405,0.10055540748355801,-1.1881278219406308,-1.3081563442105693,42316559.43853901
2.583151253918831e-10,1.75349351820222e-05,-5109.715580824515,3701175.432820222,-564.7806159305816,-124.06424088479753,1091.3030442486045,-0.6832070811991222,0.03419066442487627,-0.7536619748396336,-1.153486156287198,16402523.586908804
2.421668851554605e-10,1.6698511244372955e-05,-4998.050712248643,3589785.402203426,-549.4444117087834,-121.32339934313381,1039.6877904419193,-0.6605542027083438,0.031217007513273283,-0.7331761539283169,-1.1324572732646285,15521556.59904824
2.3265361359791846e-10,1.6322142295902055e-05,-4943.425328419587,3573503.8902073237,-542.9847564923871,-120.55545770914655,1027.2086097924252,-0.6515540992278149,0.02978243318505203,-0.7196584648813333,-1.1195073434233358,15233833.080648556
2.586495432593057e-10,1.71622010427164e-05,-5047.97853105295,3696313.3792472263,-557.517367722111,-123.64518688533224,1065.367957189414,-0.6768805390033623,0.03230824019888019,-0.7464087828739799,-1.1381061582886054,16140712.038318817
3.1123263323523934e-10,1.8999407530360744e-05,-5282.807661879379,3824516.36502593,-578.6328594708586,-130.03348874539677,1136.4057982535876,-0.7200985950918618,0.03785674417716897,-0.8056605136292061,-1.179840958226965,18266934.526047032
3.546021319875636e-10,2.108181500965563e-05,-5455.736733315758,3785471.9792648796,-577.389199349138,-135.87930108111422,1224.2558448479754,-0.7271517926329455,0.04330742329885353,-0.8676465083537788,-1.2015675552009166,20755440.18295372
4.0037519822358557e-10,2.3292506337296886e-05,-5585.849526385087,3824385.9080165476,-583.536047939916,-135.3073618268818,1301.6360362212415,-0.7476705459772134,0.0490899005917714,-0.9242653166095841,-1.2332840130169613,23514694.78135819
4.1648984207093785e-10,2.439056241088741e-05,-5702.793991851532,3949069.5169068137,-589.4828270230257,-138.84998346892365,1373.278244960856,-0.7598904389891843,0.04987041176248739,-0.9518542936867282,-1.2457421853855537,24727616.33289874
4.2180162248009583e-10,2.4392139643041586e-05,-5686.029035356442,3887948.392956943,-588.5850973271738,-137.48185217254704,1357.8823192843536,-0.7652822611247352,0.05067751097497604,-0.9529215409276934,-1.2453176542552307,24499069.32207197
4.092689159916193e-10,2.4093149431118153e-05,-5657.293235047529,3889017.1447079903,-587.5412815942933,-137.24790844709364,1348.4940213116042,-0.7609502579490198,0.04929136616887304,-0.9424841246563672,-1.240641273217597,24125407.414572783
3.76220201596866e-10,2.3034560927344337e-05,-5542.3871754735865,3845051.5881300247,-580.4555518253562,-133.96288551811534,1306.3081841463215,-0.746635692629308,0.04614973942742771,-0.9055869579874368,-1.221669192061943,22398475.38577907
3.2426795581209056e-10,2.1050891275196347e-05,-5424.183080560549,3857804.117315521,-580.6265557852323,-138.12783091245151,1226.909815238466,-0.7319685586017376,0.04093042377466663,-0.8445991665657938,-1.2041135870928497,19987366.984557655
2.705947173647844e-10,1.803286052011118e-05,-5227.720299909337,3787487.326869235,-579.38546940286,-132.40995443489928,1094.7748450615052,-0.7049354846503991,0.03414855916237893,-0.7551674871950188,-1.1886991995040939,16602953.265507797
2.696713920369075e-10,1.8608117307610198e-05,-5212.142615688583,3690616.067093072,-572.7208209070361,-131.04682090472218,1114.887338719189,-0.7034065220542396,0.036661891151070734,-0.7599732795789972,-1.1730526269712866,17352682.89387248
3.0406588288637485e-10,2.014875535368886e-05,-5316.563457630745,3720905.107735001,-573.1932777745892,-133.78355283352235,1174.5440736803655,-0.7159695635583526,0.039942303726170685,-0.7988573312656211,-1.1822005605821517,18934945.881134488
3.3670817154221723e-10,2.1717518513591878e-05,-5458.3423313957355,3748253.2692935187,-579.2484738537981,-137.6156503908818,1226.3709044729683,-0.7343777851521043,0.04356771239807437,-0.8421780621144298,-1.2097624832904796,20512665.34851653
3.3543395087141716e-10,2.1745384444871085e-05,-5465.3831905359575,3727716.635874848,-579.1265830972795,-136.69795511845348,1215.8297624294562,-0.7352901138696368,0.04356447018626206,-0.8400407730441964,-1.2103995933587623,20044232.94031658
3.2895437322386444e-10,2.32765043036501e-05,-5444.635844733404,2851040.0660851505,-515.9714169517804,-110.75697794893293,766.6116428923754,0.36301778037008303,1.5339224543094074,1.0608680919748879,0.6102036322725143,10608383.003431987
3.295274139749179e-10,2.3204395879436085e-05,-5418.044086623521,2835698.9921909515,-516.5641422571634,-109.98795100083333,751.9685487046431,0.3611298288608135,1.55035154682976,1.0534919943358398,0.6125066133871163,10586322.941968549
3.309549221386669e-10,2.3238987322295884e-05,-5369.47554670271,2743012.9267672114,-508.69926138385676,-107.7076001972823,721.8137767472268,0.35689269437505833,1.579735057179687,1.0387377894947123,0.6073141453214939,10316579.937100051
3.418667677847325e-10,2.3354027693800737e-05,-5364.032762632877,2732092.0186997303,-508.66738644924925,-108.56682017618735,736.5696092654548,0.3607327354334853,1.6150705645544474,1.0594809124017244,0.6091869901739612,10830522.089547945
3.5362949618370013e-10,2.4704364571471918e-05,-5433.648911783366,2846802.441886893,-515.3934021610266,-109.64453180293944,783.8652548788823,0.3651333266044645,1.6767387773481814,1.083486023082878,0.6126958973954741,11564419.9345364
4.5551191632536623e-10,2.6274554881201286e-05,-5505.2601125510855,2753799.066114739,-530.6921966869967,-101.90449153313044,762.4430641829016,0.3893052873963877,2.149192771513624,1.1256462168095176,0.625507809687301,13365842.949826235
4.1405912771142075e-10,2.5130108032706538e-05,-4703.761359497007,2120830.100645828,-455.2760741522135,123.73999951443933,654.6087716698939,0.37276949383548375,1.809770689951965,1.1024607765508874,0.6158901084867201,9228962.110228624
4.257583588945839e-10,2.8432455606349555e-05,-4674.257020299665,2485626.1184289204,-475.9769366808863,124.34264499287548,783.3184311532824,0.37790783988168813,1.9717581427072888,1.1159256909269069,0.6132281170123518,10839107.574028963
4.3202783612400246e-10,2.8193562208657615e-05,-4701.317367615711,2350050.898656374,-469.93986838489394,131.4753949133924,757.693882270212,0.3800651704119283,1.977814852886823,1.1171574352038267,0.6136773736787811,10536358.68084915
4.704769652616127e-10,3.1682952479675554e-05,-4778.64709940517,2614339.0269006,-484.4974338931479,133.63722107343486,871.617635471023,0.38389062000595614,2.1825775299103025,1.1643915199001262,0.6156825163410682,12097361.211747658
4.592758137653842e-10,3.40293927948206e-05,-4773.219855767811,3010468.0998488455,-500.89793150294196,130.3597548575448,1000.784910334545,0.38098124486931734,2.2190269452674154,1.1727487160546202,0.6129508777174659,13195953.996341169
4.4949282233393447e-10,3.3550286427773497e-05,-4714.997637231997,3033307.766857684,-499.5715144468237,129.2700716867569,1002.3995190030606,0.37788295634358704,2.1827528877759517,1.157590095145912,0.6085052157439849,13222462.767696027
4.351394633220142e-10,3.288980097861821e-05,-4651.3240788997955,2990466.443332851,-493.97849654911516,127.93385621862473,983.9312546758222,0.372702351339288,2.1236114105955624,1.13851229979676,0.6033361329027354,12886334.913047347
4.1786242236845267e-10,3.199813825030838e-05,-4569.505804605338,2954095.1545085455,-487.58309407672874,128.21338799771016,959.0459276299985,0.36405821369521685,2.0725664579142613,1.1068115548092825,0.5924152086841288,12557863.263318028
4.0537090207971657e-10,3.158457040780544e-05,-4577.784166174551,2969238.46663156,-487.7412193190325,137.83072225239454,957.9985594354878,0.36197457675373407,2.0013648546475316,1.0968811461064845,0.5915610740787113,12307686.012324136
3.941078140848748e-10,3.0721646227439114e-05,-4540.661973680727,2936822.175020177,-484.87016947519504,132.9147756699368,944.339597152031,0.35852546812371383,1.963474189872927,1.0809174688261132,0.5881035842662555,12116494.627882108
3.9246213270443474e-10,3.0169353795300445e-05,-4459.443677404856,2788706.378929671,-469.30111978176814,131.15479519463105,920.8955973981681,0.34995353829776815,1.945332567022246,1.058948863409024,0.5709020257318316,11852375.368988207
4.098913281628185e-10,3.1257716765111906e-05,-4432.72570117929,2811437.875093223,-464.5302920385982,130.17662815149612,944.8006833120819,0.34684917152143746,1.9847671123251993,1.0659574801588407,0.566171641476579,12241909.770721752
3.911525811325264e-10,3.037744170287783e-05,-4388.460630172284,2763776.972238242,-459.9771671138743,128.29070801264882,926.0606304760302,0.34410714246224117,1.8989787032825736,1.0488450920727694,0.5625789527983922,11781672.028523106
3.90198192200312e-10,3.0366888196539307e-05,-4401.423570328606,2718843.741449545,-453.07982238473164,141.59814280926176,927.9512906454614,0.3403568681425425,1.8733714548187301,1.048503951764664,0.5564242426700762,11714177.107751176
4.452216224490042e-10,3.224377679581951e-05,-4610.453300458388,2856235.9188202857,-471.4642778470723,148.61637449189857,998.6441539127356,0.3592819428460195,2.1038609621129996,1.1077373743592436,0.5703973049363198,12979354.987392563
4.2281443435016155e-10,3.209646375075051e-05,-4600.355132152912,2912733.217147377,-476.1159007222888,148.347391276522,1006.0316929785165,0.35828250621077207,2.0333267813386966,1.1001728860045736,0.574903511005565,12699998.151647702
3.7363726940129107e-10,3.0217527953028767e-05,-4449.743345621948,2855364.1973147476,-466.2589532044983,142.92339533989366,964.1300275234237,0.3450873752380746,1.8516134966216569,1.0433009760262169,0.5624205568681557,11673161.894254027
3.5769392101615144e-10,2.977543600147638e-05,-4475.9724078471645,2923029.830245698,-470.6967246473585,143.94274260232328,971.4684092808759,0.3437799729720003,1.8061812049273185,1.033958734682128,0.5635344313009293,11433363.894439893
1.551801391438721e-10,1.953824486730464e-05,-3965.5023405023003,2765704.994128964,-463.24519563299447,122.97521647982983,752.8020521687005,0.3203254900540391,1.2428205357974396,0.7604001788288577,0.5220586908298852,7474963.3352167895
1.6370468621032429e-10,2.0010640102877302e-05,-3984.4578845538977,2763928.9799491507,-460.9458839945025,122.45397766306489,768.4888861536355,0.32062946216647464,1.2832399086350466,0.7755902220030841,0.5220658468138041,7759176.971625028
1.5766394544919578e-10,1.941527853119323e-05,-3931.9300239668896,2707178.591290668,-451.7290459106423,120.59759657322503,758.2549903849881,0.31401152857830367,1.2318564862626626,0.7586584253705037,0.512198539408667,7519546.666914051
1.669423907733904e-10,2.0077652189240074e-05,-3996.363642957615,2778795.2413121928,-464.2896486610976,120.94367761149248,776.4614218177742,0.3235915081115088,1.3158612173177975,0.7776365848620665,0.5223233732248741,7900100.555541424
1.6334086275429594e-10,1.9941549916836695e-05,-3974.268506926215,2718632.6340963473,-457.60672826140984,119.71621301029381,768.50005373556,0.3196101104358175,1.290506947194351,0.7698886526958959,0.5177689836621263,7703307.796972652
4.758566974439736e-10,3.8782474434400595e-05,-5668.142545465857,4517409.548362153,-739.4401002211821,170.6578003558463,1361.2974395736387,0.5488868811250323,4.035067892472076,1.1712045668258417,0.6626191887984715,17312840.93771756
4.466769500808184e-10,3.747115775166319e-05,-5602.90445478871,4493817.639415209,-730.1836515518156,171.58890079331994,1339.7767641445596,0.5349168135681311,3.8381801276416687,1.1414058919926326,0.6506199325320772,16694931.268521354
5.329342954357975e-10,4.0830846997417834e-05,-5885.7254221851945,4788426.342686488,-775.4235853223182,190.43574054014135,1437.5874958262484,0.5745016567727246,4.619207466823846,1.204105489158544,0.6673345747933317,18824724.16868439
4.914479879854669e-10,3.9047634382950916e-05,-5706.43713468591,4614266.485299253,-749.5193599678006,184.12188924604501,1380.5724992100972,0.5528939328833242,4.273929381848826,1.1610385230906517,0.6506666024153412,17785954.049067855
4.863413351133325e-10,3.881427717911033e-05,-5637.411667683563,4566647.636725542,-743.1468206880877,170.55209753932738,1368.2457791626534,0.547098253424761,4.267499959772171,1.143924205944039,0.645065537168275,17637221.170578532
4.5919069267722404e-10,3.7628362277462064e-05,-5532.675547114674,4502572.285416021,-733.5868747343768,164.41847062580493,1338.1671310371353,0.5382698115585735,4.102980484362579,1.1055700272163014,0.6351883229076626,16684801.256842
5.221401799257108e-10,4.020016186842356e-05,-5601.140227311453,4483361.961868377,-739.9563596265256,167.65584920724635,1370.1601232671524,0.55495611417082,4.507520713972874,1.1672907688875718,0.6471894472403135,18347635.598464943
5.376392157252358e-10,4.0327982038559496e-05,-5536.620925212892,4356192.780894663,-728.9521256395722,154.79615958531718,1351.0050493354602,0.5535230531822378,4.575706922464943,1.1712775784631857,0.6416148852770047,18859030.92331885
5.224685380790079e-10,3.9750507704532235e-05,-5359.949222255609,4204458.72831026,-702.5598564882644,138.78335144374893,1294.3470884166709,0.5314202255398941,4.390689272686103,1.1374893907384818,0.6276966740612537,18177475.67712843
7.115417357666315e-10,4.1030218790815453e-05,-4824.603047336479,7867661.077639132,-973.7646519558829,-298.9307458710989,3239.2620817486886,-0.08671380544963607,1.3497286398822934,0.11218623532974949,0.059088968586680585,49478013.85584542
7.112401087256022e-10,4.155320144716113e-05,-4875.966108705351,8048813.40686048,-991.9058209772916,-307.3966708028646,3326.919174673569,-0.08835201314274295,1.356537443891747,0.11306243084674619,0.060023171602362375,49724042.543759584
6.917649306067278e-10,4.1453789155434384e-05,-4731.360523574808,7849225.474343114,-970.3250120090224,-299.80044694645784,3252.0627650302495,-0.08619119544950712,1.337280625714617,0.11011392923815783,0.058790845715163985,48712261.56878862
6.921586063308563e-10,4.063852150317411e-05,-4622.837711673197,7240902.077320549,-934.9594718268553,-291.65662813769586,3134.1485422949004,-0.08507993923357225,1.3325255958393771,0.10692389766968026,0.05687301494019337,47515615.871197484
6.899684812677263e-10,4.120333947194954e-05,-4447.832297885718,7131689.233679068,-909.8751843734321,-287.0493648319914,3144.181181049739,-0.0826864435160715,1.3464146561263217,0.10313441299990399,0.054780493426719375,47949040.64229441
6.639286652369428e-10,4.139836317889078e-05,-4459.799027498783,7369740.619296647,-929.4117608645786,-287.1665504882779,3190.5789714495704,-0.08374090628454958,1.3021703989392561,0.10374351829967167,0.05612839327646544,47059729.569445595
8.156043278118095e-10,4.13770806882431e-05,-5374.342210787269,7619671.754355688,-969.77932609035,-326.6787931551445,3774.872006835811,-0.0948475980378143,1.4539806810498621,0.11615790251150268,0.05816286025281881,49299773.83621485
9.211779610597076e-10,4.4186190006493876e-05,-5534.196785875967,7668949.7155587785,-978.5112216859873,-339.5218434558139,3854.5821857700876,-0.09716214267769413,1.578973953060235,0.12267715220598209,0.05908227387338522,53920362.3426839
8.751421260515506e-10,4.329470886939191e-05,-5507.920366895765,7670760.586939088,-976.237385563942,-339.5193805942191,3862.59775617883,-0.09610185454381968,1.5132544780573305,0.12064919822131377,0.058756162410047066,51566217.04361225
9.425065028902667e-10,4.555135180402266e-05,-5777.413285738234,7996440.093626015,-1010.9902705971348,-353.4744954479811,4045.7353192784803,-0.10022424345830039,1.5750709171063426,0.1278990561031769,0.061064742114085226,54460308.08284403
9.398307797829805e-10,4.60401827676014e-05,-6035.261118660954,8558406.007033156,-1061.686450087612,-371.3224190083232,4156.15499445888,-0.10331494231024752,1.576486603579601,0.13171547335808884,0.06425955334837964,54864411.750091255
8.722385676140269e-10,4.47738008004829e-05,-5932.241985998542,8787100.385293573,-1068.1061389803904,-369.20327065598883,4116.296729293163,-0.10171591876158415,1.4884374662262176,0.12885681719313485,0.06444977668281482,53452794.05492556
9.017656275569578e-10,4.390557923974708e-05,-6103.1448359092365,8571206.536501193,-1049.1835288839327,-391.5427230160841,4137.862170113451,-0.10142988630423967,1.4908098223987418,0.12949165620645237,0.06307323811832806,53079610.91528062
1.0736545884065924e-09,4.818277377967621e-05,-6550.123072365262,9587322.496029517,-1203.5759815729305,-406.86987544902814,4364.138576651503,-0.11911938913100417,1.7687629873601127,0.14448196823451787,0.07169299634979459,64218690.29471133
1.0611249453185214e-09,4.77135119819837e-05,-6747.515933184862,9761461.003942164,-1223.4147070279946,-411.96745923730214,4421.595512362567,-0.12072966415306018,1.7616924004022707,0.14553846837617207,0.07265202781027598,63612908.86145307
8.941297780775032e-10,4.3081169805747286e-05,-6864.993220428931,9825019.376561295,-1162.819321886374,-409.9503088819348,4173.39944079351,-0.10481730871384627,1.6338938571606572,0.13793545046753194,0.06661455495489142,62806605.04574459
9.052451211683264e-10,4.333468901244347e-05,-6910.48835496449,9973345.368514787,-1173.550627979854,-416.25164917835554,4208.958851592712,-0.10542389143153746,1.651953095710122,0.13967417211933367,0.06713375945462466,64641329.57953321
8.919770676050784e-10,4.2664506848360086e-05,-6895.388396857391,9720413.25202004,-1167.8266953671587,-405.84770652836016,4075.1883837680125,-0.10543142768000097,1.6475355581351114,0.13786480567975865,0.06728724530313389,62447707.137019224
1.2711098891449878e-09,4.708473877563933e-05,-7627.657373213143,16074045.038002443,-1573.894468303905,-596.861242144323,8039.776216094519,-0.14294094708725572,2.049307229823589,0.2068938873431307,0.08201405966328947,149251562.3464628
1.1893211995338845e-09,4.522746846597518e-05,-7498.045012026894,15094792.251186064,-1481.0925098322814,-585.695272424879,7542.738824135569,-0.1313685108809962,1.9883643858482474,0.19731310802785634,0.07678409920611799,141495049.88468906
1.1297884153514454e-09,4.369456134833699e-05,-7337.639315763526,14613821.567180904,-1452.0678842405698,-554.3647930061272,7175.399474881313,-0.12839825209125433,1.923217214158919,0.19023352387758416,0.07483616723722804,134099694.19296475
1.2007338778289282e-09,5.268241999075322e-05,-7035.6367082185625,3561517.2425179495,-896.0081839059185,-303.35668441702114,-216.0114569216648,0.27895489809245705,-0.18398960628793448,0.22389827025912445,0.6242603622175382,-41091121.51727487
1.0901741098403451e-09,4.987889768525924e-05,-6825.673329013295,3417811.395325215,-863.8842235210599,-293.8981074417092,-208.87593926873936,0.26761038452798624,-0.16910682569499455,0.21317050708067992,0.6031212518439734,-37354998.528899804
9.327127487015157e-10,4.830351449278805e-05,-7101.564979219995,3828888.434484779,-955.014214002367,-284.5045598754611,-217.6563636640779,0.2890729066128185,-0.1615046207817301,0.21211764840578212,0.6572455817939996,-36115481.020875126
9.212482434293304e-10,4.765705828578241e-05,-7206.698347136134,3845100.549005988,-964.9447232222102,-303.1678708616278,-218.43519126715057,0.2929741617844338,-0.15923650652802565,0.2138431053363,0.6678715654043821,-35826526.80460231
9.532157177483076e-10,4.801302054227504e-05,-7225.2461682645235,3731349.4617418493,-957.3146067774176,-307.9904613305411,-213.26954743061836,0.2941024174720648,-0.1572199973204513,0.21606856178545897,0.6724005545654995,-35913833.47754432
1.0321836039777848e-09,5.145982894756025e-05,-7271.278167119092,3829214.1432063724,-966.3350579960994,-310.7838971998454,-226.92629323064565,0.29842441311566736,-0.17294990136295754,0.22110123049335956,0.6690398588444528,-38894199.8757922
9.884616640856515e-10,5.044779371358044e-05,-6926.885102167258,3514223.227617149,-915.7080910144559,-294.32182258900673,-218.34607020171825,0.28740116369631385,-0.166945574011966,0.21065422103186943,0.6388659584367774,-37012429.04210034
9.55828654307876e-10,5.026521129265133e-05,-6692.939333370759,3388019.3332170015,-880.3252197826773,-284.4128379620411,-216.8413544412969,0.2769646979802042,-0.16136684640826354,0.20360763595036563,0.6159782446472096,-35868146.323285185
1.0132894053029601e-09,5.229963287856663e-05,-6569.344597711058,3253450.8652903656,-871.7185119102436,-279.04767550260834,-219.48938776417566,0.2794948183100477,-0.17160719132537447,0.20323021184712192,0.6065256469109923,-37599303.44684117
7.998731521956375e-10,4.208234062510815e-05,-7584.486049957063,4329508.554916356,-1040.7958146206313,-325.7300444325173,-222.959399509625,0.3054744099388433,-0.1447899098219977,0.21963299114043167,0.7046243256617067,-37145706.65066139
7.429951797625272e-10,4.050653598669895e-05,-7529.848788462005,4406991.966273916,-1038.846828888684,-319.32032692165683,-222.04706889105103,0.30014282479932664,-0.137446309825415,0.2125695986341912,0.697230533373022,-34599789.04212285
6.551297237304938e-10,3.7943344173244564e-05,-7320.874262018829,4266661.314045503,-1001.9186494447215,-301.59827987233547,-215.54731269059883,0.28702375747643744,-0.12438514361614185,0.2008740375480712,0.6754187341371571,-30932545.134549156
6.457661511012507e-10,3.7329434579062834e-05,-7158.419548822017,4152471.237579545,-975.9672056143991,-297.76119199570184,-211.5980854813776,0.2788419995313159,-0.1217845299811689,0.19561188737478288,0.6569484821264302,-30096133.99164618
-5.128356799230668e-10,7.3834416702733656e-06,1613.717731327763,-4060343.7101340117,1335.5382035976277,-171.72895599516374,-118.87208130096904,-0.42167019839980624,0.1684966960389576,-0.11002117464159311,-0.7292543352521899,69776784.08842134
-5.137403122397879e-10,7.4428614248985395e-06,1632.5652545900236,-4119001.5534829334,1349.051045016179,-173.369370524426,-121.07452626146235,-0.42679909604278127,0.16699456328265724,-0.11144852451880181,-0.7371870866041168,68743267.18182075
-5.180505082192512e-10,7.436486353251332e-06,1656.7904386378088,-4226149.030128481,1378.4631905578071,-174.94637549088475,-122.64785250463736,-0.4342909323264077,0.16855229337440358,-0.11297961193701449,-0.7499753691159476,70105001.36732297
-4.732782718119775e-10,7.099312598346922e-06,1604.7891204266907,-3988940.0585721,1288.6251619290588,-169.8908633009663,-121.48868893479765,-0.40339365972913716,0.1523625399795164,-0.10700692745720042,-0.7062318095437375,60598176.18645864
-4.785146916621047e-10,6.979992773967911e-06,1588.4324612324647,-3938512.734643036,1271.0422989562014,-166.36905926111803,-119.59568559190144,-0.3993883331791738,0.1498611075913388,-0.1056834168900209,-0.6970839786665238,59688823.164660305
-4.749211939183217e-10,6.914914028537731e-06,1580.9357679492105,-3919970.099325464,1292.781160059338,-163.155821891257,-117.35677577483764,-0.4088584843841324,0.15057088867912405,-0.10490509049962997,-0.7055217001776175,60293939.553934686
-5.013107189702809e-10,7.207845966372295e-06,1566.3649563580086,-3778906.299095547,1237.188527129217,-165.07166406443318,-123.040330369863,-0.3931783497324526,0.1583551037242319,-0.10667421258680489,-0.6797152632491806,61508105.18821985
-6.206587313825643e-10,7.633240577290641e-06,1590.195224729848,-3720740.137726871,1268.0281701244908,-172.13866757569974,-122.87257736881241,0.6561938305382238,-0.33872134185515507,0.124297576997738,1.429472460540489,72858122.20557858
-5.298558963046481e-10,6.969543278765192e-06,1396.0890251528529,-3075013.896632677,1135.0665972883698,-148.8451421507798,-110.17683664503225,0.5973253719628133,-0.30358442072159436,0.10529892505301057,1.2692921657323664,61093745.39894936
-4.568952730274459e-10,6.138561407407171e-06,1325.5277140899395,-2901491.7317894218,1080.12768350905,-139.83330270376095,-105.16009119167896,0.5626024864102368,-0.2623771451547076,0.09650366665543919,1.1992327370412783,53073725.818365686
1.7068080982628186e-09,-8.105516185855349e-05,490.2107546258394,-1730170.5329318694,811.706467232768,242.03260654237226,-70.02559860286398,-0.5754544723469194,1.5975652854238969,-0.2211777388053616,-1.0812652838200945,-173783292.24782848
1.4881836024100106e-09,-8.194828729708538e-05,375.767019909504,-1068370.5287441951,631.1409590858509,179.7457842485216,-60.52179169339354,-0.492151705000226,1.5151290368392396,-0.16701438278318115,-0.8455411173662927,-135820033.3628471
1.5957640348790056e-09,-8.636325210706754e-05,384.85382850145663,-1101681.295474973,655.5281194137928,179.056579895362,-61.645629106097104,-0.515101204725855,1.6245791415398154,-0.17457396081464907,-0.8794555331902469,-146523540.14334455
1.6091348899245486e-09,-8.772106871292146e-05,389.8611907066828,-1129531.0584693467,662.7915488838617,182.50848193693528,-62.48614534391584,-0.5179971148540365,1.6498923892067765,-0.17760959947225632,-0.8913393662566619,-150483423.98792386
1.39038835471598e-09,-8.203336775052015e-05,367.7984217321456,-1048494.5752285223,625.7550303879555,185.15787297123353,-58.645554963683956,-0.48643445298563126,1.4989215967008434,-0.16273418812390686,-0.8433671264216833,-133525570.00618914
1.5141258498095817e-09,-8.875998850727497e-05,411.26770698552986,-1290451.7637083621,727.8902470096324,203.3565378893624,-65.26031397228195,-0.5546300286136787,1.677025308667698,-0.18602782030375373,-0.9717210539086371,-162364673.49131444
1.0038891363058137e-09,-7.684397043507327e-05,385.0251965538012,-1267339.1368822872,695.5683469194616,184.52975798420118,-63.056613913836564,-0.5091788974916236,1.2961983289147496,-0.16198855238458687,-0.9315026551836745,-122372872.17999418
1.0123874086613909e-09,-7.878706560943956e-05,400.3447546836022,-1361546.5315849355,748.9943575318306,185.03133212028717,-65.21562075173952,-0.5476206441940801,1.3718749502746612,-0.16902788970662336,-0.9978215009845908,-131745297.8399441
1.1162918175256421e-09,-8.14713008744024e-05,413.03322731656755,-1402203.4463730499,775.8338528333948,190.33609650509337,-66.45641492317763,-0.570907289210971,1.465132916060063,-0.176572209967075,-1.0293613975779239,-142155245.4807498
1.1080996970634096e-09,-8.080028436166398e-05,407.9859452638676,-1358133.3081043018,759.3955972404963,191.3554924543513,-65.01863314334989,-0.5607751947409153,1.4340010514605332,-0.1752039737095049,-1.0117126568942774,-139982470.45233202
8.137656769938629e-10,-7.137511254444056e-05,391.8645827189364,-1316723.4287725005,729.7294820216063,182.35671810007014,-62.03978732768196,-0.5297256812191689,1.105210128821714,-0.16295372510742528,-0.9978241201516609,-117359016.41365775
8.108456477247391e-10,-7.089795267851451e-05,395.35625493012924,-1339375.6012428466,743.8153923923611,188.63045444583503,-61.923555779818095,-0.537830802643886,1.099326452940884,-0.16342056439093502,-1.011478002796319,-117404233.12087443
8.277530459639571e-10,-7.127134078121447e-05,394.0621989110635,-1312517.722335386,733.3144330515556,183.80861662994246,-61.245609672146294,-0.5342907152900079,1.077059535433499,-0.16389998206478054,-1.0001339706942127,-114801095.72243479
7.49539855348063e-10,-6.78620252118486e-05,387.56088172270535,-1328559.1472817592,740.9504446670833,180.46185626084116,-60.08599390475957,-0.5316588795402699,1.0147723499222152,-0.15714301625189042,-1.0040303336561276,-106372483.21829821
8.206360230426988e-10,-7.163932943970697e-05,390.4092772878227,-1311621.6409853927,727.24287760962,187.66252342865727,-62.167076780066154,-0.5248982060264451,1.080026189523577,-0.16187565210929053,-0.990658376880976,-111970086.46996804
