MSCI EM Vol,Oil Vol,JPY,GTGBP3MO Corp,GTDEM3MO Corp,China Economic Activity Surprise,US Recession Probability in 1 year,US Monetary Policy Uncertainty,US Economic Policy Uncertainty,EU Economic Policy Uncertainty,China Economic Policy Uncertainty,University of Michigan Consumer Sentiment
-0.7416266872671237,1.9053111051340674,-10.087742297827443,6143660.155546741,-119.00721297016536,-0.31095903076860887,-13.779356131905773,-0.4556128962515014,0.07087007131586909,0.6059996188680719,0.8388319748614753,0.8876464600569267
-8.851021736536021e-13,-9.057899351787705e-09,-9.507299850790428,6143660.528866312,-121.82764454731768,0.0983600642417099,-13.360307220618209,0.13114937253404008,-0.5351205339465861,-1.0652719558730952,-0.7131933650828822,2.203683572668307
-8.25545245551503e-13,-8.596876645380986e-09,-9.2559496687276,6040752.481205011,-119.1713856259054,0.0954890454358854,-12.869951374982934,0.010684058368368677,-0.5358809636784215,-1.218862236472815,-0.8076190441099672,1.5029313462152043
-6.892929676388109e-13,-7.458046862029088e-09,-8.69840952909541,5838557.116208829,-114.40872652600993,0.08830985411499613,-11.33065174341952,0.008880126191825977,-0.480104245449464,-1.1519297413736742,-0.7804611912390447,1.3762450470474707
-6.820902805062318e-13,-7.446317573417748e-09,-8.641939585491974,5784762.32112757,-113.33942214623445,0.08724593423073991,-11.346402493235777,0.008790086299052691,-0.47959635739161954,-1.1412422894621437,-0.7765474219496686,1.3712832826657755
-5.762150996841785e-13,-6.490088223162527e-09,-8.261111674040917,5849771.915976392,-113.44903194553457,0.0820722003197375,-10.213419148447384,0.0074506139862202045,-0.43617820544478364,-1.1131019792407633,-0.7871126735117564,1.2852069905909385
-5.875808166641865e-13,-6.525672706180726e-09,-8.286245694001998,5876457.066019053,-113.97340714966151,0.08232437000074454,-10.229018347578126,0.007587784000863645,-0.4370301622957859,-1.1192415295899933,-0.7904567832123105,1.2918224026404244
-5.794108247477903e-13,-6.462036692942263e-09,-8.322918211041229,5989504.349866884,-115.54102430565604,0.08302299989306118,-10.396808517727557,0.007513397062853156,-0.4389083521582736,-1.1275629164560237,-0.7984608242996867,1.2873774961223179
-5.722953259933774e-13,-6.430309362031798e-09,-8.31370108704332,5984578.521966394,-115.42920343135917,0.08301679827529257,-10.403620915926263,0.007451428884704677,-0.4383167597853955,-1.1285101168138227,-0.7902761896065936,1.271727540136086
-5.854888603291273e-13,-6.50452116075444e-09,-8.338958867474442,5911022.74890389,-114.44257524314422,0.08349602282138373,-10.548136275334741,0.007559371568894357,-0.44441321047973736,-1.1247846058104471,-0.7862383999277097,1.2842004285766082
-5.678155317577495e-13,-6.276186996563852e-09,-8.238943057889195,5976298.786869572,-114.26327494297414,0.0832612892751309,-10.592279449047675,0.007246047821418536,-0.43986312653429027,-1.1161264364238976,-0.7804440596957025,1.2613615422466333
-5.061755941366981e-13,-5.78384947958382e-09,-7.970038034582502,5944618.473266467,-113.1209994918767,0.07971417224204812,-9.961268008411693,0.006505334659149501,-0.4137715465654297,-1.0921223617991116,-0.7666634618468197,1.1885295829474731
-4.188015253417666e-13,-5.088276024020233e-09,-7.6399105410405665,5867104.710635427,-111.3887633518894,0.07532494636532965,-9.140477195222232,0.005471317955049094,-0.379543247648632,-1.0585805135669482,-0.7504723012524159,1.086544753589951
-3.786401425344166e-13,-4.712043484026945e-09,-7.403251828361542,5834124.549988206,-109.97974408991173,0.07273024155608274,-8.73911564704207,0.0049791804627597825,-0.36023435655637753,-1.0359360262851092,-0.7384723112781465,1.029869920306545
-4.915971538495623e-13,-5.725608492670979e-09,-8.004843491231423,5884619.711852723,-112.12694364767283,0.08025181663355517,-10.172520123987162,0.006385803390745638,-0.4154555906230679,-1.0880859332668584,-0.7537873631386879,1.1865619885118461
-5.530484940609792e-13,-6.153418970303081e-09,-8.25765585589024,5899991.326912803,-112.9950899556086,0.0836350256498721,-10.763979929287048,0.007067486925387429,-0.44114631838629625,-1.1107042311534487,-0.7721309920297499,1.2668401902803366
-5.390237647684724e-13,-6.036933888936451e-09,-8.249976538098343,5906850.026988131,-113.60268552710045,0.08267920419624851,-10.614306368377395,0.00693196258844441,-0.4329222273364823,-1.109134415297972,-0.7709793554462977,1.2473952781283648
-6.143625597589959e-13,-6.663869470527906e-09,-8.556691921524884,6076504.256914681,-116.65706234533785,0.08616879139284561,-11.395895253035293,0.007859577830783039,-0.4650281224983329,-1.144576036850509,-0.8019298073461948,1.354822300946226
-6.179890002771243e-13,-6.643603112612489e-09,-8.58576849137798,5852153.24396301,-113.84573833250727,0.08528594367830139,-11.46250209798094,0.007935944309681045,-0.4637663670950438,-1.120464562939047,-0.788782465581756,1.3368268110566466
-6.157835179454207e-13,-6.718317469189972e-09,-8.647144360811259,6297124.237238024,-120.18914498903482,0.08751009329636934,-11.570542893290442,0.007890646810937133,-0.4735475295919019,-1.1757061240679711,-0.820974096724074,1.377131828920879
-6.014368881593883e-13,-6.569924350907062e-09,-8.563319813714802,6246284.429320265,-119.29731099701539,0.08645057763770525,-11.415181277875353,0.007715216898572862,-0.4654341002982218,-1.1666287169337346,-0.8133044906690615,1.35005160532144
-5.825368597345753e-13,-6.427788334283647e-09,-8.507854114858256,6177079.6312489575,-118.24045051693165,0.08561536652845714,-11.317656226292597,0.007499985410409467,-0.4576420740820932,-1.1577882196036609,-0.7960218003218759,1.3182776068083917
-5.321361132020419e-13,-6.03838496843641e-09,-8.4367585611736,6810674.278859881,-127.12307187244376,0.08675237874216653,-10.898838559208789,0.006782752774772576,-0.44788339455887133,-1.2239670070965476,-0.844563390131144,1.3241076682549315
-9.735045114839662e-13,-9.771016899088684e-09,-10.319791880440594,6815228.314000464,-131.69139372243987,0.11252208197990418,-15.999663611618187,0.012146238682750365,-0.6468504317765135,-1.4031077618963068,-0.8662216472336642,1.83299160294066
-9.338167849193693e-13,-9.105121204867503e-09,-10.189384113684916,6853956.9073063135,-132.199387442727,0.11035290974878426,-15.563282050276035,0.4303885225016667,1.1619882014830498,-0.23879333654554888,-0.2137626216317019,5.609097771212698
3.324690847317159e-13,2.349022450519839e-09,-6.923303350575374,6232325.489083332,-126.64888968055008,0.06983602986969625,-2.455243907100174,-0.168303952141572,0.2143134192928556,-0.19918922472514813,-0.19850268888966885,1.7908869431742884
1.30931971019883e-11,2.6850720016839785e-07,-42.39240202425922,26784977.325166278,-392.6102819772703,1.7344117678560447,-10.495497911918468,-9.890108669043439,5.8183520933122805,-3.1657335677173553,-2.0112270351932544,11.098104988522467
1.2583345096738361e-11,2.698496906767967e-07,-41.65197292016081,26417352.2524309,-387.2079398146286,1.7214649570448288,-10.164129747469007,-9.625699898022454,5.651004702506994,-3.1322697971212086,-1.9718950418184427,10.737879339042243
1.146242783716132e-11,2.672931099677001e-07,-40.84983633043369,25991087.904920947,-382.65943638284057,1.698373081531939,-9.650338705578806,-8.951537713734695,5.429127346156277,-3.1071920515514795,-1.9498064678130598,10.097807408509455
1.1198713744988188e-11,2.653134059810711e-07,-40.73996035654317,26150025.536954667,-384.25906081573345,1.6973580543416174,-9.568388425303718,-8.802046426726609,5.377386819568851,-3.1178701854936106,-1.9475656914764774,9.992045034592316
1.141582308284343e-11,2.6896892414666415e-07,-40.88223976369004,26642861.826551836,-390.69509644957947,1.7240021889235395,-9.530312391643417,-8.898839694081294,5.420956517269444,-3.16209512845213,-1.9817065537311918,10.184328071485062
1.1635139421957821e-11,2.722679316877091e-07,-40.832544020736236,26435638.078596953,-387.84109678365826,1.7240405475791598,-9.547315053133055,-9.067118323476558,5.423880232176835,-3.1407459733966676,-1.9709411426426602,10.241990987928405
8.752085923642035e-12,2.1727562341179762e-07,-38.608732547351096,25783575.428900786,-382.28925250361834,1.6093543735254505,-8.086674201914663,-6.871916734770101,4.634203578376582,-3.0425252831104217,-1.9206855244434007,8.91051298060818
8.50320443583395e-12,2.1604181300949755e-07,-38.279905795608215,25318813.162408777,-375.86266470745136,1.5944161196550064,-7.986551239886629,-6.709924688405881,4.564143532827905,-3.0014300813720456,-1.8736969295205057,8.665128645830423
8.048952002296848e-12,2.0883315925452715e-07,-38.127358786596666,25201269.89081226,-376.779349143601,1.5796629547518206,-7.849307397496801,-6.429558840905511,4.4678745260814825,-3.0009960127264765,-1.8709239687574002,8.401821782086685
8.770770669727811e-12,2.2079843394666244e-07,-39.04517432827675,25688926.515723526,-385.090343289339,1.6347906364061604,-8.066142910749862,-6.873195843132362,4.6943446393945285,-3.0744275611166545,-1.9562154629807975,8.911011437454741
1.0146298017313694e-11,2.5157141479783083e-07,-40.02233264269548,25304798.282842338,-377.8372509740437,1.6751005031501438,-8.706270192996485,-7.981478631217538,5.076908735620692,-3.0688708380377987,-1.9325181365616502,9.571053355228095
9.861281338648869e-12,2.499086892892772e-07,-40.08391572691222,25172037.20547332,-377.47368365011505,1.669252811228278,-8.707189899451174,-7.824010527727037,5.0808140525371615,-3.073575865173728,-1.9264728001851503,9.386336866683418
9.192309213433078e-12,2.39884649977442e-07,-39.67232830044588,25061666.187791232,-377.34257998320635,1.6508553035352047,-8.44655127283273,-7.325330094284512,4.924670298791836,-3.0634388388111837,-1.927767273278467,9.106013036947731
-1.193522767013239e-12,8.79530981541608e-08,-26.81084996183809,-6294053.343946035,-140.35337783092683,-0.027674039866934702,10.004164658141962,-1.3269534941865344,-1.0767581846911591,-1.6204924448688276,-1.0625338599941652,2.632322558025051
-1.1611481371562668e-12,8.59224202837461e-08,-26.623135164697647,-6235874.998730717,-139.45331400480714,-0.027502035090151748,9.833627709585171,-1.2850353970542112,-1.0620744045412103,-1.608831603262243,-1.0618565461156093,2.6024367601913276
-1.142386009194251e-12,8.609599621450029e-08,-26.727100362562766,-6246525.845267197,-139.35044780956096,-0.02771466352934564,10.0463158567354,-1.272113874067187,-1.0766401073568308,-1.60609573621801,-1.0582982122522182,2.5897402360218202
-8.308636245413247e-13,6.744926247077495e-08,-25.47979111645432,-6065136.376699182,-137.5605954882876,-0.026147945771815336,8.706630554818167,-0.929802372557239,-0.9424585509160317,-1.5522656925762381,-1.048003915817129,2.242828764554124
-6.860081227629401e-13,6.269277585955022e-08,-25.162853911873718,-5324194.154742036,-123.8563455326138,-0.02577409190250722,8.735759278224311,-0.7812079869925143,-0.9477644195575129,-1.4245821608666231,-0.9476909047964346,1.9967857290993871
-6.733200092571455e-13,6.186573917669732e-08,-24.909502091877176,-5310915.041721683,-123.37182798030315,-0.02547417459495197,8.583839597063912,-0.7358828169789505,-1.580992924354315,-1.1259547800924192,-0.6956039658800519,1.7162707730495845
-8.485821890461939e-13,6.808431355439507e-08,-25.484612337836936,-6071343.464599156,-138.57426952784098,-0.026291898542092827,8.466937462623243,-0.9012087552069535,-1.5857979839348242,-1.2409783533558272,-0.7934882281003806,1.9942591058321575
-8.472832076327998e-13,6.713246164692762e-08,-25.327897318132944,-6113223.107503113,-139.20259730902956,-0.026267162204115187,8.302142732263189,-0.8904581495025524,-1.5714206427476762,-1.2382820292929888,-0.8059592551834034,2.020912888098147
-3.800649699097881e-13,3.4596974905183176e-08,-22.09468415025962,-5723713.236775917,-134.36375434310654,-0.022526540378045676,5.444362301509405,-0.39149231822134845,-1.0578181642540496,-1.1457987595328518,-0.7678888493440253,1.4397154548151516
-3.5513029686492423e-13,3.339159897479752e-08,-21.831936120220508,-5486497.499818791,-129.69122054187855,-0.022139231442182015,5.373115787831339,-0.36794006740969143,-1.0392813923373658,-1.1109119283783142,-0.7367443203079246,1.3721898838274398
-4.0200645681721083e-13,3.56824667983861e-08,-22.138178350737338,-5752961.211296175,-134.9065919656987,-0.02251316491815509,5.4614602429225165,-0.41174666118606745,-1.0540012438434325,-1.1501720397918347,-0.7703155669080427,1.4785221468821446
-4.135137226590314e-13,3.639208966995134e-08,-22.422704185334666,-6124658.221913006,-142.0943442010944,-0.023234235610635576,5.505877552425194,-0.4186916182562811,-1.0788252818258797,-1.2057951683502148,-0.8119109445494468,1.5522893986808832
-4.101275040368276e-13,3.700814556300537e-08,-22.664813631030665,-6491357.2216888,-148.5667606170787,-0.023878903433707674,5.5930250801905865,-0.41737608036093876,-1.1078146086960052,-1.2594597608218059,-0.8367314345377049,1.5795678465599534
-4.1954538023544316e-13,3.812970917861155e-08,-22.8423190328536,-6542862.865090895,-148.89395991470087,-0.024122988557345466,5.782916145692141,-0.42926992377912737,-1.1338697857864688,-1.2682501818408027,-0.8275464163186157,1.5815934315105844
-4.677135111215892e-13,4.0418964543299315e-08,-23.132599630323046,-6837109.407804646,-153.81812418570243,-0.02452375799884154,5.91033117055612,-0.4748553761589219,-1.1553016833478096,-1.3045684467404344,-0.85628858450741,1.6921799848037562
-4.664312620554602e-13,4.037041527480748e-08,-23.199208563507476,-6837839.207074999,-154.22899061071823,-0.024563386119366006,5.9229672799009565,-0.4733120481816293,-1.1578058103420572,-1.3090465021390296,-0.8607333950734793,1.6948090946853678
-4.724256025063588e-13,4.062539507060538e-08,-23.284622454741246,-6909778.8814264685,-155.71103904463368,-0.02465592779109236,5.9078231541529735,-0.47795129509983253,-1.1619667967957699,-1.322830568213887,-0.8679245599324459,1.7089019840853774
-4.648473430229789e-13,4.050032057447856e-08,-23.186845141137013,-6850213.38919748,-154.17843629910752,-0.024465369918774356,5.881149399296019,-0.47283176198460386,-1.1571557514059498,-1.3137902314972856,-0.8498305315544884,1.6781801949349298
-4.695863406067594e-13,4.0768340301723135e-08,-23.28535606145834,-6908959.229547245,-154.88804681618612,-0.024715106674519382,6.025868752974448,-0.47749673837498874,-1.1707586344419927,-1.317401366985754,-0.8511267822875318,1.692991139218892
-4.72887291850769e-13,4.027309899415963e-08,-23.319813182660962,-6910457.9799036365,-155.23063843658431,-0.024753501699781816,6.012531817001012,-0.47659590612223607,-1.1701701473818826,-1.3164638996208078,-0.8568780118357882,1.7090624454123187
-4.973218711632687e-13,4.0987429228666334e-08,-23.575148222367627,-7090830.97370381,-158.8188158022508,-0.025058945144725023,6.063292153819858,-0.4976618491448096,-1.1824994110705536,-1.3406158754004487,-0.8814510911248378,1.7741149958617528
-5.280702570498609e-13,4.181061581069233e-08,-23.76620994422796,-7094037.230501667,-159.00079814391188,-0.025372972990209918,6.160866200393411,-0.5230553733685996,-1.1995005665630192,-1.3350612874775114,-0.9042015437986816,1.8806986548195208
-5.122084672086114e-13,4.096846961794231e-08,-23.610502778208026,-7048404.698246898,-157.98811262358277,-0.0250027203707019,6.099138605190702,-0.511663114027966,-1.1830166631972885,-1.3267222216828154,-0.8889252296967745,1.8371131664744786
-5.130250792740589e-13,4.068331601272919e-08,-23.651847153331165,-7081356.981636405,-158.3693806993149,-0.025055815102722527,6.131901808575661,-0.5107403454810922,-1.1860926381139825,-1.3306599645126345,-0.8844195766196025,1.8320639137247632
-5.122730336248144e-13,3.834371956104937e-08,-23.654002116067236,-7111870.334753307,-159.13919997819076,-0.024800419103205216,6.138987293256219,-0.5028293505390216,-1.171513856030554,-1.321649708401643,-0.8931533771313968,1.8695593003378288
-5.454638819831941e-13,4.4158030423782317e-08,-24.042117530287705,-7200026.807865499,-161.2851512725367,-0.025874386983743378,6.208113017787172,-0.5460166247009142,-1.223873106475918,-1.3593833699492488,-0.9183263616690014,1.9153045595770821
-5.472262914566069e-13,4.5305754513458234e-08,-24.044037531507982,-7204054.058433214,-161.72315175178696,-0.026042030074941967,6.1123824268043805,-0.5503877007492958,-1.2283347017143875,-1.3677430324352784,-0.9266669513061624,1.9053514398109188
-5.5650032570492e-13,4.70777239461394e-08,-23.993294166521302,-7068339.370864501,-158.93455527175936,-0.026026432069947307,6.097453745860791,-0.5646152625493114,-1.2342113886951953,-1.3527201198679175,-0.9096123970150409,1.9105782942790042
-9.903643478731085e-13,5.04567124473765e-08,-30.363557716731794,-21313681.655756753,-320.1509287352244,-0.06297733885682902,25.059242583553687,-1.2692257921990509,-1.253433285459475,-1.2823179347198994,-0.5790428202897905,2.0453918555045907
-9.911088907220486e-13,5.126254674622042e-08,-30.494770431042753,-21617683.46540901,-326.89782650081247,-0.06367344934082063,24.513937906402244,-1.2716312079011138,-1.2519244622284618,-1.3041377181346216,-0.6010594507977309,2.070148719821955
-2.2323943591591224e-13,1.6776418124419156e-08,-25.397772369280148,-20631726.570747998,-323.1178304833888,-0.05174972992634531,12.839295960558186,-0.2684496172026887,-0.6991813541198579,-1.1971936506672791,-0.5918533615440165,1.2987484964698197
-2.123088661137018e-13,1.5914050228180964e-08,-25.078380856568675,-20670272.462992422,-322.98240304259207,-0.05138942874211879,12.478024151667237,-0.2540974268519763,-0.6754395393996618,-1.1885118336814897,-0.5917316877136103,1.2721901981129666
-2.2616022726844274e-13,1.720941767263619e-08,-25.71898356639391,-20451604.213325873,-320.6782770515499,-0.052732122065892305,13.29348878400661,-0.27276706637177045,-0.7207570604195809,-1.1927832608026983,-0.5892777705128255,1.3106898454546638
-1.8369822977309648e-13,1.5898688474701982e-08,-25.35199256922179,-17990347.59656148,-291.088576180441,-0.052000640207093524,13.305806532742736,-0.22548476897876274,-0.7271484668046078,-1.1040315084971042,-0.5371543037571731,1.1566360902367887
-1.8467151436572634e-13,1.5973299451842688e-08,-25.335639081292513,-18167699.356110804,-293.8545183127928,-0.051820250167767805,13.223104416423112,-0.2270367951549901,-0.7214082924487991,-1.1147285426993603,-0.5393599988775025,1.1527926561295536
-1.7817034293611798e-13,1.5807683309914023e-08,-25.122691781552348,-18078320.741798762,-291.5614219644514,-0.05131118861901381,13.120370648815205,-0.2206209824748395,-0.7135770505628249,-1.109478640140647,-0.5261130012028485,1.1138547547315363
-1.8087812855584138e-13,1.5991283223656805e-08,-25.24132072383022,-18191103.67784923,-293.62108496074245,-0.05155309879671241,13.20643801948258,-0.22513168110183712,-0.7175781975700734,-1.1150423508076905,-0.5327183842030916,1.134628913916789
-1.7674132635177584e-13,1.5855557396164547e-08,-25.41024093815943,-17952019.91710312,-292.72765094032485,-0.051849833884348516,13.274148551545895,-0.22174028954630423,-0.722920443049621,-1.1124275404154758,-0.5352967636667884,1.1307901846761956
-1.9524915090664475e-13,1.608313488894443e-08,-25.463191265599644,-19808400.52542564,-319.7654417597213,-0.051841801178854924,12.599724148510054,-0.24061139465595058,-0.6922768544790288,-1.1920864079545785,-0.588040261675503,1.2087993246925335
-1.6257577773937517e-13,1.4169295283108873e-08,-24.518476936411233,-18935029.197446804,-307.19309044727316,-0.04970473093953687,11.675181394227085,-0.19968026942547049,-0.6437506125774136,-1.1430828083834506,-0.5562513337246742,1.081921829304331
-2.1355842698157098e-13,1.5960492099205773e-08,-26.15683448417517,-21515705.88489472,-346.50890427043527,-0.053581683526072246,12.834792092096327,-0.2709223847816718,-0.6812595097190572,-1.2094198006144248,-0.7101672345148771,1.51312749469352
-2.5000141214367984e-13,1.8411290685739807e-08,-26.99117561568428,-21962472.12287222,-347.7778499032165,-0.055258536367056486,14.216942501509276,-0.31901635124082567,-0.7487511399520478,-1.2268325747894455,-0.7153489256318397,1.6400818828418713
-2.6114066241396657e-13,1.935057322758731e-08,-27.282486907240635,-21601960.39705983,-341.2944577705949,-0.055832641001982874,14.833062882580164,-0.3338368874988465,-0.7803611992555509,-1.2168027346117622,-0.7029095020056505,1.6604666160042063
-2.616613103715142e-13,1.9096120912456336e-08,-26.964218603797594,-22596179.79305413,-352.3430584507062,-0.054591205462090134,14.424819133701776,-0.33352420750402806,-0.757190895200361,-1.242152575742576,-0.7181317538081609,1.6634149174956998
-2.5361209588844047e-13,1.9022089182694593e-08,-26.92176833447838,-21713181.025861822,-341.0992734784901,-0.05457293581642709,14.502206377180755,-0.31786878448787564,-0.7698641283290808,-1.2320468276385463,-0.675059868441678,1.543690635838743
-2.627549622381108e-13,1.9356217655472523e-08,-27.172141501539627,-21912074.396159414,-344.422483007744,-0.05502119327705243,14.78899982886638,-0.3310278175486131,-0.7782132236435355,-1.2386274510176185,-0.6885167858654683,1.6038207655459917
-2.72383664356524e-13,1.9193796587715036e-08,-26.989264067731742,-22984013.74143738,-356.75780686131304,-0.054589221174118345,14.368028949673837,-0.3419881645949492,-0.7489306902463734,-1.266488247841715,-0.7070981022373364,1.6546304606668567
-2.1981402603320417e-13,1.6052469521306415e-08,-25.758611358744087,-22870875.49480841,-356.22788656046646,-0.05134174242809153,12.803919821624513,-0.28098604613820216,-0.6643680616566897,-1.237200037422047,-0.7044192410028407,1.5102263181329905
-2.1862186409120322e-13,1.5702534606490826e-08,-25.77500632896547,-22755747.720792193,-354.8242190825508,-0.05079564813059924,12.90822780987168,-0.27842790642427684,-0.665860399380518,-1.2297530941973414,-0.6982166114445757,1.5110344543866683
-2.4528671864618674e-13,1.6751901822095975e-08,-26.709111686660084,-22778259.302582867,-357.8706673601843,-0.05281591168967206,13.984562190403485,-0.3095012961174492,-0.7109606928552018,-1.2560034211937836,-0.7011315640558606,1.6064226229961567
-2.1252625062668343e-13,1.2361666793287939e-08,-26.04828137637277,-22541637.1404224,-354.1731510959819,-0.049355680456794525,13.45792177988365,-0.2581428453695791,-0.6536903409502633,-1.2041708301360252,-0.6819303068779906,1.5414599734605023
-2.8166131000053755e-13,1.600658186780614e-08,-28.207634904370302,-23851677.013264954,-375.32260007820224,-0.055455628747932396,15.558041160543214,-0.34388379787827195,-0.7575787756313311,-1.3194588374714766,-0.7190123522017989,1.7981627899663908
-3.089879075945214e-13,1.7530568582034896e-08,-28.886274694427584,-24214118.970488224,-380.0028781641158,-0.057156830825136166,16.310776457579518,-0.37855145640626536,-0.7993196527057621,-1.3455326137823898,-0.7353080057592406,1.8911956718933611
-2.3904982421662727e-13,1.52781962000418e-08,-27.03555570034094,-24216704.716532774,-375.82735097387933,-0.05247322121860093,14.068968811504684,-0.30274042122661304,-0.7070462979767318,-1.2944453259601543,-0.7329078769144997,1.6802316128803323
-2.4766940571855337e-13,1.570770361032386e-08,-27.50122719513126,-24410898.325709913,-379.5368912041485,-0.0535409707004165,14.32849416058791,-0.3117246450297297,-0.727354699601775,-1.3152402903425824,-0.7429839500936806,1.7004932791329375
-2.5764069699060293e-13,1.640217542435432e-08,-27.83389842817906,-24017923.984509915,-376.17634925600277,-0.0544539194253408,14.742902415894651,-0.3234875458377444,-0.751034628271732,-1.3209226991965364,-0.73374731175998,1.7049040714239978
-2.754959652881879e-13,1.718926051340817e-08,-28.518796331958004,-23539351.540223747,-376.18866234717433,-0.055461833121163845,14.971626145173577,-0.3502717499338453,-0.779790971655982,-1.3171723264830766,-0.7676358649083744,1.8332285306231337
-2.682666624719739e-13,1.6794997529576197e-08,-28.456602294020144,-25071307.709283203,-384.9803383723154,-0.05809234499164412,16.59017210081175,-0.3353170618181263,-0.8053054449920446,-1.3315847762680375,-0.7616126750783091,1.7857044376852855
-2.695465088336856e-13,1.7146297429167585e-08,-28.68299007118849,-24590329.444280118,-378.6500663667021,-0.05873039441607034,16.943197722505886,-0.3339706278688658,-0.8234602429494272,-1.3152023493355773,-0.7579877960200058,1.8245072754017795
-2.6530501730232625e-13,1.714521771959598e-08,-28.822064552717418,-24103832.22255478,-373.71835287699156,-0.05901576046633031,17.160698292728817,-0.33102248480423074,-0.835320414436732,-1.299907139562165,-0.758433466452248,1.8253128946840846
-2.776270950527369e-13,1.7717339770925304e-08,-29.235991442808874,-24125767.307127878,-375.7889442886305,-0.06019073203296639,17.531162159867097,-0.3476891849035119,-0.8540862874112151,-1.310564852882217,-0.7667101765285562,1.8691174858234458
-2.7421504105050004e-13,1.742482425352113e-08,-28.8345307325854,-23766421.27496656,-369.05349374502106,-0.05937304022921135,17.188306162244533,-0.33909806979866036,-0.8364232968444929,-1.284288022835767,-0.7563582236339257,1.8684114505349518
-2.4877778652136457e-13,1.6612906877328693e-08,-28.364683091372715,-22647197.244035292,-353.22013220512815,-0.058389062939627694,17.00464336356923,-0.30867703489167464,-0.8267906181434461,-1.2349676379212207,-0.7210525306923686,1.768711442643331
-2.6383992951796925e-13,1.7130213979420945e-08,-28.501064091632603,-23371090.271618858,-362.65061216682017,-0.058812164279462745,17.003719987698137,-0.32668326511716,-0.82602593769426,-1.262887247642285,-0.7426251165605562,1.8328809484934592
-2.6181055624654955e-13,1.705351271190202e-08,-28.548737165136785,-23435787.87055351,-363.21089047528767,-0.05880086889471662,16.977553577635273,-0.32229164397930465,-0.8266784542475436,-1.2647317009614851,-0.7435914573032825,1.831971305997534
-2.7331980682632237e-13,1.7850731749149395e-08,-29.26070835017791,-23279650.46032955,-364.59573575451924,-0.060396412519973595,17.700906082089343,-0.3368210490083415,-0.8653117318083073,-1.2785054451905782,-0.7533137981045028,1.8834422519085836
-2.933554728671709e-13,1.861043998843063e-08,-29.556710297654828,-24105011.521399725,-375.0948467894384,-0.06110601054826406,17.932001337165413,-0.36229185884451337,-0.8756618777454603,-1.3108121949613012,-0.7754540765499888,1.9627034372858403
-2.90465095224941e-13,1.840015660443479e-08,-29.306195075859403,-24060014.01417916,-373.3360548019427,-0.06037835015246213,17.564411053521038,-0.3574177413714311,-0.8580389282084894,-1.3029951283840537,-0.7718710802851576,1.9569893495819084
-2.8606747818903856e-13,1.8314349107009778e-08,-29.28797154835717,-24016384.327663437,-371.2313611494187,-0.06047704890995087,17.74739516250734,-0.3515656606044662,-0.8600425810270075,-1.297490663172245,-0.7620810282003441,1.9383128841238593
-2.482590466556786e-13,1.6939330584889322e-08,-28.592882008238917,-22483886.81580756,-350.3889565891292,-0.05874495557643003,17.19811666294085,-0.3069506600512387,-0.8318057008933852,-1.230330081291997,-0.7155593216038834,1.7812671420484294
-1.694895132800909e-13,1.4414830084775518e-08,-27.735723740664444,-18049970.116603933,-294.83448631273734,-0.056656039833878624,17.081008338649365,-8.533836851577716,0.0788616757316544,-0.6959248757184655,-1.827385468577126,-4.913937913216573
-1.6228020089006318e-13,1.405399743077214e-08,-27.422161452795276,-17717223.203057066,-289.44259829822795,-0.05594621041154084,16.884957414603644,-8.176937422932571,0.0776613504841784,-0.682564581725143,-1.7907308914966589,-4.811091508116336
-1.5163533101775413e-13,1.3309153932463733e-08,-26.945095145462936,-17679827.014936436,-287.66863441312756,-0.05474018810547435,16.27621140676132,-7.58269002950792,0.07496166843736543,-0.6752305671050699,-1.777830764675416,-4.627738240754754
-1.0608153057760117e-13,1.0280601101661096e-08,-24.812826221225297,-17725937.819883972,-284.6041342382988,-0.04867096563923913,13.497381703356073,-5.385209048508961,0.06320421404165885,-0.6413940915379367,-1.753590036300078,-3.939160504937336
1.329693908428125e-14,4.585443657075673e-09,-18.791922695807653,-10536013.74270783,-181.43830524138198,-0.034696181458524634,7.4913430013307565,1.4355415521122095,0.04451691106264018,-0.5391650043123424,-0.30390377646908207,1.322855285922786
1.2527110214751708e-14,4.470303718727257e-09,-18.737437851150847,-10511985.694791997,-182.02586029398807,-0.034246259695644016,7.3179982494508655,1.344470475187365,0.04439814763588021,-0.5473675993798915,-0.29440337644135073,1.2119603883922576
1.2005091375118776e-14,4.377179238584736e-09,-18.617415878025444,-10239449.456877742,-178.11337443470435,-0.03401013210787063,7.270788120842207,1.301104662807249,0.04414717514693424,-0.5376899812300996,-0.2884999986259511,1.1736438964352724
1.5072809963900524e-14,5.0811741209627e-09,-19.67117252811994,-10916716.434285726,-189.5222227194726,-0.036221220192581526,7.932363424100446,1.6208270646850418,0.04804045573120651,-0.5744423926778081,-0.3109387725920638,1.3655508126799163
1.5991966140964385e-14,5.3102810724143e-09,-19.962285121660933,-10860702.899753258,-189.46989218364908,-0.03693634765842838,8.223320980507816,1.7210693029521007,0.0495236926416731,-0.5791295661149372,-0.3108734086313227,1.4029553779767314
1.7798868073414453e-14,5.508756727068957e-09,-19.81041094241016,-11702467.182831531,-199.959784416923,-0.03677104935812319,8.021646693962035,1.8821496995637748,0.0479550528456759,-0.6028431023550638,-0.3264597895175096,1.5056589767240747
1.8128274354953242e-14,5.521531890489802e-09,-19.855642933665447,-12015821.752033735,-205.14899592428966,-0.03655996921710562,7.905075491202851,1.9295799155573008,0.04774799217175994,-0.6148331713301596,-0.3340144770569645,1.5186765593800415
1.7862137169943957e-14,5.46927569577533e-09,-19.783989692241544,-12132509.032323144,-206.98387878470967,-0.03629857460762485,7.843166164262004,1.9207704314056084,0.04724427391262018,-0.6182291433138065,-0.3350479453518914,1.5087263161081543
1.7919634433968976e-14,5.483790446784952e-09,-19.731651528861622,-12274706.817836834,-208.65420960073985,-0.03626669862380309,7.820144521540082,1.9288097784282678,0.046869002539590476,-0.6215828884834369,-0.33622197971019685,1.516569319478935
1.9701888450399078e-14,5.834166992989116e-09,-20.454985654234587,-12408721.956869073,-212.8586593457188,-0.03756410964122909,8.24160512893967,2.118368241723244,0.04959637972176258,-0.6393220443480837,-0.34629723477797,1.590551223365776
1.901204455217859e-14,5.681519257796956e-09,-20.27710766646995,-12321404.970305568,-211.22220940641031,-0.037290254317459894,8.085291852177011,2.047147179790279,0.048606046875022756,-0.6315838760091383,-0.3441982010888389,1.5668829401993944
2.0138591072119407e-14,5.890145269624743e-09,-20.67521835098988,-12553555.664507782,-215.42569519006025,-0.03820256357918132,8.432366009768884,2.1753444030615077,0.05054318856064078,-0.6443488641363062,-0.35285547624142205,1.6203394850252777
1.8688672398109375e-14,5.560662380615645e-09,-20.324690974615976,-12329492.4363619,-212.74008668860705,-0.03716953410951862,8.000708011788301,2.0427247313389545,0.0484078421551139,-0.6320815557325196,-0.34857657068235864,1.5527341002128567
2.1968480384978425e-14,6.094754444243239e-09,-21.04835718649396,-12659396.217056971,-216.52103163791674,-0.03848705603102084,8.564099139888864,2.269825649822677,0.05230439795097997,-0.6543537906784083,-0.3532169183175676,1.7071698961840935
2.650462205461023e-14,6.376090446661434e-09,-22.3837341029513,-17541759.344366785,-260.10592864421085,-0.049144581497196575,13.745599310193546,2.5238114751905356,0.06669761754789051,-0.7373772838772524,-0.4111381154352615,2.024164206749186
2.5540265783954683e-14,6.204337367553338e-09,-22.253869414966722,-17389841.081730045,-258.0171343790664,-0.04872687264688166,13.61410035182798,2.4577182434865326,0.06595715091816184,-0.7300501033413295,-0.4063419699652645,1.9702895931969036
2.4884894990102177e-14,6.138415164152382e-09,-22.338520161402936,-17172682.886226498,-254.73934560180408,-0.04952653538850256,14.32286726796615,2.447673503167257,0.06759771968577102,-0.7194358835668245,-0.4041458746132609,1.9364405247251189
2.2986096685273318e-14,5.8425912402293775e-09,-22.00120274836323,-16691373.078592248,-248.1443380757425,-0.04859355091451886,13.970279565260109,0.11510407915527218,-0.05379562383572166,-0.5465708671688706,-0.43307915318598417,0.15330455384643318
2.1251682820458966e-14,5.558865473531593e-09,-21.681491318469124,-16246177.276688604,-243.2753087383962,-0.047771531588793735,13.687839535445821,0.10884951128139404,-0.05242700730594732,-0.5350802366751946,-0.4237798050075882,0.14445291159087487
2.6867546073430906e-14,6.305456211947434e-09,-22.187747794837243,-17643560.7875708,-256.3106813566903,-0.04913517424135829,14.321210259442921,0.12700901424702746,-0.055192682433452864,-0.5686764512513811,-0.4376753024517135,0.16668990012078339
2.9810403651728176e-14,6.583251779562189e-09,-22.35979706789233,-18450980.04517367,-266.3004273893373,-0.049611721091297564,14.478299648526278,0.14062235867920977,-0.05558555000181186,-0.5833451284750709,-0.4671263023552872,0.18258164934576
3.0269745442315454e-14,6.647680751507003e-09,-22.329283860152998,-18574419.481872026,-267.9812239897381,-0.04954361181952494,14.455442364609308,0.14364446093111427,-0.05535127386293728,-0.5852002194054438,-0.47175850436421757,0.1845792636133786
2.978928779322015e-14,6.54913357512684e-09,-22.14128949628726,-18501104.898059428,-265.71381184022925,-0.04923217785982882,14.300560323941383,0.13942947648274684,-0.054603516413947575,-0.580608776824912,-0.46554887168291736,0.1833934457365968
2.951198402731573e-14,6.618005421607308e-09,-22.140759740351708,-18530901.96438682,-266.2684742071762,-0.04934910136056164,14.220619489320493,0.1382664965430931,-0.05494743127688036,-0.5832434368144637,-0.4642877664799009,0.1803420436994448
2.8207345911227114e-14,6.542977339408497e-09,-21.95297494946991,-18148320.671515375,-260.6813120227303,-0.04885876368626696,14.008334901052663,0.12952281093160295,-0.05473365744400953,-0.5795265745858992,-0.443512273448297,0.1698058118170587
3.26718935361559e-14,6.9682368274013e-09,-22.60053145389886,-19369552.397657957,-276.30870885600405,-0.05060106393080067,14.804274313840564,0.15412616363426168,-0.056234335388143784,-0.5900386507419647,-0.5090019968831192,0.2076650043515629
4.2414032600968013e-14,8.532931727276597e-09,-24.261256172582648,-19394400.73412319,-280.10838309824084,-0.05551107392163514,17.175753478611256,0.1994632040018988,-0.06450988193319698,-0.6204230657016118,-0.5159890993136012,0.23525277616409035
4.564601824648489e-14,8.966404841073808e-09,-24.606297333736244,-19646520.208577316,-283.28050474952335,-0.05654384757352095,17.72403411895405,0.21202066530753463,-0.06675164610301157,-0.6317704020464178,-0.5210582547387798,0.24320890642053442
4.518369434461122e-14,8.90083355843135e-09,-24.366279633950896,-19626310.762631457,-282.31210186748945,-0.055982790883005,17.452377236803,0.20908867858607583,-0.06602155383932688,-0.6288212953670368,-0.5189337153684239,0.24128768837816178
4.2517770621672813e-14,8.678232127764671e-09,-24.191782922943453,-19414712.168331195,-279.8648090695076,-0.05549407982958114,17.190553894562033,0.19702861212706027,-0.06540695021195508,-0.6275028609703022,-0.5048434946365811,0.22767186338072
5.353001487880615e-14,1.0298233766051006e-08,-25.557045588436836,-19760670.809579935,-286.58128142857834,-0.05955812548999299,19.257315843288783,0.24710628611600507,-0.0730281961652585,-0.6585823724952149,-0.5196618713387702,0.2555786533658284
5.2703941709189225e-14,1.0179020102571833e-08,-25.414905247276003,-19667877.690588214,-286.327427358855,-0.05930167113728233,19.02392359878853,0.24594351224833988,-0.07230332401715983,-0.6564969057413692,-0.5210979467135831,0.25202105624490156
5.139171390632839e-14,9.986416832261562e-09,-25.150829466832867,-19567839.99155431,-284.2690817378126,-0.05867898001608164,18.6795983727566,0.24047952999472358,-0.07107245104158269,-0.6504419345436663,-0.5159115480850699,0.24729772364129374
5.04535705677491e-14,1.0044874602044754e-08,-25.2484947442977,-19474334.584927965,-282.0634477311197,-0.059133598504680716,18.731856016805548,0.23418414861793213,-0.07169627544030692,-0.6513623645056582,-0.507293028259298,0.2408047268417573
4.8066651826206654e-14,9.74938499462185e-09,-24.99727121929179,-19168221.993151266,-279.5349010703032,-0.05829044214053738,18.45758000356504,0.23284090458151896,-0.06947133693364922,-0.6361107966761085,-0.5129323205375367,0.23912945706274905
4.982974117924231e-14,9.98800456258612e-09,-25.29970385781621,-19467925.54612085,-282.6065836981279,-0.059065641821856585,18.765898524034462,0.23753694760400546,-0.070706235601093,-0.645185349412237,-0.5164043022916903,0.24508172718080243
4.939895993000192e-14,9.935262991111882e-09,-25.171750250365797,-19385998.137739602,-281.0422543473363,-0.058796045859758374,18.64419230441352,0.2346394609332761,-0.07054128041497376,-0.6429233729188246,-0.513177701000486,0.24186492293610076
5.299810620480438e-14,1.0463628975388863e-08,-25.177180617751326,-19239935.875817273,-279.8085992068546,-0.059199406490113425,18.889275504741068,0.25245990930555734,-0.07194733155299726,-0.6441406064159225,-0.5181215347105971,0.2493862766541519
5.519580283486347e-14,1.0829478811368558e-08,-25.392042364288915,-19175239.41231983,-278.9629351369783,-0.05998632435375752,19.377301979471504,0.2550153995478762,-0.07344787042985915,-0.6472153259932538,-0.5097820081398613,0.25540037237987506
5.2290343410062614e-14,1.0393689433452515e-08,-24.710507637810878,-18771972.690078914,-274.7307247764209,-0.05805422348191775,18.617608640098634,0.24755997471224192,-0.07056492564339009,-0.633204972053953,-0.5067208388065328,0.24518649454373248
6.255226429206121e-14,1.1549581732315973e-08,-25.386613285691265,-19120632.536996875,-277.743674239578,-0.06011869474016655,19.868745144157405,0.2809470626077443,-0.0760380151255979,-0.6474058625391191,-0.5228714579444693,0.2795146275000212
6.032646008019886e-14,1.1471583144022239e-08,-25.258973295913243,-19056178.88221102,-278.07740683888363,-0.05984770931943209,19.672846709859375,0.2776698837038825,-0.07499609419400453,-0.6466488014974404,-0.5212401210509044,0.2716626295365735
7.300234632723031e-14,1.301250168288653e-08,-26.440051669614405,-19514815.683295097,-280.4655873686486,-0.06325199727432494,21.555621258026278,0.306531444898469,-0.08310989029784926,-0.6704389783303968,-0.5208482784618662,0.3090066955885525
6.90099114720507e-14,1.2624722608999892e-08,-26.37360901325637,-19552061.107418917,-281.6164633719355,-0.0629467618210397,21.169670828454908,0.2945751310283861,-0.08146490945258252,-0.6698723589475353,-0.5205996992925442,0.2996970163079623
6.137394846630544e-14,1.1586957310211627e-08,-25.728766754281956,-19361027.545887187,-280.195140215591,-0.06080813746248654,19.85605415350294,0.2766967267520822,-0.07628494197259869,-0.6538878689072032,-0.5257529877871686,0.2824804118773642
5.646223711313237e-14,1.1030984112572816e-08,-25.591525395937595,-19508987.58328025,-282.54889039246973,-0.05998608216972291,19.21397941545985,0.2581239944263013,-0.07404801606603754,-0.6538829993284195,-0.5296327438017354,0.27193790796427264
2.599246717676991e-13,4.120770762707936e-08,-50.458665519988855,-19353294.179120205,-331.18498879671404,-0.13813364237724224,59.38135094553728,1.175287164148782,-0.213968308961052,-1.0664207050369643,-0.6087926320309458,0.7237904201185216
2.667688212686748e-13,4.147012392233455e-08,-50.28000596970745,-19406365.758538865,-327.92850326265005,-0.13794858562632797,59.57125789217095,1.1565335329859665,-0.21487374288261127,-1.0562609879478426,-0.60581568831542,0.7540591594216589
2.6522424249868614e-13,4.09244183452247e-08,-49.92243802268822,-19399400.334910538,-330.2128842462066,-0.13613500732243888,58.305325359667094,1.17590553968546,-0.21163106197687767,-1.058556882075524,-0.6120926378321137,0.7415384984886326
2.9443277726136536e-13,4.4179446197733235e-08,-51.33090622882713,-19527374.260838103,-333.0997603642517,-0.14138615792044978,61.87630645344608,1.2784123912425749,-0.2241852808829434,-1.083001370469385,-0.6152841282953566,0.7838606478424597
2.595871473473869e-13,4.0833834015278205e-08,-50.0003686978364,-19283105.77482817,-331.01358741183304,-0.1368171850447402,58.34340592332062,1.178154484032288,-0.21106941146099278,-1.062865993155906,-0.6134398986534457,0.7245919858878846
2.9629707158308303e-13,4.436318842430324e-08,-51.55229274434746,-19526047.570603084,-332.9330633047393,-0.14205225906806992,61.85795125863184,1.2721666945428898,-0.22511458464820597,-1.0875945364605097,-0.6136301745846946,0.7875546448756712
3.310120159774035e-13,4.8176304241740654e-08,-53.34414224188974,-19857751.279231507,-338.445294396491,-0.14818100239014048,65.91380243032677,1.4016073942575444,-0.2392560714593533,-1.1162109863453686,-0.6233243355770658,0.8443941488479265
3.382105080976946e-13,4.8933424926792734e-08,-53.3202042383857,-19803810.566683866,-337.5418927365505,-0.14868616037790572,66.84568121653547,1.4361463397828722,-0.24194962884989438,-1.1168495331107213,-0.6216718164060804,0.8471779671721675
3.306940369636916e-13,4.875610458586589e-08,-53.058329866494056,-19475789.361186605,-332.867448133066,-0.14749044907162817,66.6487244780953,1.4052275721969625,-0.24093148927564217,-1.106405870299244,-0.6091459451023862,0.8319039856141024
3.2937869277214146e-13,4.881430762862149e-08,-52.97024030141708,-19328210.135038223,-330.9825220193141,-0.1470570518349476,66.66863012867314,1.3925862509335827,-0.24104631229255236,-1.1021363270999638,-0.6045974385428416,0.8307824700037835
3.2689823297157686e-13,4.8110336953181415e-08,-52.484410108897045,-19230796.927929588,-328.9294261425346,-0.14560392094622263,65.94143359761908,1.3773697937527174,-0.238729638568429,-1.0945850675780153,-0.6027563666218339,0.8255315576175309
3.2914058239580654e-13,4.789425822998149e-08,-51.74570619159169,-18894784.617435154,-323.9607895441671,-0.1439761060307601,65.14961882848618,1.3773473818912039,-0.23620967182389185,-1.0811321328903876,-0.5962794003941724,0.824364615542178
3.3273570575691377e-13,4.800790843040821e-08,-51.57700909368271,-18786622.81139157,-322.33957639671576,-0.1438311747229522,64.81519548006364,2.0836365300867707,-0.29934926918178306,-0.8604628603772929,-0.7205421450730061,0.5314161236830015
3.3941922345366217e-13,4.907606968593588e-08,-52.598806702842424,-19032089.167880617,-327.6375130706458,-0.14628389555170246,65.83493217610344,2.131055948596304,-0.30660866452405877,-0.8778441904858858,-0.7305786052573866,0.5373407160167937
3.3781043570771787e-13,4.8907265474057445e-08,-52.62079490670556,-19025181.879546802,-326.9072016435414,-0.14620069940079797,66.37070755386038,2.1185603504062773,-0.3070392216466286,-0.8757851861090697,-0.7299420612569084,0.5383593056747312
3.399722795251908e-13,4.9485135278195884e-08,-52.881408752202816,-18967290.093532067,-326.49454098417425,-0.14694303238611148,67.23063328631532,2.135909307685344,-0.309802859010013,-0.8775898417314308,-0.7237824504032582,0.5384384760780045
3.333183551636375e-13,4.881217427868662e-08,-52.59581325285842,-19024893.134428307,-327.37175033760576,-0.1457769182716632,66.50515697854989,2.1137215227929786,-0.30539335350498137,-0.8760324370496262,-0.7225721173834707,0.5331301815014258
3.4212795145280043e-13,4.951569566468477e-08,-53.18855320819293,-19210038.1115752,-331.2979912076296,-0.14768559447107837,67.03960010727137,2.1704824423903926,-0.3092814459863506,-0.88436103172993,-0.7349002541667696,0.5447710108105994
3.497661011035677e-13,5.0273388347317245e-08,-53.294688730353315,-19237365.94661652,-331.17779102130095,-0.1478173535303241,67.59014771184049,2.2212849911399166,-0.31162998502323613,-0.8843473931211718,-0.7378802640124998,0.5522309044942102
3.52804447558864e-13,5.039359983487947e-08,-54.30167056741106,-19636614.76547348,-335.5419696297657,-0.1951671942151415,68.53878538577874,2.254888219659367,-0.31118338964785086,-0.8839002765634302,-0.7414008075220744,0.5558521258294119
3.433992640837518e-13,4.982401718380629e-08,-54.10655813728271,-19321295.329641838,-333.2152295921218,-0.19330920359780274,66.88320441278688,2.199951839043161,-0.30687326098219964,-0.8796211157715469,-0.736338144772225,0.548650674354921
3.389212085525659e-13,4.974342062451162e-08,-54.51564909937352,-19470104.113823254,-335.5407775126356,-0.19499907390522703,67.27320428558556,2.1683072662062024,-0.3086005275536035,-0.8864899480077927,-0.7397604999723022,0.5469249300032393
3.4613910746716034e-13,4.9747894332855985e-08,-54.827319526630404,-19898062.973019805,-340.56491569176086,-0.1987417348615886,69.19705160401143,2.1893294229726257,-0.3117785070844095,-0.8949450178478169,-0.7510669861123366,0.5576983084585254
4.2026553199216673e-13,5.8987238084410917e-08,-57.222099587946694,-20187510.935757086,-343.649602072642,-0.20685379746020854,77.73245060229402,2.6788866139528484,-0.3500090514271159,-0.9186242024896853,-0.7622670426483342,0.6133704198782866
4.4292691664536197e-13,6.186757223614215e-08,-57.85535358190456,-20115588.574295208,-343.01415166308567,-0.2022048318110536,80.33049399638901,2.8217941197040872,-0.3614806688079971,-0.9228020239167196,-0.7658574469821965,0.6305017363947668
4.343034259766574e-13,6.114000520625175e-08,-57.767629438986525,-20226386.90545415,-345.07907928047683,-0.20161212104115553,79.64912057974746,2.7896830417159966,-0.35892486526885703,-0.9240373588929425,-0.7736522440348849,0.6268589908939497
4.1005925600995374e-13,5.864550468724052e-08,-57.21693833463647,-20329746.72014522,-346.6863761357054,-0.19880175213625545,76.75261188651245,2.648113875625249,-0.34879372380478885,-0.9208145416652089,-0.7778572961511157,0.6107702600327086
4.0517458691496086e-13,5.7723641910998165e-08,-56.567978523452815,-20261778.41228359,-345.2051536942381,-0.19578583462506843,75.40148028144326,2.6167709910746693,-0.3433353358376098,-0.9159628422544119,-0.7746117125974328,0.6024763534471509
3.951257684566373e-13,5.659562720293032e-08,-55.88450239914472,-20045316.17218888,-341.61802590670885,-0.19285559243260458,73.66535847616852,2.548905793500415,-0.3360248717790171,-0.903760455131014,-0.7655979619974462,0.5965410323170143
2.190834606504029e-13,3.777813141385273e-08,-48.45839949343705,-19313166.62614114,-325.7407610339672,-0.16047410250351724,52.63983195369723,1.472225215194805,-0.25102133680181604,-0.8152974077995433,-0.7356574960414801,0.46761123212231287
2.1686647391817925e-13,3.74912058038641e-08,-48.100713466066225,-19140762.621488106,-323.4655935495407,-0.15550813402337457,51.646671774889775,1.4721286389409032,-0.24733814770336668,-0.8063159682898691,-0.7399331378391012,0.4709141327786068
1.8539779339036317e-13,3.5953653434000476e-08,-45.284367589586694,-12803321.825772742,-264.7972136482283,-0.12380188825277935,27.87354641264703,1.8291408880132183,0.0754333564161982,-5.123255881051239,-2.2733144289773675,1.4011445817206518
2.1238784258753986e-13,3.9211990092470465e-08,-47.242532676192155,-13046271.065375105,-268.5080228887347,-0.13097620359995113,31.049622134239723,2.0660024276560733,0.08179361693408975,-5.237845958043333,-2.3212672834410766,1.5080609025948586
2.1906109439663378e-13,4.040472757426748e-08,-47.95177995661748,-13292162.008245876,-273.0068011816157,-0.13390355345997407,31.94723112500214,2.1282347667847503,0.08407765298329246,-5.339545668769792,-2.3514614148588326,1.5467454196655155
2.2415533806574535e-13,4.151352033230149e-08,-48.218816116206,-13340859.498551928,-273.906663715456,-0.1352439197060426,32.53545931126481,2.175968326536554,0.08572620763169218,-5.397605017597942,-2.339443577981685,1.5594249001768576
2.283743893515358e-13,4.172995618097006e-08,-48.33881933466382,-13787453.354403827,-280.69936946207594,-0.13630930567222632,32.463991086071424,2.223676663492903,0.08570860914732378,-5.485655259616124,-2.3991051060344946,1.604897222381326
2.2684216858663802e-13,4.152749269084867e-08,-48.23968364472739,-13625342.697878987,-277.637337862615,-0.13602792936155028,32.56044765705235,2.207864415313815,0.08553029843039721,-5.436911846523547,-2.374463536619884,1.5914726302076456
2.2555778267885081e-13,4.1815269715133305e-08,-48.78981647323534,-13651207.685090525,-279.97935340570484,-0.13616999471543303,32.67833210118293,2.206894293352506,0.08659203769931015,-5.500225813892323,-2.3973215035625564,1.5832550770648435
2.2643930884223005e-13,4.192005143348797e-08,-48.81954022222387,-13695971.317576138,-280.8615599701229,-0.13540193340204587,32.59242632035821,2.2391178440395687,0.08656881536642487,-5.488444092312526,-2.41729105354191,1.589849711199857
1.7734904276046727e-13,3.509536806362281e-08,-46.04488742150024,-13626926.520291807,-277.76077404722906,-0.12466538076464014,28.548775314732943,1.7657505895047505,0.07632678956443255,-5.270686840000615,-2.399134495278618,1.4328009859603903
2.3078716427338536e-13,4.2710807712866e-08,-49.20220652109035,-13644569.627856553,-281.7963034579243,-0.13803040794096455,32.94415824390323,2.3024862149083565,0.08689783410934866,-5.495574816247967,-2.445100271594212,1.642570355569075
2.268828457815381e-13,4.191350696672371e-08,-48.669819258811145,-13084146.00719368,-272.94036379537056,-0.13541835470442312,32.36377322471152,2.2852232137431043,0.084619494450205,-5.307282213841504,-2.3886620202066453,1.6150197442983747
1.6371579039266305e-13,2.5979261370912678e-08,-39.28752031274335,701563.9465019507,-51.11751993520275,-0.07472532591305997,24.43687092463151,1.8850686692812517,0.047835820417683764,-1.2431901980480762,-0.7484344748082891,0.6074161130735737
1.7020136561422929e-13,2.7396249406446016e-08,-40.07669931696047,763223.9818095453,-54.54185891095908,-0.07786536630220352,25.02193785994802,1.9217089060816186,0.05003610973292247,-1.3305154300226025,-0.7879523553730725,0.6489682872121828
1.5145138090320987e-13,2.566465702651988e-08,-38.84842056493677,742502.9084661733,-53.79423692704844,-0.07502880235905837,23.79779409519742,1.8048745442337892,0.04732218564903365,-1.3010418351191735,-0.7801911390279886,0.5971140305686191
1.4458773192397718e-13,2.5135127439664896e-08,-38.563897738265815,736508.5064917677,-53.75096420308714,-0.07192134340106104,23.405996209079962,1.7806456845277958,0.04638172027653262,-1.2916935065964597,-0.7795415954160536,0.5797601519350077
1.93677911161347e-13,3.023747036621255e-08,-40.95210371571949,757088.9107643912,-54.57561469400251,-0.07181181204634748,26.432144284136267,2.1473409304680113,0.05354679819037714,-1.3592663945196932,-0.7959791805150391,0.7021786879256539
1.8710874615497235e-13,2.9894176122604114e-08,-41.13044276821305,760856.3785570619,-55.05391638784385,-0.07212084480146481,26.33457614765092,2.0727201740536176,0.05340807176856448,-1.375606028797267,-0.798424909063967,0.6879217825304865
1.5467870102256042e-13,2.850363352963009e-08,-38.349356694450265,509274.31160426745,-45.525624640862716,-0.037346807099972554,13.119983303533536,1.896615993851827,0.040965461420583375,-1.2254306419859802,-0.7027689313508612,0.5905167213331783
1.364523910644516e-13,2.658782311839539e-08,-37.90006421986903,499797.10280347185,-45.324865700721936,-0.03645909321103019,12.377421493971442,1.74055191293473,0.03869111908762177,-1.2107530012152268,-0.6995358517655517,0.5475841507243384
1.477026732634877e-13,2.8210906667527965e-08,-39.0307246907009,519122.2906581567,-47.01274203063358,-0.03880221897696499,12.871182496863316,1.8763900765550388,0.04056196396423467,-1.259448267125432,-0.725040868896282,0.5781577591544996
1.4073701978833652e-13,2.7637767412199638e-08,-39.20267036441419,530575.4179001612,-47.97276249270186,-0.03902765362393522,12.78224587462142,1.859334003085588,0.040057403648055455,-1.2714613521265217,-0.7376876469485594,0.564104222223849
1.3592982124318258e-13,2.8718006207848235e-08,-38.121900219800395,373836.79288401385,-40.28744448628737,-0.032024728756473705,7.167468763328619,1.8771486527570307,0.03314693892201358,-1.1474121669571158,-0.6427725907008593,0.5386892048221248
1.4336313991602887e-13,2.9762870497020598e-08,-38.76329183312056,376622.2640440162,-41.07650223357064,-0.032553086227236655,7.335978681043358,1.939972986993937,0.03413389491396523,-1.1785214843603549,-0.6715975817585699,0.5648080945031606
1.4573381095384813e-13,3.079499893551826e-08,-38.83505035409957,382743.55046826863,-40.81029168901819,-0.03249231672431525,7.50800746125037,2.025401608833444,0.03435838213611701,-1.1667535891700747,-0.6498221325338253,0.5578187905950368
1.3180863948030625e-13,3.058945420541375e-08,-37.405153352552354,284008.805726162,-35.404595220220855,-0.027854152236494557,4.538815602030862,1.9671501544959007,0.0280635544790354,-1.0672188140165177,-0.5948887677660605,0.5138472733874646
1.3488832352535571e-13,3.084183185396388e-08,-37.299946577634735,277957.8913599141,-35.23809966548819,-0.027576076675873213,4.453900811722107,1.9504163500548817,0.027959693011737327,-1.0721189275400775,-0.6092548583250469,0.5326342522510822
1.3171834868746498e-13,3.0854920139856086e-08,-36.618815785965545,272438.2418985467,-34.558148142268855,-0.026516832027537355,4.258420985854402,1.956368796274896,0.02697402894870092,-1.050341744612787,-0.5964673694872631,0.5212595862216531
1.2507747369593405e-13,3.0077028918329134e-08,-36.415491653335216,268896.81187505636,-34.250499695524894,-0.02635492933373531,4.188175454044967,1.8869401718104883,0.026543732168585823,-1.039161427239008,-0.5866372611292145,0.5030858910296317
1.188262914444914e-13,2.923156352242328e-08,-36.22144572079658,270316.4383014823,-34.592211583263435,-0.02606577369928075,4.132677584595964,1.7908388249011522,0.0261435481385642,-1.047442583110042,-0.5936416004392224,0.4923799947163971
1.0300820562799899e-13,2.6825523627668783e-08,-35.11265680869789,262614.2984935805,-34.14235177792072,-0.021975860604588678,3.8383718841877617,1.6197766332053387,0.024590331283788958,-1.0318958906681954,-0.5836410936796004,0.44784140253060734
1.0245210714958243e-13,2.6972500886948927e-08,-35.040567636416895,260248.84888624144,-34.17650677281093,-0.02061412298987412,3.714280618121038,1.597893508441515,0.02430187846237577,-1.0423365006274328,-0.5895349915170303,0.44975432195019155
1.0427482192940799e-13,2.7383718928697553e-08,-35.527709579037996,266361.810406223,-34.802603332447354,-0.020971237625186646,3.763392049299208,1.6224324434717745,0.024699460906352853,-1.059829259194284,-0.598848880135553,0.45752789723569887
9.580042143209482e-14,2.5967312990072153e-08,-34.82092149557678,263975.0101417597,-34.897264785516995,-0.021605062000720068,3.6036979200899006,1.5513660990094524,0.023490456026311845,-1.0487258511671553,-0.6054076574819588,0.4374199373034537
9.073563328010401e-14,2.5123564386083792e-08,-33.758277865427225,267930.29241564457,-34.91070732046164,-0.02091851275699206,3.5287990069375423,1.500409471078824,0.022359301300475958,-1.0312839426608185,-0.605976561874515,0.4272795591445135
3.505963653376385e-14,1.5925696193084488e-08,-29.6426438776911,241747.7591122523,-33.74186834110234,-0.018103963008166,2.5764815119041407,0.9875293226124483,0.015848544289950285,-0.9417040147560259,-0.5918673035545561,0.2534421708179696
3.2469611390202916e-14,1.5823079216250904e-08,-28.960529419129216,250349.38134067645,-33.84472786887351,-0.016096239940186392,2.6010395104392017,0.9804534057194327,0.015258350880189283,-0.9267901178042107,-0.5787806401457986,0.24069462451885562
3.6091810979579934e-14,1.663256952074464e-08,-32.58371292449624,279375.00028830965,-36.790281606633,-0.04607804956048883,2.8803044883726656,1.1129708132473053,0.015796797063545098,-0.9327902249532087,-0.6146355538632976,0.26469371573945355
2.936059747996378e-14,1.5955385875290386e-08,-30.986450728838484,189772.47037533237,-30.61947628808961,-0.03677050693824035,1.443579124699617,1.01823998075149,0.01190028216305137,-0.8260415739988006,-0.5505960615970185,0.2327565412674592
3.7355731646973186e-14,1.8236895567694027e-08,-32.42966598579055,193469.32056554657,-30.75617761721189,-0.03393033418167048,1.6165085351889203,1.1372280889583575,0.013644964691320663,-0.862959840250165,-0.5542099521659278,0.27248174319189983
3.250073790398506e-14,1.6590071743914515e-08,-31.243450956703384,192896.5156141568,-30.398401523630703,-0.03241619402845478,1.5060267386478792,1.0178115937039631,0.012664908301370409,-0.8391779040120112,-0.5411353013810826,0.2517888245182765
3.9823692207212605e-14,1.9098766306858857e-08,-33.29656803645226,193375.47071235802,-30.752052771568017,-0.034996044476247004,1.6795030749543178,1.1867794741460522,0.01422896005465189,-0.8759151381118582,-0.5470658982362158,0.2831959091910776
3.9753759994307844e-14,1.8912653722086496e-08,-33.3192160586691,193855.07887226893,-31.059214186944878,-0.035967191427747236,1.67000692097345,1.1939280974153956,0.014181035464291995,-0.8825290313021681,-0.5523083216548141,0.281257776173765
3.982911739028785e-14,1.8663684367663577e-08,-33.09864738390601,191130.11120752076,-30.845645433303837,-0.03574892637822932,1.6503561921953873,-0.00456673424617062,0.01933668497241341,1.726078401931469,0.015440360393533567,-0.009944309564979418
3.831019056977938e-14,1.8051569196325383e-08,-32.54766888240236,185121.89884420848,-30.480552723368337,-0.03184221222308771,1.5834989742309307,-0.00441544337990721,0.01889612066104629,1.7193366312312168,0.015361248247459965,-0.009651179454306854
7.30389891064021e-14,2.006894265634873e-08,-159.3587715268415,961403.6207749128,-122.57525941905114,-2.0159772137356935,5.709456173199435,-0.014380667542230365,0.020294538763478115,1.733479335839949,0.04401017284378086,-0.025520375335179733
4.787907377846018e-14,1.6569624444022534e-08,-147.1687217647216,962191.4047364992,-120.76895010936921,-1.847375810051574,5.169392162022791,-0.011819874538946949,0.01683836152206557,1.620983296491696,0.042685538276213825,-0.02018918625657823
4.904309877042867e-14,1.6848740494398474e-08,-148.51753319931717,959715.8316402963,-120.74407743675367,-1.8681351655560303,5.261949364262571,-0.012113771058943472,0.0171744429597555,1.6280503579901986,0.042730179561891624,-0.020500032751777045
4.90550478844839e-14,1.6889110239451064e-08,-148.51152020185702,954153.8469751634,-120.38115939821456,-1.8930011452184863,5.271982028067045,-0.012105011003150316,0.01716382035954389,1.6222757810961645,0.04258913724786958,-0.020535626375694466
5.205097941777971e-14,1.9434375038758276e-08,-148.81050738599535,1173790.2040384596,-128.29623262937875,-1.916567498254382,6.470653164877489,-0.013499130998579587,0.017634199975297294,1.6315277316184669,0.043172539893789844,-0.022579631112914545
5.653079121005965e-14,2.1183571917702748e-08,-153.15417962052393,1240914.1481219877,-131.61699246932434,-1.9992697486363535,7.158701039863744,-0.014606122104228925,0.01866363137766536,1.6769210464598954,0.04353778321373175,-0.023843972793842903
5.578121530883827e-14,2.1186727152902816e-08,-153.8547828056072,1270508.6401796897,-134.18784567414164,-1.9949946635736746,7.283426912075019,-0.014367767035882195,0.018866579361796993,1.715088686470744,0.04315490491133449,-0.023269211144230025
5.286270390165691e-14,1.9675695376164777e-08,-151.34957130065973,1191934.5115889083,-131.28864265791705,-1.998186299881073,6.666148495899781,-0.013664309242815207,0.01828288243676458,1.6906503711098801,0.041839678430181645,-0.021736677576209288
5.721265695889657e-14,2.2890993677584503e-08,-155.3942175465733,1402549.2068814873,-138.09288501831992,-2.096026876864132,8.218898010746504,-0.015135277899911809,0.019312171187686383,1.711950730602418,0.04406305898611134,-0.024730458912216403
5.4532765390246785e-14,2.237690285838982e-08,-153.1033299188368,1381540.5934488885,-135.1389673700927,-2.10487579619603,8.144924524293254,-0.014338739583515099,0.01875971986843876,1.6755628590816432,0.04361617712399012,-0.02444684011018398
4.7746716014135406e-14,2.1023533696891696e-08,-148.21582825466734,1331729.7250634793,-130.7163390589657,-2.0482469470202664,7.814935913174299,-0.012460758930272238,0.018105111322181358,1.6580998936596822,0.03939208348074862,-0.020931792897090715
4.3365654941890766e-14,2.0073401601859452e-08,-144.89046142675124,1312109.9854400442,-128.64593923318347,-1.9927291459237606,7.621391468871066,-0.011690041672951023,0.01737279644551288,1.6355805897073923,0.03724995249149029,-0.019349570145877296
4.1923689239827073e-14,1.9377329657937796e-08,-143.97293332118684,1294160.598212027,-128.79188871686512,-1.973935629153369,7.3842804527383885,-0.011360941835712424,0.01705837603708834,1.640013154520088,0.037121376639551354,-0.018829543968995395
-3.000470023700726e-12,-6.282968640082022e-07,1863.8765944653928,-1934514.6992266863,361.85234883695654,31.223517867912808,-75.37160796137644,0.49933954867514224,-0.46570451584105493,-1.1731391061542817,-0.7770800676548797,0.9137747443977476
-3.917972515266539e-12,-6.56899084215536e-07,1924.3641976849087,-1861322.4387184945,373.11368475504736,29.933286217998408,-67.52252883292248,0.6058010482264801,-0.5109172789313796,-1.2200373035984007,-0.791085489031819,0.9571064742684449
-3.5667311196449098e-12,-5.566819025903703e-07,1871.2664030019912,-1540168.8145831916,354.3776465443696,26.669774433066365,-52.72960220164911,0.532020924278997,-0.4835172500305312,-1.210531567043206,-0.7565047475690582,0.8313817405738648
-3.0906947505290946e-12,-4.783381336746879e-07,1760.1838505869614,-1403459.7800340785,345.1044795929224,23.506980668803674,-42.988179321104454,0.4894662607162298,-0.4466448136691402,-1.197547484846171,-0.6468594861981843,0.6260272298549301
-3.6222398108592315e-12,-5.599787551009083e-07,1844.1440390655875,-1558996.4656706727,358.29347330103633,24.925288220711366,-50.3993458153099,0.5727323274577045,-0.4927403810932644,-1.2254454490820166,-0.668492960674186,0.7021320708732615
-3.47870486673498e-12,-5.533272144137862e-07,1838.849177799439,-1543564.7983312856,355.6198158290772,25.96984807379952,-49.80514259037162,0.5460856178793381,-0.49064201571068383,-1.2251508913081421,-0.6574509787579044,0.6752309292456111
-3.1848980887864735e-12,-5.180470684617211e-07,1807.617961432975,-1401849.0816841926,332.13234195639376,25.164789543271837,-46.45372012781858,0.4651655432110376,-0.48081357165474864,-1.1883637721931437,-0.6032879885790244,0.5916045415271435
-3.227253809827151e-12,-5.473151610958803e-07,1800.9900400616616,-1530883.2711182262,339.1705044829851,25.007831950294207,-50.83773246502597,-0.0014994451978529997,0.1008700946680736,3.670854687257551,0.3154393457589324,-0.13247397261897978
-2.876550016131072e-12,-4.3777022594877765e-07,1642.7249415873523,-1348912.1182479297,330.8537338877335,20.052966387407952,-36.093099091898196,-0.0014524247925761609,0.0916782236956543,3.6208706450027055,0.24151234848430742,-0.08599134085614142
-2.751395192455931e-12,-4.1119343772407187e-07,1596.1672134206108,-1308196.7051698097,326.41847393306557,19.403899097255632,-33.242210334602504,-0.0013918501868824787,0.08708873895557222,3.568383480466624,0.2362707036437294,-0.0816779677360182
-2.3274144180136126e-12,-3.774084786070281e-07,1541.665820202738,-1327461.227628426,325.843183956926,18.96571827963805,-31.751085802052234,-0.0011623997614967692,0.0802347788017779,3.5374109264115003,0.23685567443213423,-0.07743227740777772
-2.0626957013610494e-12,-3.582700586065588e-07,1471.6673394778127,-1330298.0017089772,324.3991391440765,18.25476652038651,-29.802681655964527,-0.0010578490652446747,0.07525055698835134,3.497715387291162,0.22722845518700613,-0.07093981842174131
-1.8728225217471558e-12,-3.3985382083305754e-07,1420.7407119009667,-1324770.2452575387,323.5397807234744,17.77291016616752,-28.282463968590957,-0.000988386304817832,0.07172371042849676,3.4731118757789683,0.21767114375421587,-0.06542352570367517
-3.554044031484495e-12,-6.064183268946538e-07,1672.1122667678221,-1362925.5497137322,329.63331845759126,23.832232229460764,-41.77890753407283,-0.001913276525040793,0.10969303003515493,3.825322147279248,0.2097719886773723,-0.08825275813212786
-3.3847376038223877e-12,-5.773376588094765e-07,1641.446369319574,-1322919.4797207385,324.7838709520308,23.27619736960684,-39.58586883743974,-0.0018229054571845208,0.10624641912452004,3.7772373444752194,0.20560394401212376,-0.08411354837352299
-3.3048556462328507e-12,-5.741722167210549e-07,1632.0906601788686,-1237332.4460465496,311.50142260045857,22.43871714918815,-37.405667329480345,-0.001786717471220628,0.10549996331844358,3.715430819193473,0.18947084915929704,-0.07651481289393314
-3.2409128654346888e-12,-5.771243418187689e-07,1617.3806754075651,-1246357.8259516389,310.2478002861464,22.074557859495997,-37.50127815124548,-0.0017725801662821351,0.10468845471208717,3.690268462951097,0.18755469011844209,-0.0751638527317025
2.2138497888872743e-11,1.8220576236130617e-06,-1225.6417564367962,1426634.0369252034,-331.89982604813605,-21.172295344549426,85.403748724381,0.013337687688124615,-0.15137751880209513,-0.5611497280101791,-0.7043762624920775,0.5394994490488206
2.086739297435945e-11,1.517954169768521e-06,-1135.065649524868,1283352.2876164722,-328.63067972157836,-16.935966626958397,62.97005320029988,0.013674202313002308,-0.13988797178615078,-0.558038544278828,-0.5572826868232542,0.37275889665820466
1.8113943669566527e-11,1.423849569808974e-06,-1107.0656939527782,1281312.5318001688,-324.2372039562011,-16.67176685059305,61.379927345459514,0.011793928813952128,-0.1320100648111485,-0.5454803447361117,-0.566850646264322,0.36389032072608696
1.8085364291692394e-11,1.4594009996772986e-06,-1103.4483513552698,1349581.726882567,-327.9424538245521,-17.001527980846586,63.4791531751907,0.012060279050123822,-0.13078055553243614,-0.5408949822830926,-0.5582550759050724,0.3676177303815885
2.3124828079651504e-11,1.452699261213956e-06,-1210.1160911038053,2267860.8373257704,-443.37732082450736,-24.303523226845964,128.08434916446933,0.013338035227913056,-0.19360413352919376,-0.6618779163116774,-0.6765463354908258,0.43850732437515805
2.184883356163127e-11,1.3653182403895007e-06,-1184.3938399944923,2181524.370242951,-438.10405607794405,-23.517667561333084,120.14795875921541,0.012713425877994363,-0.1860819705347116,-0.6586249374224243,-0.6521098689018453,0.40840157195222715
2.6909762401601036e-11,1.5595845733447089e-06,-1210.8743234849294,2120530.5641073915,-441.98317246941076,-21.974397647736048,125.39199591382742,0.015735751926266636,-0.2073389120696146,-0.684484660075087,-0.6365590925672822,0.4240991653229078
2.6746498566968355e-11,1.5663944325513175e-06,-1206.13963947989,2112749.5424320363,-442.1086422179368,-21.822089008748346,121.76276976994072,0.015612486389968937,-0.20567373921642912,-0.6863985641400046,-0.635849613560527,0.41833159314990004
3.264170624602626e-11,1.8083153849092505e-06,-1277.1234047214382,2187800.0106056063,-454.88204727359573,-23.274794118494793,136.60943588242972,0.019131905422254424,-0.22659004326798643,-0.7064556933741926,-0.6671991373073917,0.48320988202569487
3.736165453113354e-11,2.0429232284416226e-06,-1364.6432701270523,2284819.8749475926,-465.6457296329179,-25.192186982022488,155.13533423021497,0.021560406081599516,-0.2474041554800555,-0.7313899199809482,-0.6973329529175314,0.5433126856494526
2.1119479705731483e-11,1.3509561308777783e-06,-1259.5884431734314,2257411.682577114,-454.38686266887584,-22.911442464739697,121.75507083969686,0.01312836597189173,-0.19300489103174923,-0.6872730894533937,-0.6143706699307534,0.38747033032163625
2.2750352429968342e-11,1.377990712121713e-06,-1248.7550474577247,2218675.063160826,-465.89827259553243,-22.366915965356586,121.00853754853453,0.013516158660995639,-0.19867780315616682,-0.7220791900483972,-0.6464864116182065,0.39803962753391925
2.2138445655837527e-11,1.3266457305878644e-06,-1243.0774537423615,2219280.513033859,-471.3004340466596,-21.765729231643228,116.43169571486295,0.013455343894278524,-0.19635351907466603,-0.7269328108929757,-0.6314802079504622,0.377883992308143
2.1421081207106983e-11,1.2225865158857e-06,-1259.7743075342187,2179827.6755390856,-463.4887477004639,-27.387866099245322,107.50320206421074,0.012993132061354199,-0.19034609714577613,-0.6959471686259764,-0.598261751743428,0.35372173729346484
2.5757574547256705e-11,1.4741871001380393e-06,-1316.1311209056626,2180246.134832437,-457.9386841259445,-29.754969532053266,122.27414660210151,0.01567019370038432,-0.21881961075257078,-0.7083983177490291,-0.5789197432512677,0.36909673032139245
2.6091904018430235e-11,1.4910668384696383e-06,-1323.3233170460971,2165827.157016982,-458.63331263860596,-29.65423086697179,122.50117976075508,0.01617924432565896,-0.22203587027527438,-0.7125300693122208,-0.5660026271505053,0.36027963286271175
2.6050752109535122e-11,1.4800236831428308e-06,-1319.8498370055804,2194405.919423945,-465.47526898989247,-29.64512037923869,121.48583817408293,0.01652044508822104,-0.21878376264839097,-0.7157832783666056,-0.5859706909733141,0.36518858246354247
5.0477685225592016e-11,2.3354619529653456e-06,-1582.8288094265586,2355841.525778163,-472.7693782522204,-36.3524882940488,169.34214556769138,0.02541373419249498,-0.31849739970544827,-0.8062763821154452,-0.5932156061514744,0.5732106612497357
4.833711752946632e-11,2.2524022157197183e-06,-1547.7228773255322,2355389.8525229865,-472.9928634778969,-35.11682114850752,164.7327298796215,0.02408864597895445,-0.30826547521979464,-0.8039232931752311,-0.6003972737124048,0.5672951710919896
4.271047271749464e-11,2.1874899129814012e-06,-1536.1825623195232,2390232.9141933806,-464.8005800184708,-35.52354991463168,166.5835890907418,0.021545449839369075,-0.29813438159722183,-0.7861257375766626,-0.5825454666353942,0.5398751550219191
4.9828399058369215e-11,2.4457009077481645e-06,-1594.1815747800738,2388896.045889249,-469.2339703369824,-37.0482185004567,181.05107999017284,0.024623556293010697,-0.32409592347542554,-0.808641007368339,-0.6044439343957067,0.593117375647318
4.775824527267442e-11,2.4080556979497607e-06,-1588.4654725575638,2364909.1620520833,-464.09810684806837,-37.133527590619764,180.05562126422524,0.023959071164105665,-0.320336523710284,-0.8000562536964396,-0.5920226279570682,0.5740403425523826
5.122790899942128e-11,2.4577971251598305e-06,-1600.2913088787163,2276701.1237856117,-451.97931060627076,-37.56330027240977,176.43578343063228,0.02556401876566574,-0.32717621693754173,-0.7853115597428858,-0.5693462183455206,0.5683744700860204
4.2573544065413474e-11,2.3859889782049076e-06,-1569.6972587597947,2256360.772795517,-428.4778959239798,-38.16351195381984,183.62843852314546,0.01978232100347317,-0.3192380281281313,-0.7632637808783158,-0.5384167633758842,0.5166757704963667
4.127378984116475e-11,2.325079037844823e-06,-1550.6317466340745,2218995.6955441525,-425.4638269369957,-37.33531315497189,178.72033431132675,0.019186165155166603,-0.314056840123411,-0.7612473446890586,-0.5299781932156354,0.49721184600801077
3.643227871455519e-11,2.2118340274341912e-06,-1517.1782199796107,2157698.0031773164,-411.6045980355748,-35.471644922186684,173.35078666963383,0.017276604994084906,-0.3052963011344587,-0.7440990498436714,-0.4853102565042126,0.43376921669250984
4.028184000134981e-11,2.32982362472625e-06,-1527.6968797996344,2150607.429264988,-420.64045797701283,-35.83895245255286,178.93471777454798,0.01804979689417548,-0.31870178328521376,-0.7771947164181573,-0.5217146662397821,0.46627183756612595
4.571461203745948e-11,2.493584029120888e-06,-1563.829968545368,2188551.7505483744,-428.5272459026342,-37.00667818440424,189.52020873075102,0.01974125748773421,-0.3357439845533083,-0.7958637483385389,-0.551759926700688,0.51818023372261
4.317847972813026e-11,2.3865502773793125e-06,-1528.596370055067,2154796.4780391287,-422.3497002940444,-35.45557110594024,182.85118974687066,0.018885823681098524,-0.32442404366908556,-0.7809386233986273,-0.5371746638460956,0.496686745378378
4.233127963182525e-11,2.346100135696234e-06,-1501.8243048202232,2165600.0274431976,-421.8155418466142,-34.473531122622475,180.36577574300554,0.018466003563951634,-0.31575577322439075,-0.7745752815400734,-0.5421513568462555,0.5030107756709409
3.772056727974662e-11,2.2088241355707714e-06,-1485.1507109444522,2186345.6655854853,-418.8235957002687,-34.754599285902174,175.5331375233708,0.017099895140533592,-0.3026886091111232,-0.7563833635401658,-0.5266901506167715,0.46912226882535085
6.90613366603824e-11,3.58693971819453e-06,-1816.7339960939992,2108293.2590539595,-419.8274499380163,-44.10463546484381,257.01616534517916,0.029698323321583654,-0.4429767536645345,-0.8633003211130612,-0.5032035636717745,0.6260875154552973
7.113870998333356e-11,3.6103386269177887e-06,-1828.0368441494509,2100483.9390789145,-417.5686706912342,-45.80623167795134,257.00446059041826,0.009073864001655376,-0.17804681612375872,-0.5672630674657924,-0.23945269715280657,0.09775967192623042
6.343913567205355e-11,3.380859203462256e-06,-1817.0339068467908,2107326.8482430005,-412.08588935642086,-45.298336075913376,247.80463422205307,0.008439424809623695,-0.17075961232161668,-0.5517457528774008,-0.22662004896150906,0.09011779437429808
5.967586900882167e-11,3.1941910031585145e-06,-1784.789376574353,2086297.4090202432,-411.9402928152549,-44.0635523740578,235.23833801854212,0.008009001767603592,-0.1636521904681506,-0.5472404223762987,-0.22645554052084693,0.08796930312673015
6.862879981406623e-10,3.2191537476947935e-05,-6259.926212995255,3517222.4778912985,-557.6382367157595,-156.90081577494786,1720.5710179691357,0.09215984096259316,-1.203841071040838,-1.2590888267937859,-0.35206206110559674,0.5438627436345717
6.763667955424014e-10,3.221089960729664e-05,-6249.950805158868,3576160.6143966992,-563.4561561912889,-157.52404547687786,1750.082968728101,0.09084886494999729,-1.1982752915253347,-1.2686251849780927,-0.3593999407897873,0.5521815210564347
7.459812750032886e-10,3.3316703307120886e-05,-6246.751721749336,3730084.1769373463,-586.279566444575,-155.62934097905801,1710.3680183840106,0.10055540748355801,-1.1881278219406308,-1.3081563442105693,-0.3732299674841324,0.5767272776383734
2.583151253918831e-10,1.75349351820222e-05,-5109.715580824515,3701175.432820222,-564.7806159305816,-124.06424088479753,1091.3030442486045,0.03419066442487627,-0.7536619748396336,-1.153486156287198,-0.3951274400079341,0.4451373641970928
2.421668851554605e-10,1.6698511244372955e-05,-4998.050712248643,3589785.402203426,-549.4444117087834,-121.32339934313381,1039.6877904419193,0.031217007513273283,-0.7331761539283169,-1.1324572732646285,-0.37618274111624717,0.4139105447631126
2.3265361359791846e-10,1.6322142295902055e-05,-4943.425328419587,3573503.8902073237,-542.9847564923871,-120.55545770914655,1027.2086097924252,0.02978243318505203,-0.7196584648813333,-1.1195073434233358,-0.37059642922873165,0.40238904417913995
2.586495432593057e-10,1.71622010427164e-05,-5047.97853105295,3696313.3792472263,-557.517367722111,-123.64518688533224,1065.367957189414,0.03230824019888019,-0.7464087828739799,-1.1381061582886054,-0.3975457688987382,0.4520257905117772
3.1123263323523934e-10,1.8999407530360744e-05,-5282.807661879379,3824516.36502593,-578.6328594708586,-130.03348874539677,1136.4057982535876,0.03785674417716897,-0.8056605136292061,-1.179840958226965,-0.4381946548375978,0.5268719590555038
3.546021319875636e-10,2.108181500965563e-05,-5455.736733315758,3785471.9792648796,-577.389199349138,-135.87930108111422,1224.2558448479754,0.04330742329885353,-0.8676465083537788,-1.2015675552009166,-0.43087734114792464,0.5511514807632536
4.0037519822358557e-10,2.3292506337296886e-05,-5585.849526385087,3824385.9080165476,-583.536047939916,-135.3073618268818,1301.6360362212415,0.0490899005917714,-0.9242653166095841,-1.2332840130169613,-0.43388310903920996,0.5800846849687472
4.1648984207093785e-10,2.439056241088741e-05,-5702.793991851532,3949069.5169068137,-589.4828270230257,-138.84998346892365,1373.278244960856,0.04987041176248739,-0.9518542936867282,-1.2457421853855537,-0.4433616153949783,0.6126612554256866
4.2180162248009583e-10,2.4392139643041586e-05,-5686.029035356442,3887948.392956943,-588.5850973271738,-137.48185217254704,1357.8823192843536,0.05067751097497604,-0.9529215409276934,-1.2453176542552307,-0.4480224444339474,0.6148100788898484
4.092689159916193e-10,2.4093149431118153e-05,-5657.293235047529,3889017.1447079903,-587.5412815942933,-137.24790844709364,1348.4940213116042,0.04929136616887304,-0.9424841246563672,-1.240641273217597,-0.44643640181146327,0.6060915670764446
3.76220201596866e-10,2.3034560927344337e-05,-5542.3871754735865,3845051.5881300247,-580.4555518253562,-133.96288551811534,1306.3081841463215,0.04614973942742771,-0.9055869579874368,-1.221669192061943,-0.4372050415351476,0.5764364594612753
3.2426795581209056e-10,2.1050891275196347e-05,-5424.183080560549,3857804.117315521,-580.6265557852323,-138.12783091245151,1226.909815238466,0.04093042377466663,-0.8445991665657938,-1.2041135870928497,-0.43338736851002535,0.5346055944267758
2.705947173647844e-10,1.803286052011118e-05,-5227.720299909337,3787487.326869235,-579.38546940286,-132.40995443489928,1094.7748450615052,0.03414855916237893,-0.7551674871950188,-1.1886991995040939,-0.4301347367835819,0.4891343751948017
2.696713920369075e-10,1.8608117307610198e-05,-5212.142615688583,3690616.067093072,-572.7208209070361,-131.04682090472218,1114.887338719189,0.036661891151070734,-0.7599732795789972,-1.1730526269712866,-0.42672504409319767,0.47272558992332
3.0406588288637485e-10,2.014875535368886e-05,-5316.563457630745,3720905.107735001,-573.1932777745892,-133.78355283352235,1174.5440736803655,0.039942303726170685,-0.7988573312656211,-1.1822005605821517,-0.43506251431009374,0.517575307509008
3.3670817154221723e-10,2.1717518513591878e-05,-5458.3423313957355,3748253.2692935187,-579.2484738537981,-137.6156503908818,1226.3709044729683,0.04356771239807437,-0.8421780621144298,-1.2097624832904796,-0.44163892109388064,0.5469439365317006
3.3543395087141716e-10,2.1745384444871085e-05,-5465.3831905359575,3727716.635874848,-579.1265830972795,-136.69795511845348,1215.8297624294562,0.04356447018626206,-0.8400407730441964,-1.2103995933587623,-0.44383144720137213,0.548500824116952
3.2895437322386444e-10,2.32765043036501e-05,-5444.635844733404,2851040.0660851505,-515.9714169517804,-110.75697794893293,766.6116428923754,1.5339224543094074,1.0608680919748879,0.6102036322725143,0.13027665581228345,-0.08509959591022181
3.295274139749179e-10,2.3204395879436085e-05,-5418.044086623521,2835698.9921909515,-516.5641422571634,-109.98795100083333,751.9685487046431,1.55035154682976,1.0534919943358398,0.6125066133871163,0.12841392178940808,-0.08333558775408186
3.309549221386669e-10,2.3238987322295884e-05,-5369.47554670271,2743012.9267672114,-508.69926138385676,-107.7076001972823,721.8137767472268,1.579735057179687,1.0387377894947123,0.6073141453214939,0.12669994923753616,-0.08183553418513058
3.418667677847325e-10,2.3354027693800737e-05,-5364.032762632877,2732092.0186997303,-508.66738644924925,-108.56682017618735,736.5696092654548,1.6150705645544474,1.0594809124017244,0.6091869901739612,0.127489446225578,-0.08248567615405616
3.5362949618370013e-10,2.4704364571471918e-05,-5433.648911783366,2846802.441886893,-515.3934021610266,-109.64453180293944,783.8652548788823,1.6767387773481814,1.083486023082878,0.6126958973954741,0.12966992065962823,-0.0862576586901111
4.5551191632536623e-10,2.6274554881201286e-05,-5505.2601125510855,2753799.066114739,-530.6921966869967,-101.90449153313044,762.4430641829016,2.149192771513624,1.1256462168095176,0.625507809687301,0.14969100586472578,-0.10100762401069763
4.1405912771142075e-10,2.5130108032706538e-05,-4703.761359497007,2120830.100645828,-455.2760741522135,123.73999951443933,654.6087716698939,1.809770689951965,1.1024607765508874,0.6158901084867201,0.14051631027315478,-0.09250964935451444
4.257583588945839e-10,2.8432455606349555e-05,-4674.257020299665,2485626.1184289204,-475.9769366808863,124.34264499287548,783.3184311532824,1.9717581427072888,1.1159256909269069,0.6132281170123518,0.1436468264873328,-0.099537179191211
4.3202783612400246e-10,2.8193562208657615e-05,-4701.317367615711,2350050.898656374,-469.93986838489394,131.4753949133924,757.693882270212,1.977814852886823,1.1171574352038267,0.6136773736787811,0.14483510199601052,-0.09927132954243009
4.704769652616127e-10,3.1682952479675554e-05,-4778.64709940517,2614339.0269006,-484.4974338931479,133.63722107343486,871.617635471023,2.1825775299103025,1.1643915199001262,0.6156825163410682,0.14604278836466578,-0.10808108383326326
4.592758137653842e-10,3.40293927948206e-05,-4773.219855767811,3010468.0998488455,-500.89793150294196,130.3597548575448,1000.784910334545,2.2190269452674154,1.1727487160546202,0.6129508777174659,0.14372665633100662,-0.11155198167401967
4.4949282233393447e-10,3.3550286427773497e-05,-4714.997637231997,3033307.766857684,-499.5715144468237,129.2700716867569,1002.3995190030606,2.1827528877759517,1.157590095145912,0.6085052157439849,0.14227259460272254,-0.10970154985193661
4.351394633220142e-10,3.288980097861821e-05,-4651.3240788997955,2990466.443332851,-493.97849654911516,127.93385621862473,983.9312546758222,2.1236114105955624,1.13851229979676,0.6033361329027354,0.13865279093738278,-0.10629191171490106
4.1786242236845267e-10,3.199813825030838e-05,-4569.505804605338,2954095.1545085455,-487.58309407672874,128.21338799771016,959.0459276299985,2.0725664579142613,1.1068115548092825,0.5924152086841288,0.1349055188027005,-0.10288502390006041
4.0537090207971657e-10,3.158457040780544e-05,-4577.784166174551,2969238.46663156,-487.7412193190325,137.83072225239454,957.9985594354878,2.0013648546475316,1.0968811461064845,0.5915610740787113,0.13324686160151275,-0.1014449841315736
3.941078140848748e-10,3.0721646227439114e-05,-4540.661973680727,2936822.175020177,-484.87016947519504,132.9147756699368,944.339597152031,1.963474189872927,1.0809174688261132,0.5881035842662555,0.13177928977824535,-0.09867657183630295
3.9246213270443474e-10,3.0169353795300445e-05,-4459.443677404856,2788706.378929671,-469.30111978176814,131.15479519463105,920.8955973981681,1.945332567022246,1.058948863409024,0.5709020257318316,0.12982497926155778,-0.09842954738837117
4.098913281628185e-10,3.1257716765111906e-05,-4432.72570117929,2811437.875093223,-464.5302920385982,130.17662815149612,944.8006833120819,1.9847671123251993,1.0659574801588407,0.566171641476579,0.12809031945612628,-0.1020448722173919
3.911525811325264e-10,3.037744170287783e-05,-4388.460630172284,2763776.972238242,-459.9771671138743,128.29070801264882,926.0606304760302,1.8989787032825736,1.0488450920727694,0.5625789527983922,0.12642511764455558,-0.098585858303587
3.90198192200312e-10,3.0366888196539307e-05,-4401.423570328606,2718843.741449545,-453.07982238473164,141.59814280926176,927.9512906454614,1.8733714548187301,1.048503951764664,0.5564242426700762,0.12442291765812197,-0.09870780147015146
4.452216224490042e-10,3.224377679581951e-05,-4610.453300458388,2856235.9188202857,-471.4642778470723,148.61637449189857,998.6441539127356,2.1038609621129996,1.1077373743592436,0.5703973049363198,0.13653486839789208,-0.11275913956716033
4.2281443435016155e-10,3.209646375075051e-05,-4600.355132152912,2912733.217147377,-476.1159007222888,148.347391276522,1006.0316929785165,2.0333267813386966,1.1001728860045736,0.574903511005565,0.1339954114568689,-0.10845433604538339
3.7363726940129107e-10,3.0217527953028767e-05,-4449.743345621948,2855364.1973147476,-466.2589532044983,142.92339533989366,964.1300275234237,1.8516134966216569,1.0433009760262169,0.5624205568681557,0.1266482213864205,-0.0979401456116837
3.5769392101615144e-10,2.977543600147638e-05,-4475.9724078471645,2923029.830245698,-470.6967246473585,143.94274260232328,971.4684092808759,1.8061812049273185,1.033958734682128,0.5635344313009293,0.12595729123116398,-0.09605069032636965
1.551801391438721e-10,1.953824486730464e-05,-3965.5023405023003,2765704.994128964,-463.24519563299447,122.97521647982983,752.8020521687005,1.2428205357974396,0.7604001788288577,0.5220586908298852,0.12296864764622256,-0.05850028277081638
1.6370468621032429e-10,2.0010640102877302e-05,-3984.4578845538977,2763928.9799491507,-460.9458839945025,122.45397766306489,768.4888861536355,1.2832399086350466,0.7755902220030841,0.5220658468138041,0.12261722351122936,-0.06045203011813591
1.5766394544919578e-10,1.941527853119323e-05,-3931.9300239668896,2707178.591290668,-451.7290459106423,120.59759657322503,758.2549903849881,1.2318564862626626,0.7586584253705037,0.512198539408667,0.11973664110600983,-0.05913792266291145
1.669423907733904e-10,2.0077652189240074e-05,-3996.363642957615,2778795.2413121928,-464.2896486610976,120.94367761149248,776.4614218177742,1.3158612173177975,0.7776365848620665,0.5223233732248741,0.12493361063651215,-0.062159016345481065
1.6334086275429594e-10,1.9941549916836695e-05,-3974.268506926215,2718632.6340963473,-457.60672826140984,119.71621301029381,768.50005373556,1.290506947194351,0.7698886526958959,0.5177689836621263,0.12254731809438293,-0.06070350501904842
4.758566974439736e-10,3.8782474434400595e-05,-5668.142545465857,4517409.548362153,-739.4401002211821,170.6578003558463,1361.2974395736387,4.035067892472076,1.1712045668258417,0.6626191887984715,0.29852318230805663,-0.2005820203312271
4.466769500808184e-10,3.747115775166319e-05,-5602.90445478871,4493817.639415209,-730.1836515518156,171.58890079331994,1339.7767641445596,3.8381801276416687,1.1414058919926326,0.6506199325320772,0.28985310483007226,-0.19162068084065995
5.329342954357975e-10,4.0830846997417834e-05,-5885.7254221851945,4788426.342686488,-775.4235853223182,190.43574054014135,1437.5874958262484,4.619207466823846,1.204105489158544,0.6673345747933317,0.33355380513633964,-0.2369068759588376
4.914479879854669e-10,3.9047634382950916e-05,-5706.43713468591,4614266.485299253,-749.5193599678006,184.12188924604501,1380.5724992100972,4.273929381848826,1.1610385230906517,0.6506666024153412,0.313852942971765,-0.21803729759682453
4.863413351133325e-10,3.881427717911033e-05,-5637.411667683563,4566647.636725542,-743.1468206880877,170.55209753932738,1368.2457791626534,4.267499959772171,1.143924205944039,0.645065537168275,0.30939352657071645,-0.2153100620490198
4.5919069267722404e-10,3.7628362277462064e-05,-5532.675547114674,4502572.285416021,-733.5868747343768,164.41847062580493,1338.1671310371353,4.102980484362579,1.1055700272163014,0.6351883229076626,0.3049546742050539,-0.20834178998039823
5.221401799257108e-10,4.020016186842356e-05,-5601.140227311453,4483361.961868377,-739.9563596265256,167.65584920724635,1370.1601232671524,4.507520713972874,1.1672907688875718,0.6471894472403135,0.3169038189362237,-0.22327496973651798
5.376392157252358e-10,4.0327982038559496e-05,-5536.620925212892,4356192.780894663,-728.9521256395722,154.79615958531718,1351.0050493354602,4.575706922464943,1.1712775784631857,0.6416148852770047,0.31754474404811067,-0.22306078072995508
5.224685380790079e-10,3.9750507704532235e-05,-5359.949222255609,4204458.72831026,-702.5598564882644,138.78335144374893,1294.3470884166709,4.390689272686103,1.1374893907384818,0.6276966740612537,0.2961326149139602,-0.2101246023024187
7.115417357666315e-10,4.1030218790815453e-05,-4824.603047336479,7867661.077639132,-973.7646519558829,-298.9307458710989,3239.2620817486886,1.3497286398822934,0.11218623532974949,0.059088968586680585,-0.2937893919582545,-0.06789140240759499
7.112401087256022e-10,4.155320144716113e-05,-4875.966108705351,8048813.40686048,-991.9058209772916,-307.3966708028646,3326.919174673569,1.356537443891747,0.11306243084674619,0.060023171602362375,-0.30056117367765217,-0.06923195374897263
6.917649306067278e-10,4.1453789155434384e-05,-4731.360523574808,7849225.474343114,-970.3250120090224,-299.80044694645784,3252.0627650302495,1.337280625714617,0.11011392923815783,0.058790845715163985,-0.29069980695994335,-0.06713376996114702
6.921586063308563e-10,4.063852150317411e-05,-4622.837711673197,7240902.077320549,-934.9594718268553,-291.65662813769586,3134.1485422949004,1.3325255958393771,0.10692389766968026,0.05687301494019337,-0.2935503856574271,-0.06681556005009716
6.899684812677263e-10,4.120333947194954e-05,-4447.832297885718,7131689.233679068,-909.8751843734321,-287.0493648319914,3144.181181049739,1.3464146561263217,0.10313441299990399,0.054780493426719375,-0.2870464576328786,-0.06666653873557617
6.639286652369428e-10,4.139836317889078e-05,-4459.799027498783,7369740.619296647,-929.4117608645786,-287.1665504882779,3190.5789714495704,1.3021703989392561,0.10374351829967167,0.05612839327646544,-0.2850296257102446,-0.06491676354036828
8.156043278118095e-10,4.13770806882431e-05,-5374.342210787269,7619671.754355688,-969.77932609035,-326.6787931551445,3774.872006835811,1.4539806810498621,0.11615790251150268,0.05816286025281881,-0.3587641038330971,-0.0872371477910911
9.211779610597076e-10,4.4186190006493876e-05,-5534.196785875967,7668949.7155587785,-978.5112216859873,-339.5218434558139,3854.5821857700876,1.578973953060235,0.12267715220598209,0.05908227387338522,-0.3736710221154838,-0.09487409313515355
8.751421260515506e-10,4.329470886939191e-05,-5507.920366895765,7670760.586939088,-976.237385563942,-339.5193805942191,3862.59775617883,1.5132544780573305,0.12064919822131377,0.058756162410047066,-0.36912277472543065,-0.09270107868085047
9.425065028902667e-10,4.555135180402266e-05,-5777.413285738234,7996440.093626015,-1010.9902705971348,-353.4744954479811,4045.7353192784803,1.5750709171063426,0.1278990561031769,0.061064742114085226,-0.38828592535935996,-0.0994066385970717
9.398307797829805e-10,4.60401827676014e-05,-6035.261118660954,8558406.007033156,-1061.686450087612,-371.3224190083232,4156.15499445888,1.576486603579601,0.13171547335808884,0.06425955334837964,-0.39398244163684015,-0.10014763194781794
8.722385676140269e-10,4.47738008004829e-05,-5932.241985998542,8787100.385293573,-1068.1061389803904,-369.20327065598883,4116.296729293163,1.4884374662262176,0.12885681719313485,0.06444977668281482,-0.37849745968368853,-0.09421935524068437
9.017656275569578e-10,4.390557923974708e-05,-6103.1448359092365,8571206.536501193,-1049.1835288839327,-391.5427230160841,4137.862170113451,1.4908098223987418,0.12949165620645237,0.06307323811832806,-0.3891067809688368,-0.09947300788911644
1.0736545884065924e-09,4.818277377967621e-05,-6550.123072365262,9587322.496029517,-1203.5759815729305,-406.86987544902814,4364.138576651503,1.7687629873601127,0.14448196823451787,0.07169299634979459,-0.4659946666927359,-0.11186777427779779
1.0611249453185214e-09,4.77135119819837e-05,-6747.515933184862,9761461.003942164,-1223.4147070279946,-411.96745923730214,4421.595512362567,1.7616924004022707,0.14553846837617207,0.07265202781027598,-0.4728629475413916,-0.11229869493468442
8.941297780775032e-10,4.3081169805747286e-05,-6864.993220428931,9825019.376561295,-1162.819321886374,-409.9503088819348,4173.39944079351,1.6338938571606572,0.13793545046753194,0.06661455495489142,-0.39252732974917187,-0.09382538928984639
9.052451211683264e-10,4.333468901244347e-05,-6910.48835496449,9973345.368514787,-1173.550627979854,-416.25164917835554,4208.958851592712,1.651953095710122,0.13967417211933367,0.06713375945462466,-0.3927217388144711,-0.0938373145850709
8.919770676050784e-10,4.2664506848360086e-05,-6895.388396857391,9720413.25202004,-1167.8266953671587,-405.84770652836016,4075.1883837680125,1.6475355581351114,0.13786480567975865,0.06728724530313389,-0.3918915716317223,-0.09202729290240454
1.2711098891449878e-09,4.708473877563933e-05,-7627.657373213143,16074045.038002443,-1573.894468303905,-596.861242144323,8039.776216094519,2.049307229823589,0.2068938873431307,0.08201405966328947,-0.5047074404600814,-0.11967386555298022
1.1893211995338845e-09,4.522746846597518e-05,-7498.045012026894,15094792.251186064,-1481.0925098322814,-585.695272424879,7542.738824135569,1.9883643858482474,0.19731310802785634,0.07678409920611799,-0.4603727231973872,-0.11087603555291206
1.1297884153514454e-09,4.369456134833699e-05,-7337.639315763526,14613821.567180904,-1452.0678842405698,-554.3647930061272,7175.399474881313,1.923217214158919,0.19023352387758416,0.07483616723722804,-0.45588443325175454,-0.10667568051795877
1.2007338778289282e-09,5.268241999075322e-05,-7035.6367082185625,3561517.2425179495,-896.0081839059185,-303.35668441702114,-216.0114569216648,-0.18398960628793448,0.22389827025912445,0.6242603622175382,0.32424557161253065,1.488312030993673
1.0901741098403451e-09,4.987889768525924e-05,-6825.673329013295,3417811.395325215,-863.8842235210599,-293.8981074417092,-208.87593926873936,-0.16910682569499455,0.21317050708067992,0.6031212518439734,0.3085209263335606,1.39499252364633
9.327127487015157e-10,4.830351449278805e-05,-7101.564979219995,3828888.434484779,-955.014214002367,-284.5045598754611,-217.6563636640779,-0.1615046207817301,0.21211764840578212,0.6572455817939996,0.31677929458230625,1.2627570206253196
9.212482434293304e-10,4.765705828578241e-05,-7206.698347136134,3845100.549005988,-964.9447232222102,-303.1678708616278,-218.43519126715057,-0.15923650652802565,0.2138431053363,0.6678715654043821,0.3191457134062458,1.2498048140151767
9.532157177483076e-10,4.801302054227504e-05,-7225.2461682645235,3731349.4617418493,-957.3146067774176,-307.9904613305411,-213.26954743061836,-0.1572199973204513,0.21606856178545897,0.6724005545654995,0.3213955115511724,1.242431573504962
1.0321836039777848e-09,5.145982894756025e-05,-7271.278167119092,3829214.1432063724,-966.3350579960994,-310.7838971998454,-226.92629323064565,-0.17294990136295754,0.22110123049335956,0.6690398588444528,0.3318900896614833,1.3353290970405831
9.884616640856515e-10,5.044779371358044e-05,-6926.885102167258,3514223.227617149,-915.7080910144559,-294.32182258900673,-218.34607020171825,-0.166945574011966,0.21065422103186943,0.6388659584367774,0.32027638526611846,1.2651473540529061
9.55828654307876e-10,5.026521129265133e-05,-6692.939333370759,3388019.3332170015,-880.3252197826773,-284.4128379620411,-216.8413544412969,-0.16136684640826354,0.20360763595036563,0.6159782446472096,0.3062654998498356,1.214394565023853
1.0132894053029601e-09,5.229963287856663e-05,-6569.344597711058,3253450.8652903656,-871.7185119102436,-279.04767550260834,-219.48938776417566,-0.17160719132537447,0.20323021184712192,0.6065256469109923,0.31793772082163885,1.248173196810328
7.998731521956375e-10,4.208234062510815e-05,-7584.486049957063,4329508.554916356,-1040.7958146206313,-325.7300444325173,-222.959399509625,-0.1447899098219977,0.21963299114043167,0.7046243256617067,0.3352547604880276,1.1725543138854473
7.429951797625272e-10,4.050653598669895e-05,-7529.848788462005,4406991.966273916,-1038.846828888684,-319.32032692165683,-222.04706889105103,-0.137446309825415,0.2125695986341912,0.697230533373022,0.32792025759206944,1.151392838303719
6.551297237304938e-10,3.7943344173244564e-05,-7320.874262018829,4266661.314045503,-1001.9186494447215,-301.59827987233547,-215.54731269059883,-0.12438514361614185,0.2008740375480712,0.6754187341371571,0.3062368581213498,1.0681245485381596
6.457661511012507e-10,3.7329434579062834e-05,-7158.419548822017,4152471.237579545,-975.9672056143991,-297.76119199570184,-211.5980854813776,-0.1217845299811689,0.19561188737478288,0.6569484821264302,0.2994753727239512,1.060476497987768
-5.128356799230668e-10,7.3834416702733656e-06,1613.717731327763,-4060343.7101340117,1335.5382035976277,-171.72895599516374,-118.87208130096904,0.1684966960389576,-0.11002117464159311,-0.7292543352521899,-0.44310641822215047,0.30360920842746497
-5.137403122397879e-10,7.4428614248985395e-06,1632.5652545900236,-4119001.5534829334,1349.051045016179,-173.369370524426,-121.07452626146235,0.16699456328265724,-0.11144852451880181,-0.7371870866041168,-0.4511082418724846,0.31178711687206156
-5.180505082192512e-10,7.436486353251332e-06,1656.7904386378088,-4226149.030128481,1378.4631905578071,-174.94637549088475,-122.64785250463736,0.16855229337440358,-0.11297961193701449,-0.7499753691159476,-0.4585299737651096,0.31643239519503447
-4.732782718119775e-10,7.099312598346922e-06,1604.7891204266907,-3988940.0585721,1288.6251619290588,-169.8908633009663,-121.48868893479765,0.1523625399795164,-0.10700692745720042,-0.7062318095437375,-0.42406833117493103,0.3062664991926805
-4.785146916621047e-10,6.979992773967911e-06,1588.4324612324647,-3938512.734643036,1271.0422989562014,-166.36905926111803,-119.59568559190144,0.1498611075913388,-0.1056834168900209,-0.6970839786665238,-0.4289128973246006,0.31497852650143043
-4.749211939183217e-10,6.914914028537731e-06,1580.9357679492105,-3919970.099325464,1292.781160059338,-163.155821891257,-117.35677577483764,0.15057088867912405,-0.10490509049962997,-0.7055217001776175,-0.44209984104319927,0.30952972688082975
-5.013107189702809e-10,7.207845966372295e-06,1566.3649563580086,-3778906.299095547,1237.188527129217,-165.07166406443318,-123.040330369863,0.1583551037242319,-0.10667421258680489,-0.6797152632491806,-0.41985939716783366,0.3157407501019175
-6.206587313825643e-10,7.633240577290641e-06,1590.195224729848,-3720740.137726871,1268.0281701244908,-172.13866757569974,-122.87257736881241,-0.33872134185515507,0.124297576997738,1.429472460540489,3.8503156750870913,6.150196353213486
-5.298558963046481e-10,6.969543278765192e-06,1396.0890251528529,-3075013.896632677,1135.0665972883698,-148.8451421507798,-110.17683664503225,-0.30358442072159436,0.10529892505301057,1.2692921657323664,3.599458137063811,5.333939465597333
-4.568952730274459e-10,6.138561407407171e-06,1325.5277140899395,-2901491.7317894218,1080.12768350905,-139.83330270376095,-105.16009119167896,-0.2623771451547076,0.09650366665543919,1.1992327370412783,3.40455569082078,4.916374307875876
1.7068080982628186e-09,-8.105516185855349e-05,490.2107546258394,-1730170.5329318694,811.706467232768,242.03260654237226,-70.02559860286398,1.5975652854238969,-0.2211777388053616,-1.0812652838200945,-0.5406927490734964,1.8920816259421682
1.4881836024100106e-09,-8.194828729708538e-05,375.767019909504,-1068370.5287441951,631.1409590858509,179.7457842485216,-60.52179169339354,1.5151290368392396,-0.16701438278318115,-0.8455411173662927,-0.4966838502640751,1.5597666092076525
1.5957640348790056e-09,-8.636325210706754e-05,384.85382850145663,-1101681.295474973,655.5281194137928,179.056579895362,-61.645629106097104,1.6245791415398154,-0.17457396081464907,-0.8794555331902469,-0.519571042603312,1.614553108479494
1.6091348899245486e-09,-8.772106871292146e-05,389.8611907066828,-1129531.0584693467,662.7915488838617,182.50848193693528,-62.48614534391584,1.6498923892067765,-0.17760959947225632,-0.8913393662566619,-0.5153514133533891,1.615609166301937
1.39038835471598e-09,-8.203336775052015e-05,367.7984217321456,-1048494.5752285223,625.7550303879555,185.15787297123353,-58.645554963683956,1.4989215967008434,-0.16273418812390686,-0.8433671264216833,-0.47426900556093904,1.4315747170702393
1.5141258498095817e-09,-8.875998850727497e-05,411.26770698552986,-1290451.7637083621,727.8902470096324,203.3565378893624,-65.26031397228195,1.677025308667698,-0.18602782030375373,-0.9717210539086371,-0.5199776137124983,1.5322190587047537
1.0038891363058137e-09,-7.684397043507327e-05,385.0251965538012,-1267339.1368822872,695.5683469194616,184.52975798420118,-63.056613913836564,1.2961983289147496,-0.16198855238458687,-0.9315026551836745,-0.4342329731676311,1.1765019403099157
1.0123874086613909e-09,-7.878706560943956e-05,400.3447546836022,-1361546.5315849355,748.9943575318306,185.03133212028717,-65.21562075173952,1.3718749502746612,-0.16902788970662336,-0.9978215009845908,-0.4549773393284284,1.1628633007300124
1.1162918175256421e-09,-8.14713008744024e-05,413.03322731656755,-1402203.4463730499,775.8338528333948,190.33609650509337,-66.45641492317763,1.465132916060063,-0.176572209967075,-1.0293613975779239,-0.49021804958651516,1.2573127676506985
1.1080996970634096e-09,-8.080028436166398e-05,407.9859452638676,-1358133.3081043018,759.3955972404963,191.3554924543513,-65.01863314334989,1.4340010514605332,-0.1752039737095049,-1.0117126568942774,-0.4824878656256869,1.2274999629004273
8.137656769938629e-10,-7.137511254444056e-05,391.8645827189364,-1316723.4287725005,729.7294820216063,182.35671810007014,-62.03978732768196,1.105210128821714,-0.16295372510742528,-0.9978241201516609,-0.41534530581346996,0.9174583393402237
8.108456477247391e-10,-7.089795267851451e-05,395.35625493012924,-1339375.6012428466,743.8153923923611,188.63045444583503,-61.923555779818095,1.099326452940884,-0.16342056439093502,-1.011478002796319,-0.4244028972426927,0.9219680409979012
8.277530459639571e-10,-7.127134078121447e-05,394.0621989110635,-1312517.722335386,733.3144330515556,183.80861662994246,-61.245609672146294,1.077059535433499,-0.16389998206478054,-1.0001339706942127,-0.42532739838766237,0.9449807823237291
7.49539855348063e-10,-6.78620252118486e-05,387.56088172270535,-1328559.1472817592,740.9504446670833,180.46185626084116,-60.08599390475957,1.0147723499222152,-0.15714301625189042,-1.0040303336561276,-0.42236320445686576,0.8848043051004196
